-3.164678579196333885e-03,-4.761168360710144043e-02,-3.162147477269172668e-02,-3.548143431544303894e-02,-7.210914045572280884e-03,1.294526923447847366e-02,1.501873973757028580e-02,-8.773413300514221191e-02,-4.886870086193084717e-02,-4.503803327679634094e-02,2.429113909602165222e-02,3.461902029812335968e-03,-2.724967338144779205e-02,-3.042317740619182587e-02,2.919708564877510071e-02,-1.684003800619393587e-04,3.983531892299652100e-02,-1.776876114308834076e-02,-2.690851874649524689e-02,-4.792978242039680481e-02,7.570483256131410599e-03,-3.552285209298133850e-02,-9.655437432229518890e-03,-6.000544875860214233e-02,5.814812611788511276e-03,5.642412975430488586e-02,-4.669021442532539368e-02,6.813634932041168213e-02,-1.695409044623374939e-02,-1.343626435846090317e-02,-1.279781013727188110e-02,-5.678326636552810669e-02,-3.922873735427856445e-02,-8.367141336202621460e-02,-3.747234120965003967e-02,3.781018895097076893e-04,-4.181230068206787109e-02,-4.305307194590568542e-02,-2.531467378139495850e-02,-9.897348470985889435e-03,3.554901853203773499e-02,7.020094990730285645e-02,8.904741145670413971e-03,-8.146392554044723511e-02,-9.135236032307147980e-03,-3.751006349921226501e-02,-7.475039362907409668e-02,-6.696951389312744141e-02,-1.714521087706089020e-02,-6.650489568710327148e-02,2.135822782292962074e-03,3.617669641971588135e-02,-6.860644556581974030e-03,4.403894301503896713e-03,3.799962624907493591e-02,-5.136407911777496338e-02,-1.394211780279874802e-02,-2.754334919154644012e-02,-2.233997359871864319e-02,-1.284991577267646790e-02,-6.637387722730636597e-02,1.304548233747482300e-02,-4.970382153987884521e-02,-2.465758286416530609e-02,2.347948215901851654e-02,8.196345716714859009e-02,1.686798408627510071e-02,-1.591346692293882370e-03,3.125151991844177246e-02,-3.314098343253135681e-02,4.903425462543964386e-03,1.689743809401988983e-02,-4.822656512260437012e-02,-5.277989059686660767e-02,3.270891308784484863e-02,8.584745973348617554e-02,-7.294765114784240723e-02,2.757794968783855438e-02,6.277743726968765259e-02,-5.866750702261924744e-02,-4.513940215110778809e-02,6.737067596986889839e-04,3.020053729414939880e-02,-1.598393172025680542e-02,-1.678175665438175201e-02,-2.992151491343975067e-02,-2.489064820110797882e-02,-2.654899470508098602e-02,5.872380733489990234e-02,4.170233756303787231e-02,-6.102998927235603333e-02,2.280028723180294037e-02,3.303772537037730217e-03,3.035745397210121155e-02,-2.800008654594421387e-02,1.067819632589817047e-02,-1.064332108944654465e-02,-4.780346900224685669e-02,-2.668987773358821869e-02,3.324661776423454285e-02,-5.986953154206275940e-02,-4.307029396295547485e-02,1.826302148401737213e-02,-5.278339609503746033e-02,6.980940699577331543e-02,3.642506897449493408e-02,6.684166844934225082e-03,4.194208979606628418e-02,-1.424305792897939682e-02,2.590147964656352997e-02,-4.639772698283195496e-02,-9.830649010837078094e-03,4.035029932856559753e-02,-4.099632427096366882e-02,-3.729752078652381897e-02,-5.126762390136718750e-02,3.757953236345201731e-04,-5.866146087646484375e-02,-3.666811436414718628e-02,-1.623418740928173065e-02,2.073428034782409668e-02,4.035044834017753601e-02,-4.759344831109046936e-02,-9.396131336688995361e-02,1.231175940483808517e-02,-5.778940394520759583e-02,-1.766724139451980591e-02,-5.500547960400581360e-02
6.290113925933837891e-02,-9.932395815849304199e-02,7.995033636689186096e-03,2.403191477060317993e-02,-4.420169815421104431e-02,3.400608897209167480e-02,-3.725949302315711975e-02,-5.126649141311645508e-02,-2.937529049813747406e-02,-6.625474989414215088e-02,-2.688398957252502441e-02,-1.334343687631189823e-03,-1.727926917374134064e-02,3.298342227935791016e-02,-5.235749855637550354e-02,-2.976321987807750702e-02,6.954427063465118408e-02,-2.717667073011398315e-02,-3.574372828006744385e-02,-5.794731900095939636e-02,-3.049995750188827515e-02,-3.257059305906295776e-02,-3.879530727863311768e-02,-2.246078662574291229e-02,-1.988865807652473450e-02,1.357229799032211304e-02,4.918928071856498718e-02,2.579343505203723907e-02,1.150582451373338699e-02,-1.033114641904830933e-02,-7.185184210538864136e-02,2.985481731593608856e-02,1.510031614452600479e-02,-5.598513782024383545e-02,1.274826750159263611e-02,7.720559835433959961e-03,-2.039970271289348602e-02,-3.190411627292633057e-02,3.690459579229354858e-02,-4.896598681807518005e-02,3.464625775814056396e-02,-4.097007587552070618e-02,-5.429794639348983765e-02,6.067942362278699875e-03,-4.796101897954940796e-02,2.951529063284397125e-02,-5.336665734648704529e-02,-8.305428922176361084e-02,-6.784500926733016968e-02,-1.970776170492172241e-02,-6.491670385003089905e-03,-4.427047446370124817e-03,3.158870339393615723e-02,-3.575289994478225708e-02,-4.225716367363929749e-02,-8.835613727569580078e-02,1.235616486519575119e-02,1.534829195588827133e-02,-3.448516875505447388e-02,-7.302027195692062378e-03,-1.272962987422943115e-02,-5.457395222038030624e-03,-2.498100884258747101e-02,-4.035850241780281067e-02,-8.120207488536834717e-02,4.631589725613594055e-02,1.250240020453929901e-02,-2.335209771990776062e-02,-2.271214127540588379e-02,4.038891196250915527e-02,5.701309069991111755e-02,-1.231101248413324356e-02,-2.498887479305267334e-02,-2.875300869345664978e-02,-2.156172692775726318e-02,3.419370157644152641e-03,-1.958229206502437592e-02,1.660430617630481720e-02,-1.642680913209915161e-02,4.821152240037918091e-02,1.630551740527153015e-02,-6.017725914716720581e-02,-7.707501202821731567e-02,3.750704461708664894e-03,-2.241602726280689240e-02,-5.139904841780662537e-02,2.244561677798628807e-03,-4.788751155138015747e-02,6.893660128116607666e-02,-5.946668982505798340e-02,5.123379174619913101e-03,1.186077017337083817e-02,5.076766759157180786e-02,6.690417230129241943e-02,-1.645136065781116486e-02,-6.228309357538819313e-04,2.492803323548287153e-04,-4.798706993460655212e-02,-4.814491420984268188e-02,-4.498787224292755127e-02,-4.257681593298912048e-02,1.713307201862335205e-02,-3.149807080626487732e-02,3.412850201129913330e-03,5.068646743893623352e-02,1.362292934209108353e-02,-3.120114095509052277e-03,1.542338635772466660e-02,-8.098039776086807251e-03,-9.477373212575912476e-03,2.984768152236938477e-02,-2.502053044736385345e-02,2.686749026179313660e-02,1.262081116437911987e-01,-4.589347913861274719e-02,-5.558168143033981323e-02,-4.969875141978263855e-02,-1.260849367827177048e-02,-7.023422420024871826e-02,2.226182073354721069e-02,2.118011564016342163e-02,-1.142180804163217545e-02,1.390923373401165009e-02,-3.063821978867053986e-02,-7.037811446934938431e-03,-5.100349895656108856e-03,-2.930091880261898041e-02,-4.389303736388683319e-03
8.180518634617328644e-03,-6.756618618965148926e-02,2.579660899937152863e-02,4.638127610087394714e-02,-1.685267686843872070e-02,-5.238959565758705139e-02,1.379892695695161819e-02,-1.757629215717315674e-02,-2.889732457697391510e-02,-2.547522634267807007e-02,-4.916461184620857239e-02,-3.936201333999633789e-02,-5.929033830761909485e-02,4.216928407549858093e-02,-3.824755549430847168e-02,-2.651598677039146423e-02,8.132910355925559998e-03,-3.355781361460685730e-02,3.186596930027008057e-02,1.743061095476150513e-02,-5.162246525287628174e-02,4.632089659571647644e-02,-8.410836011171340942e-02,-2.862047404050827026e-02,-1.160339936614036560e-01,5.779547244310379028e-02,1.712187938392162323e-02,-1.430709194391965866e-02,2.917866036295890808e-02,-4.449867084622383118e-02,2.797777950763702393e-02,-6.618539243936538696e-02,9.664850682020187378e-02,-2.226068265736103058e-02,-5.521805956959724426e-03,-4.741355031728744507e-02,-3.822946920990943909e-03,-1.372642721980810165e-02,1.434595882892608643e-02,-3.397358581423759460e-02,3.128278627991676331e-02,-2.417242340743541718e-02,3.757946193218231201e-02,-1.731729134917259216e-02,1.300528366118669510e-02,6.349763367325067520e-03,-1.399485487490892410e-02,-2.328760921955108643e-02,-2.886826358735561371e-02,1.805367693305015564e-02,-4.460445046424865723e-02,-2.718553878366947174e-02,1.197436940856277943e-03,-1.539186108857393265e-02,-5.491698160767555237e-02,4.176735132932662964e-02,1.744761317968368530e-02,-1.182710751891136169e-02,-7.758809626102447510e-02,-1.130350492894649506e-02,-1.594814658164978027e-02,6.158989854156970978e-03,1.308600325137376785e-02,-3.039119951426982880e-02,4.514036700129508972e-02,4.041391424834728241e-03,-4.492431506514549255e-02,-4.205483570694923401e-02,-4.071491956710815430e-02,-1.667125895619392395e-02,-5.823534727096557617e-02,8.771669119596481323e-03,2.317154593765735626e-02,1.961584202945232391e-02,-2.028349786996841431e-02,3.239926323294639587e-02,6.651073228567838669e-03,-2.632093429565429688e-02,3.062000498175621033e-02,-7.825800776481628418e-02,2.493902295827865601e-02,-3.445823490619659424e-02,3.412915160879492760e-03,2.332747727632522583e-02,-4.681923985481262207e-02,-3.244480118155479431e-02,-1.852470450103282928e-02,-8.555919863283634186e-03,1.581362332217395306e-03,-2.062736451625823975e-02,-1.643877848982810974e-02,-1.133410073816776276e-02,6.589233875274658203e-02,3.986538387835025787e-03,-4.285812377929687500e-02,3.137436928227543831e-03,2.817860990762710571e-02,-9.213126264512538910e-03,-2.776039578020572662e-02,7.180432975292205811e-02,-1.939056441187858582e-02,-4.219687730073928833e-02,-3.940330445766448975e-02,2.643098495900630951e-02,4.074800759553909302e-02,4.512950778007507324e-02,1.724776811897754669e-02,-3.006053715944290161e-02,-5.263566970825195312e-02,-4.436009004712104797e-02,-2.980880253016948700e-02,1.026473641395568848e-01,3.804254904389381409e-02,8.909077942371368408e-02,1.036478802561759949e-01,1.854094560258090496e-03,5.780858453363180161e-03,-1.757958345115184784e-02,-4.422089084982872009e-03,3.073139674961566925e-02,-4.765707533806562424e-03,5.377054680138826370e-03,-3.242847695946693420e-02,4.613506793975830078e-02,-2.072271704673767090e-02,3.360711038112640381e-02,-2.127250097692012787e-02,3.502323478460311890e-02
3.364654630422592163e-02,4.705394431948661804e-02,5.374273750931024551e-03,-5.887595936655998230e-03,6.356021185638383031e-05,-6.264749169349670410e-02,-1.172087062150239944e-02,-3.003469854593276978e-02,-8.735100738704204559e-03,-8.910940587520599365e-02,-4.692419432103633881e-03,1.451010815799236298e-02,1.371047552675008774e-02,-3.384045884013175964e-02,-8.779593743383884430e-03,-6.476113945245742798e-02,-1.097698695957660675e-02,1.322178822010755539e-02,1.395754516124725342e-02,9.115211665630340576e-03,-3.583870083093643188e-02,-6.652611494064331055e-02,-2.344105392694473267e-02,2.957053482532501221e-02,-8.737054467201232910e-02,2.340589836239814758e-02,1.508182473480701447e-02,1.935165259055793285e-03,-5.691608414053916931e-02,1.776362583041191101e-02,-2.977938763797283173e-02,-4.394392296671867371e-02,-1.713166758418083191e-02,-3.273105621337890625e-02,-3.529257699847221375e-02,2.407900616526603699e-02,1.714522764086723328e-02,-4.596615210175514221e-02,9.407943114638328552e-03,5.611125007271766663e-02,-1.803844608366489410e-02,7.747573405504226685e-02,-3.433896228671073914e-02,3.778479248285293579e-02,-4.531554877758026123e-02,-9.065459668636322021e-02,-2.505595237016677856e-02,-4.569648206233978271e-02,6.815654039382934570e-02,-6.608644872903823853e-02,2.452490292489528656e-02,-5.320733040571212769e-02,2.861065790057182312e-02,2.985086664557456970e-02,-2.776963636279106140e-02,1.381591334939002991e-02,-2.994369156658649445e-02,-2.537077292799949646e-02,1.741572842001914978e-02,-2.838485315442085266e-02,7.065732777118682861e-02,1.350960973650217056e-02,-3.328498825430870056e-02,-4.328228160738945007e-02,-5.312787741422653198e-02,-1.592840068042278290e-02,-5.054173618555068970e-02,1.171210035681724548e-02,-2.941065281629562378e-02,3.880531713366508484e-02,2.543168887495994568e-02,-2.247134409844875336e-02,-2.833202667534351349e-02,-2.959184721112251282e-02,1.015740353614091873e-02,2.185834385454654694e-02,-4.627193510532379150e-02,-6.447824835777282715e-02,-2.140434645116329193e-02,-1.473985705524682999e-02,3.470763564109802246e-02,-1.597845554351806641e-02,-5.453738570213317871e-02,-1.040166057646274567e-02,-6.616275757551193237e-02,4.469837248325347900e-02,3.524640575051307678e-02,-5.607158318161964417e-02,-6.563357263803482056e-02,-6.738485302776098251e-03,-7.568970322608947754e-02,-1.455652713775634766e-02,2.793009392917156219e-02,5.866665393114089966e-03,-7.799057755619287491e-03,-4.447846487164497375e-02,-1.890023984014987946e-02,-3.108513914048671722e-02,-1.513469964265823364e-02,6.106774322688579559e-03,-9.918189607560634613e-03,-2.826444618403911591e-02,8.793426677584648132e-03,-8.333733677864074707e-02,6.343696266412734985e-02,-1.508591417223215103e-02,-5.084470380097627640e-03,-4.187257215380668640e-02,-2.348178625106811523e-02,-1.248930953443050385e-02,8.159027434885501862e-03,-1.043489854782819748e-02,1.084341108798980713e-02,4.350130259990692139e-02,-1.480868272483348846e-02,-2.221747301518917084e-02,1.498045981861650944e-03,4.817830771207809448e-02,2.072755806148052216e-02,-2.733865939080715179e-02,2.364354021847248077e-02,9.063421166501939297e-04,-1.620111614465713501e-02,-2.354987338185310364e-02,-7.650282233953475952e-02,-6.162872910499572754e-02,4.613021388649940491e-03,-1.358327176421880722e-02
1.140227913856506348e-02,1.015664171427488327e-02,-1.176875783130526543e-03,-6.731686741113662720e-02,3.136494755744934082e-02,-2.501520141959190369e-02,-6.398840993642807007e-02,8.464019745588302612e-03,-1.508077420294284821e-02,-1.030878573656082153e-01,-2.820041589438915253e-02,-2.525786682963371277e-02,-5.912394449114799500e-02,4.775904491543769836e-02,-3.301186487078666687e-02,-6.898599863052368164e-02,-1.152338366955518723e-02,-2.916415594518184662e-02,-4.421461001038551331e-02,-5.946060270071029663e-02,2.345945686101913452e-02,-1.331847906112670898e-02,-9.582671523094177246e-02,-6.157953664660453796e-02,-1.805597729980945587e-02,-1.247750781476497650e-02,2.202835306525230408e-02,3.094123303890228271e-02,-3.447213768959045410e-02,4.646470770239830017e-02,-4.020429681986570358e-03,-3.624241426587104797e-02,3.959680721163749695e-02,-3.288675099611282349e-02,-4.047165811061859131e-02,3.674985095858573914e-02,-5.885949730873107910e-02,1.205439795739948750e-03,-6.997040659189224243e-02,-5.471004545688629150e-02,8.051120676100254059e-03,-1.460205111652612686e-02,-4.408178105950355530e-02,-5.335655063390731812e-02,-2.181554399430751801e-02,7.173014455474913120e-05,1.895808801054954529e-02,1.726654358208179474e-02,7.080213632434606552e-03,2.877419255673885345e-02,-9.847984649240970612e-03,1.285719126462936401e-02,-1.027830317616462708e-02,-1.113741658627986908e-02,4.707592073827981949e-03,4.814017191529273987e-02,-9.016505442559719086e-03,-9.880568832159042358e-03,-1.269271690398454666e-02,3.835163265466690063e-02,5.553262680768966675e-02,-4.038129746913909912e-02,5.002722144126892090e-02,-9.050928056240081787e-02,1.101046800613403320e-02,3.363345190882682800e-02,-2.239431813359260559e-02,-1.932785473763942719e-02,-3.262189030647277832e-02,-1.550984289497137070e-02,-4.060878232121467590e-02,-1.827344298362731934e-02,-2.337214164435863495e-02,2.665960043668746948e-02,-1.235250011086463928e-02,-2.169047668576240540e-02,1.013900712132453918e-02,-1.110189110040664673e-01,-1.847858354449272156e-02,2.418262511491775513e-02,-4.648031294345855713e-02,6.005391944199800491e-03,-5.425562709569931030e-02,-1.722294650971889496e-02,-1.665816642343997955e-02,3.438467159867286682e-02,3.449723124504089355e-02,-4.307823255658149719e-02,-5.649861413985490799e-03,-3.379273042082786560e-02,-4.519470408558845520e-02,-4.364410787820816040e-02,-5.260426551103591919e-02,-3.062473610043525696e-02,-3.430920466780662537e-02,-1.818867214024066925e-02,1.267570070922374725e-02,-6.848426163196563721e-02,-9.560673497617244720e-03,-8.063695579767227173e-02,4.101248458027839661e-02,-9.437281638383865356e-02,-1.814055256545543671e-02,-1.888299593701958656e-03,5.107018351554870605e-02,-2.490027807652950287e-03,-4.482099786400794983e-02,6.838271394371986389e-03,-7.718892395496368408e-02,1.356975547969341278e-02,-2.810646034777164459e-02,2.184447832405567169e-02,-6.020831316709518433e-02,-1.199479866772890091e-02,-8.652342110872268677e-02,3.297511488199234009e-02,-2.240743674337863922e-02,2.090360410511493683e-02,-5.144282802939414978e-02,-3.469955548644065857e-02,3.353317454457283020e-02,2.542270720005035400e-02,-7.722482830286026001e-02,-8.602293580770492554e-02,-3.998205438256263733e-02,-1.776546938344836235e-03,-4.031122103333473206e-02,4.238279908895492554e-02
-8.678309619426727295e-03,-3.572544082999229431e-02,1.425862964242696762e-02,2.779147028923034668e-02,2.666956745088100433e-02,-1.261284016072750092e-02,-7.734239101409912109e-02,-8.348935283720493317e-03,-3.283597528934478760e-02,-3.836006298661231995e-02,2.232798747718334198e-02,2.067217417061328888e-02,3.609563037753105164e-02,-3.082461841404438019e-02,-4.519225622061640024e-04,-5.230220779776573181e-02,-5.010598525404930115e-02,-8.074963837862014771e-02,1.325099449604749680e-02,4.093728959560394287e-02,3.503876179456710815e-02,-1.527696195989847183e-02,-5.373932793736457825e-02,-5.554337799549102783e-02,2.638356573879718781e-02,-3.378139436244964600e-02,-3.444473445415496826e-02,7.518086582422256470e-02,-4.085811227560043335e-02,1.109982356429100037e-01,-2.274938672780990601e-02,8.040276169776916504e-02,-2.029398456215858459e-02,3.653643652796745300e-03,6.830140203237533569e-02,1.205914281308650970e-02,-1.409479044377803802e-02,4.006199166178703308e-02,2.281049080193042755e-02,-1.262474805116653442e-02,6.607597321271896362e-02,1.419436279684305191e-02,4.056000709533691406e-02,-6.001797690987586975e-02,4.710141569375991821e-02,-6.757421046495437622e-02,6.579896062612533569e-02,5.908465012907981873e-03,-3.051013872027397156e-02,-7.453081756830215454e-02,-5.936892330646514893e-02,-9.461150504648685455e-03,-3.126386553049087524e-02,3.041292913258075714e-02,2.270641736686229706e-02,1.230895668268203735e-01,2.504979446530342102e-02,9.299827739596366882e-03,-1.043530553579330444e-01,-2.310883440077304840e-02,-1.561972592025995255e-02,-4.424089565873146057e-02,1.321186497807502747e-02,-5.000920593738555908e-02,6.293971836566925049e-02,-3.756288066506385803e-02,-3.966563567519187927e-02,7.602133322507143021e-03,-3.326017782092094421e-02,-1.527791004627943039e-02,-7.379192113876342773e-02,3.722621127963066101e-02,-2.307877875864505768e-04,3.200767934322357178e-02,2.141559496521949768e-02,-6.127181462943553925e-03,-1.595810055732727051e-02,-2.208321355283260345e-02,1.850109733641147614e-02,1.508731365902349353e-04,-9.331495314836502075e-02,-2.687250450253486633e-02,2.645380981266498566e-02,-4.332004114985466003e-02,-4.852242767810821533e-02,-5.852171778678894043e-02,-6.042549014091491699e-02,-1.884365268051624298e-02,9.808237664401531219e-03,-3.796236962080001831e-02,1.025665644556283951e-02,2.466446347534656525e-02,6.675520911812782288e-03,-1.867235079407691956e-02,2.393480762839317322e-02,5.463741254061460495e-03,-2.072355523705482483e-02,-3.091849014163017273e-02,-8.514250069856643677e-02,2.178150415420532227e-02,-3.051592223346233368e-02,-1.209641695022583008e-01,7.024846971035003662e-03,-7.386601064354181290e-03,-2.104209735989570618e-03,-5.072248727083206177e-02,-1.861009746789932251e-03,-3.618261218070983887e-02,3.932337462902069092e-02,-1.877291128039360046e-02,-3.268621629104018211e-03,4.230639338493347168e-02,5.139642208814620972e-02,5.470362305641174316e-02,6.374856829643249512e-02,-4.671409353613853455e-02,6.626304984092712402e-02,-2.611161395907402039e-02,-2.338599786162376404e-02,-2.637408673763275146e-03,2.254928275942802429e-02,-3.209298849105834961e-02,-1.020901948213577271e-01,-2.194035053253173828e-02,-2.939847484230995178e-02,1.189287099987268448e-02,-9.076300263404846191e-02,1.064811833202838898e-02
-1.962338760495185852e-02,-2.078513428568840027e-02,-5.098901689052581787e-03,6.770104914903640747e-02,5.067342147231101990e-02,-4.091717302799224854e-03,-1.802754215896129608e-02,4.843381792306900024e-02,-1.989512518048286438e-02,-6.658107042312622070e-02,4.792905878275632858e-03,1.905531994998455048e-02,3.567182645201683044e-02,3.171852603554725647e-02,-4.992345348000526428e-03,-5.410479381680488586e-02,-3.011167980730533600e-02,2.953269891440868378e-02,4.044323414564132690e-02,6.657876819372177124e-02,-3.570170700550079346e-02,-5.661621689796447754e-02,5.705172661691904068e-03,1.022768905386328697e-03,4.626534413546323776e-03,-3.244759142398834229e-02,-2.678851597011089325e-03,-2.562218904495239258e-02,-8.680392988026142120e-03,4.194302111864089966e-02,-1.355180284008383751e-03,-7.081586122512817383e-02,-5.619608331471681595e-03,-3.445348003879189491e-03,3.266614302992820740e-02,2.641976624727249146e-02,2.112261950969696045e-02,8.231823891401290894e-02,-2.438660711050033569e-02,-7.677096873521804810e-02,-3.445162996649742126e-02,6.796472519636154175e-02,6.507421843707561493e-03,-8.058664202690124512e-02,-6.071006879210472107e-02,-8.563039451837539673e-02,2.164840698242187500e-03,3.537227213382720947e-02,2.546274662017822266e-02,-4.914206266403198242e-02,-3.906281664967536926e-02,1.380594540387392044e-02,-1.027534753084182739e-01,2.814796380698680878e-02,-2.967346087098121643e-02,1.322895884513854980e-01,-5.369224026799201965e-02,6.831452250480651855e-02,4.278472810983657837e-02,-2.058121562004089355e-02,1.795610226690769196e-02,-7.781675457954406738e-02,-5.628675967454910278e-02,1.321204472333192825e-02,9.123661369085311890e-02,-1.850046217441558838e-02,6.082098558545112610e-02,-2.268484607338905334e-02,-2.374313212931156158e-02,-5.419205501675605774e-02,1.430041156709194183e-03,3.289841988589614630e-04,-1.228453870862722397e-02,4.956784471869468689e-02,-3.446114063262939453e-02,6.163922697305679321e-02,2.297320589423179626e-02,-9.209663420915603638e-02,-1.967864856123924255e-02,-8.985494263470172882e-03,1.423439569771289825e-02,-2.038568817079067230e-02,-7.124096900224685669e-02,4.589630290865898132e-03,-8.006312698125839233e-02,-1.610902510583400726e-02,-3.860059380531311035e-02,-2.263585291802883148e-02,-6.972539704293012619e-03,2.609814691822975874e-04,-1.050145849585533142e-01,-2.517084777355194092e-02,-2.986313775181770325e-02,4.208930954337120056e-02,6.496178358793258667e-02,-6.637141108512878418e-02,-1.226012874394655228e-02,-4.764761030673980713e-02,-2.186991833150386810e-02,1.210510451346635818e-02,-1.779801398515701294e-02,5.758886784315109253e-02,1.000716909766197205e-02,-7.968635112047195435e-02,1.546431332826614380e-02,-7.660493720322847366e-03,-1.063848584890365601e-01,6.142357829958200455e-03,-8.635894954204559326e-02,3.182743862271308899e-02,-3.074533119797706604e-02,2.660584077239036560e-02,5.053038243204355240e-03,-1.154348347336053848e-02,6.022366881370544434e-02,-4.910663887858390808e-02,-7.126013189554214478e-02,-1.378392986953258514e-02,2.537825889885425568e-02,-1.623950712382793427e-02,-8.390970528125762939e-02,8.417451381683349609e-02,5.159188434481620789e-02,-2.520377933979034424e-02,2.391663845628499985e-03,-2.285682223737239838e-02,1.310834009200334549e-02,6.309306621551513672e-02
2.510666288435459137e-02,-1.701645925641059875e-02,1.122722495347261429e-02,4.114372131880372763e-04,1.114981919527053833e-01,-6.038400903344154358e-02,3.045242466032505035e-02,-1.217673122882843018e-01,3.755678236484527588e-02,-2.814523689448833466e-02,-6.364951375871896744e-03,-1.121170446276664734e-02,-2.657745592296123505e-02,6.958334147930145264e-02,-7.634804397821426392e-02,1.776335202157497406e-02,-9.764341264963150024e-02,-4.428248852491378784e-02,1.764375716447830200e-02,-6.677301973104476929e-02,6.097067520022392273e-02,-6.727811694145202637e-02,2.183977980166673660e-03,1.030265260487794876e-02,8.493274450302124023e-03,1.375194173306226730e-03,-7.992503046989440918e-02,-2.928851917386054993e-02,-4.788718186318874359e-03,3.001891635358333588e-02,-6.210150942206382751e-02,-1.326911430805921555e-02,6.027629598975181580e-02,-2.618915773928165436e-02,-1.509855152107775211e-03,-2.585554961115121841e-03,-5.003418773412704468e-02,9.708059020340442657e-03,-4.106292873620986938e-02,-2.707681246101856232e-02,-3.792468830943107605e-02,6.094387173652648926e-02,3.317834064364433289e-02,-3.357901796698570251e-02,-3.212649747729301453e-02,-1.414687093347311020e-02,3.220097348093986511e-02,9.892835281789302826e-03,-6.548360735177993774e-02,-4.626182094216346741e-02,5.676995497196912766e-03,2.419983595609664917e-02,-4.296013712882995605e-02,3.352584317326545715e-02,-1.601336989551782608e-03,-6.327630579471588135e-02,1.223149010911583900e-03,-4.660225007683038712e-03,-8.185857534408569336e-02,-4.410837963223457336e-02,2.317426167428493500e-02,-7.314219325780868530e-02,-2.780400589108467102e-02,-8.013179153203964233e-02,3.057476691901683807e-02,-8.549225330352783203e-02,5.175358429551124573e-02,-8.000547066330909729e-03,-6.939590908586978912e-03,-4.390195757150650024e-02,8.997253142297267914e-03,-9.325928986072540283e-02,-6.028249859809875488e-02,3.835946694016456604e-02,-1.031528133898973465e-02,-6.023210939019918442e-03,2.046043612062931061e-02,-7.363024353981018066e-02,-3.480739891529083252e-02,-1.212236750870943069e-02,-4.153265804052352905e-02,-2.065512165427207947e-02,-8.554219454526901245e-02,5.326392501592636108e-02,-4.033019393682479858e-02,-2.989344112575054169e-02,-3.496604785323143005e-02,-5.073597654700279236e-02,-8.271069079637527466e-02,-1.767890155315399170e-02,-1.271074563264846802e-01,2.712707035243511200e-02,-2.129641175270080566e-02,-2.788237109780311584e-02,3.315810114145278931e-02,-1.252585053443908691e-01,-2.587424591183662415e-02,-1.023290399461984634e-02,-2.767017111182212830e-02,1.013068389147520065e-02,-5.815900396555662155e-03,-6.970421969890594482e-02,-7.533749565482139587e-03,-4.962708428502082825e-02,-3.084450727328658104e-03,-3.924743086099624634e-02,3.679385781288146973e-02,1.362015306949615479e-02,-9.400334209203720093e-02,-4.505491815507411957e-03,5.999866873025894165e-02,-6.351765990257263184e-02,2.705674059689044952e-02,-1.787898596376180649e-03,5.936655029654502869e-02,-8.843317627906799316e-02,-9.004510939121246338e-02,-4.834115132689476013e-02,-1.778682135045528412e-02,-5.549269542098045349e-02,-6.559009198099374771e-03,-8.708849549293518066e-03,-3.164715692400932312e-02,2.503288537263870239e-02,-3.555624047294259071e-03,-4.669791832566261292e-02,-1.426415517926216125e-02,5.890043824911117554e-02
-2.081652544438838959e-02,-6.147274747490882874e-02,-1.743770018219947815e-02,8.605652302503585815e-02,1.944924704730510712e-02,2.695004455745220184e-02,-5.073603987693786621e-02,-6.085671484470367432e-03,1.586527004837989807e-02,-2.035215869545936584e-02,-2.648684941232204437e-02,-7.354748249053955078e-02,6.145616993308067322e-02,-4.036739841103553772e-02,-4.542253166437149048e-02,-2.229056507349014282e-02,-3.331728652119636536e-02,-1.295856684446334839e-01,7.989548146724700928e-02,1.131670176982879639e-01,7.574386149644851685e-02,3.662494197487831116e-02,-2.451051212847232819e-02,-3.537620976567268372e-02,3.435119614005088806e-02,-1.035850122570991516e-01,-7.923988625407218933e-03,5.037446692585945129e-02,-6.308560073375701904e-02,1.842786744236946106e-02,-6.285620480775833130e-02,-2.200894989073276520e-03,-3.727956488728523254e-02,-7.595830410718917847e-02,4.567180573940277100e-02,-1.807366032153367996e-03,-4.679947346448898315e-02,4.051226656883955002e-03,-4.398432001471519470e-02,-2.217274717986583710e-02,3.081041201949119568e-02,5.973048042505979538e-03,-1.161457970738410950e-03,-4.789601638913154602e-02,1.291029602289199829e-01,-1.962898299098014832e-02,1.574739813804626465e-01,3.601703792810440063e-02,-1.328759640455245972e-02,-3.739478066563606262e-02,3.145548701286315918e-02,-5.253797769546508789e-02,-4.558685421943664551e-02,-4.913152661174535751e-04,-2.485434710979461670e-02,-4.675786569714546204e-02,6.502052396535873413e-02,3.504204377532005310e-02,-6.850207597017288208e-02,1.284140348434448242e-02,2.942037768661975861e-02,8.264464884996414185e-02,8.108069747686386108e-02,-4.058958590030670166e-02,-4.351111594587564468e-03,3.927859477698802948e-03,-4.198683798313140869e-02,1.699726469814777374e-02,-5.897889286279678345e-02,-7.660458981990814209e-02,-8.434817939996719360e-02,-5.489849485456943512e-03,-5.495668947696685791e-02,-4.022379592061042786e-02,2.047166414558887482e-02,2.311813458800315857e-02,-5.611252412199974060e-02,2.086316468194127083e-03,-8.485139161348342896e-02,-3.506074473261833191e-02,-4.911532253026962280e-02,4.325695335865020752e-02,8.430423587560653687e-02,2.453013882040977478e-02,-4.889622330665588379e-02,-6.007057055830955505e-02,-5.660013109445571899e-02,5.523373559117317200e-02,-4.353385046124458313e-02,-1.008193008601665497e-02,-1.051529031246900558e-02,-4.047373309731483459e-02,2.653638832271099091e-02,-7.938215509057044983e-03,-6.909223645925521851e-02,-4.287892580032348633e-02,3.785462118685245514e-03,-9.146641008555889130e-03,1.550048775970935822e-02,1.354081332683563232e-01,-4.082399979233741760e-02,-9.256041049957275391e-02,-5.421842262148857117e-02,1.191712170839309692e-02,-6.636914610862731934e-02,-9.031648933887481689e-02,-1.043078675866127014e-02,2.221540547907352448e-02,-8.889394998550415039e-02,-1.216393336653709412e-02,4.514211043715476990e-02,-3.566923364996910095e-02,2.343500219285488129e-02,-4.599497467279434204e-02,1.575802415609359741e-01,-2.067239582538604736e-02,2.321537584066390991e-02,-1.490959897637367249e-02,1.484824120998382568e-01,-8.427766710519790649e-02,4.372734576463699341e-03,3.547941148281097412e-02,-3.530160291120409966e-03,1.116969436407089233e-01,2.846773341298103333e-02,-5.717977881431579590e-02,6.702040322124958038e-03,-2.471096813678741455e-02
3.157284483313560486e-02,-1.979308202862739563e-02,1.452828850597143173e-02,3.343225689604878426e-04,-4.615674167871475220e-02,-1.670289970934391022e-02,-1.100715156644582748e-02,-2.310474589467048645e-02,-9.352506697177886963e-02,5.270742811262607574e-03,-5.842883139848709106e-03,-1.398822013288736343e-02,1.260155811905860901e-02,-2.246427536010742188e-02,3.189634159207344055e-02,2.969135530292987823e-02,-6.375092081725597382e-03,5.676211416721343994e-02,-1.772951101884245872e-03,-6.013514939695596695e-03,3.695627907291054726e-03,-5.950895324349403381e-02,-1.890787295997142792e-02,-3.817955404520034790e-02,5.362449213862419128e-02,1.557685434818267822e-02,-3.267554938793182373e-02,2.544206008315086365e-02,6.084885075688362122e-02,-3.624324500560760498e-02,-4.734916985034942627e-02,-6.140345241874456406e-03,1.215890608727931976e-02,7.808974012732505798e-03,-4.278637096285820007e-02,-4.228524863719940186e-02,-1.097376737743616104e-02,-1.822302117943763733e-02,2.960045635700225830e-02,-3.406057134270668030e-02,-3.782125934958457947e-02,-9.292026981711387634e-03,-6.426111608743667603e-02,-1.904308237135410309e-02,-1.047196798026561737e-02,5.816365778446197510e-02,-5.188631266355514526e-02,-6.467921286821365356e-02,7.227197289466857910e-02,2.667867392301559448e-02,3.900118172168731689e-04,-1.572238095104694366e-02,-2.565740048885345459e-02,-2.299997210502624512e-02,1.638008840382099152e-02,5.303645972162485123e-03,-6.487663369625806808e-03,-2.141362242400646210e-02,2.603860013186931610e-02,7.657814770936965942e-03,3.537116199731826782e-02,5.899970885366201401e-03,-3.749484941363334656e-02,-1.949428953230381012e-02,1.004383265972137451e-01,5.446051806211471558e-02,-1.089877542108297348e-02,-1.415318227373063564e-03,9.527266956865787506e-03,-7.787276059389114380e-02,-6.279806792736053467e-02,-7.234917022287845612e-03,-5.792347714304924011e-02,2.967343665659427643e-02,-2.624432370066642761e-02,6.028118729591369629e-02,-3.226590529084205627e-02,4.361844062805175781e-02,3.748449683189392090e-02,-2.303456328809261322e-02,-1.925484836101531982e-02,2.413491252809762955e-03,2.373828738927841187e-02,-2.168483659625053406e-02,-1.212427671998739243e-02,-7.889436185359954834e-02,2.313395775854587555e-02,-3.782803565263748169e-02,3.921805694699287415e-02,-2.809900417923927307e-02,-3.391935303807258606e-02,-1.265481393784284592e-02,9.653592482209205627e-03,-4.558613896369934082e-02,-5.551064386963844299e-02,-4.993307404220104218e-03,-3.056808561086654663e-02,4.756339639425277710e-02,-1.568156480789184570e-02,1.747235283255577087e-02,-1.743003609590232372e-03,3.071850165724754333e-02,-5.906909704208374023e-02,-9.519197046756744385e-03,7.150025665760040283e-02,-4.581556841731071472e-02,-8.527369797229766846e-02,-6.857145926915109158e-04,2.871402353048324585e-02,-3.635147586464881897e-03,-2.688454464077949524e-03,2.196067385375499725e-02,-3.407281264662742615e-02,-3.906160593032836914e-02,-6.863550841808319092e-02,6.054138764739036560e-02,-3.806177154183387756e-02,-6.115091033279895782e-03,-2.140664495527744293e-02,1.576401665806770325e-02,3.141180612146854401e-03,3.951882943511009216e-02,2.790157741401344538e-04,-2.419219538569450378e-02,-1.839399337768554688e-02,-4.371175542473793030e-02,-2.563040517270565033e-02,3.697652369737625122e-02
4.232056066393852234e-02,-3.865682333707809448e-02,2.580735646188259125e-02,-1.930697262287139893e-02,-9.405503422021865845e-02,-5.558802746236324310e-03,-2.124185301363468170e-02,3.891787678003311157e-02,-7.085546385496854782e-03,-3.125534579157829285e-02,-4.784309864044189453e-02,2.212957106530666351e-02,3.407932817935943604e-02,-5.018399562686681747e-03,7.629408501088619232e-04,-2.038142830133438110e-02,4.469379564397968352e-05,-2.055237814784049988e-02,1.781973242759704590e-02,2.708547934889793396e-02,7.927479455247521400e-04,-3.828264074400067329e-03,1.428691949695348740e-02,2.012311108410358429e-02,2.923681214451789856e-02,-4.412676021456718445e-02,3.983544185757637024e-02,5.147754028439521790e-02,-3.689814731478691101e-02,-2.694486454129219055e-02,4.088247194886207581e-02,-5.266903713345527649e-02,-1.154717803001403809e-02,-4.645407199859619141e-02,-3.737927973270416260e-02,1.681680418550968170e-02,-6.710644066333770752e-02,3.645492717623710632e-02,-4.186354950070381165e-02,9.223978966474533081e-03,-8.348049968481063843e-02,1.952676288783550262e-02,-4.868816584348678589e-02,-2.791175991296768188e-02,-3.165924549102783203e-02,1.009207963943481445e-01,3.653561323881149292e-02,-4.917361214756965637e-02,8.662430942058563232e-02,-1.558238919824361801e-02,-3.417109698057174683e-02,-4.273625090718269348e-02,3.163482248783111572e-02,2.104955352842807770e-02,-1.002710778266191483e-02,-2.549337409436702728e-02,4.022733494639396667e-02,2.585082128643989563e-02,-5.310237035155296326e-02,-8.479885756969451904e-03,-2.098196931183338165e-02,-1.138882711529731750e-02,1.800445839762687683e-02,1.467133499681949615e-02,5.413269251585006714e-02,2.927869791164994240e-03,-8.323457837104797363e-02,-4.591835290193557739e-02,7.997442036867141724e-02,-6.140437722206115723e-02,-3.181825578212738037e-02,-3.830416128039360046e-02,-2.084606967400759459e-04,-7.522587198764085770e-03,2.017632126808166504e-03,1.041531190276145935e-02,-6.632346659898757935e-02,5.349198356270790100e-02,1.802007085643708706e-03,-2.362316846847534180e-02,3.137278556823730469e-02,-6.940121203660964966e-02,-7.330268621444702148e-02,-8.625444024801254272e-03,-2.013458125293254852e-02,-4.663918167352676392e-02,1.361135044135153294e-03,-3.110288269817829132e-02,4.532651603221893311e-02,3.775658115046098828e-05,-6.026605609804391861e-03,-1.676286198198795319e-02,8.325414732098579407e-03,-7.399375736713409424e-02,3.233986720442771912e-02,-2.586872503161430359e-02,-4.874702543020248413e-02,-3.723234683275222778e-02,-3.578590229153633118e-02,4.282564297318458557e-02,-1.719588041305541992e-02,4.014585632830858231e-03,1.347395870834589005e-02,5.180932115763425827e-03,-8.772975206375122070e-02,-5.229160562157630920e-02,-2.040225546807050705e-03,-7.418341189622879028e-02,-5.356086418032646179e-03,5.773134157061576843e-02,-4.049706086516380310e-02,3.849227912724018097e-03,6.039171665906906128e-02,-7.471109181642532349e-02,-7.071251980960369110e-03,3.764566034078598022e-02,1.019811606965959072e-03,-9.424693882465362549e-02,2.901511639356613159e-02,3.381861839443445206e-03,2.611866407096385956e-02,6.893831491470336914e-02,-1.842940226197242737e-02,-4.287752881646156311e-02,-1.470492687076330185e-02,1.267470046877861023e-02,-6.396677345037460327e-02,-8.335978724062442780e-03
2.836882323026657104e-02,-6.566680967807769775e-02,-6.275927182286977768e-03,3.893503919243812561e-02,2.407678030431270599e-02,-1.276672445237636566e-02,9.458816610276699066e-03,4.220673814415931702e-02,-2.272411994636058807e-02,6.059115752577781677e-03,-1.181380636990070343e-02,8.864591829478740692e-03,3.382716327905654907e-02,-3.037892282009124756e-02,1.596448943018913269e-02,-6.585238128900527954e-02,-2.501921914517879486e-02,-2.244654344394803047e-03,-2.104054950177669525e-02,-2.506694011390209198e-02,1.157725136727094650e-02,6.419382244348526001e-02,7.768648117780685425e-02,5.540629103779792786e-02,-9.885124862194061279e-03,5.478158220648765564e-02,2.027432061731815338e-02,-4.767294600605964661e-02,-3.788917511701583862e-02,-1.395472208969295025e-03,-2.605070732533931732e-02,-1.043944712728261948e-02,-4.366733133792877197e-02,1.644864492118358612e-02,2.585829794406890869e-02,3.746145218610763550e-02,-5.980562791228294373e-02,-5.799086648039519787e-04,7.326178997755050659e-02,4.622427280992269516e-03,-9.021312743425369263e-02,-6.068009417504072189e-03,-6.172728911042213440e-02,-5.927874520421028137e-02,1.454675849527120590e-02,6.393937766551971436e-02,-2.802192047238349915e-02,3.620858769863843918e-03,-1.175893656909465790e-02,2.122688852250576019e-02,1.274810824543237686e-02,1.080407295376062393e-02,-5.864737182855606079e-02,-7.611759472638368607e-03,6.472337059676647186e-03,-5.117424950003623962e-02,-8.744343183934688568e-03,2.028006274485960603e-04,-3.995143249630928040e-02,-6.027986295521259308e-03,3.152238950133323669e-02,-1.069935318082571030e-02,-1.914039626717567444e-02,-1.411438081413507462e-02,-2.219645306468009949e-02,3.609004616737365723e-02,1.280531007796525955e-02,1.207796391099691391e-02,3.593240678310394287e-02,-6.204844266176223755e-02,7.415726780891418457e-03,-1.456615747883915901e-03,1.991484314203262329e-02,2.415991760790348053e-02,-4.171457141637802124e-02,-2.307636849582195282e-02,3.358714655041694641e-02,-2.341559156775474548e-02,-4.195549339056015015e-02,1.206638757139444351e-02,1.939513906836509705e-02,-4.509267210960388184e-02,-5.293933674693107605e-02,3.521075844764709473e-02,3.921943716704845428e-03,-4.398081824183464050e-02,3.444880247116088867e-02,1.907976530492305756e-02,2.477820217609405518e-02,-4.258038103580474854e-02,5.330827832221984863e-02,6.322024017572402954e-02,7.213406264781951904e-03,-6.505602505058050156e-03,3.824440762400627136e-02,-1.815741881728172302e-02,-3.035563603043556213e-02,-2.407858893275260925e-02,-4.817781969904899597e-02,-6.737508624792098999e-02,-1.931113749742507935e-02,-3.727769479155540466e-02,1.586574874818325043e-02,-2.581207954790443182e-04,-5.342074669897556305e-03,-4.165749624371528625e-02,5.662858486175537109e-02,-5.583268776535987854e-02,6.711511872708797455e-03,-3.879116475582122803e-02,-5.472205951809883118e-02,-7.156434003263711929e-03,1.731294393539428711e-02,1.986485347151756287e-02,-3.469858691096305847e-02,4.134966060519218445e-02,-1.688420586287975311e-02,-2.399972826242446899e-02,-9.092174470424652100e-03,-1.237439457327127457e-02,-4.810237884521484375e-02,-4.204661119729280472e-03,5.326280742883682251e-02,-2.785339020192623138e-03,-2.780171297490596771e-02,2.655111812055110931e-02,-5.814175307750701904e-02,3.058221191167831421e-02
-2.224882045993581414e-04,4.687742795795202255e-03,5.064893886446952820e-02,-2.970310859382152557e-02,8.311674464493989944e-04,-1.594541594386100769e-02,-9.271323797293007374e-04,3.058529458940029144e-03,-2.621311694383621216e-02,-1.078486093319952488e-04,-8.698087930679321289e-02,-6.121800281107425690e-03,3.762412443757057190e-02,-3.434763476252555847e-02,3.598209843039512634e-02,2.129379473626613617e-02,-9.239487117156386375e-04,-1.109429355710744858e-02,9.670554660260677338e-03,-3.331915242597460747e-03,2.947507239878177643e-02,-3.324607387185096741e-04,1.718960329890251160e-02,-5.784057825803756714e-02,-2.670431323349475861e-02,-6.123901531100273132e-02,3.605338931083679199e-02,6.008493527770042419e-02,2.924772910773754120e-03,3.648111969232559204e-02,-1.833770610392093658e-02,-1.394569873809814453e-02,-6.321030110120773315e-02,-9.711480699479579926e-03,-5.098692700266838074e-02,1.996149308979511261e-02,4.482800140976905823e-02,2.826034463942050934e-02,9.337703697383403778e-03,-3.605311736464500427e-02,-8.645536005496978760e-02,9.771280921995639801e-03,3.377327695488929749e-02,-2.021265774965286255e-02,3.635085001587867737e-02,-4.016179591417312622e-02,-3.302686288952827454e-02,-4.831181466579437256e-02,1.550648361444473267e-02,-3.442241251468658447e-02,-3.585873916745185852e-02,1.345456670969724655e-02,-4.070317000150680542e-02,1.027847267687320709e-02,-2.163402549922466278e-02,-6.532230228185653687e-02,-6.099716573953628540e-02,-2.070390060544013977e-02,1.653239317238330841e-02,-7.082974538207054138e-03,6.288965046405792236e-02,2.465029433369636536e-02,1.649845577776432037e-02,1.027717813849449158e-02,-2.891506999731063843e-02,4.232609644532203674e-02,-5.026312172412872314e-02,3.229961544275283813e-02,-4.977152124047279358e-02,7.748092710971832275e-02,-3.466413915157318115e-02,3.308944776654243469e-02,1.676860079169273376e-02,2.673311857506632805e-03,7.744095753878355026e-03,-5.995205137878656387e-03,4.024439956992864609e-03,1.017488632351160049e-02,6.097079813480377197e-02,2.541498467326164246e-02,-3.287260979413986206e-02,4.662635549902915955e-02,-2.744218334555625916e-03,2.950887568295001984e-02,7.330264151096343994e-02,2.153358422219753265e-02,-3.656912222504615784e-02,-2.183638140559196472e-02,-1.024676254019141197e-03,-1.059640850871801376e-02,-9.076289087533950806e-02,-7.546684890985488892e-02,-2.603816241025924683e-02,2.608620561659336090e-02,-1.590683124959468842e-02,-4.262214154005050659e-02,-3.626145794987678528e-02,5.098122730851173401e-02,-6.569218821823596954e-03,-3.948380425572395325e-02,3.437978401780128479e-02,6.953694671392440796e-02,1.381755806505680084e-02,6.285982206463813782e-03,2.522439323365688324e-02,-7.406555116176605225e-02,6.277977954596281052e-03,-6.776457279920578003e-02,4.886227473616600037e-02,-2.496110089123249054e-02,7.457015104591846466e-03,-1.152650266885757446e-02,-3.207660838961601257e-02,3.524849563837051392e-02,-4.225315526127815247e-02,-1.268950942903757095e-02,-1.323474454693496227e-03,4.020726680755615234e-02,-3.539818897843360901e-02,5.159270949661731720e-03,-8.023253083229064941e-02,-7.898114621639251709e-02,-6.741504766978323460e-04,1.590081374160945415e-03,-2.644433453679084778e-02,6.509423255920410156e-03,6.762142479419708252e-02,2.745646797120571136e-02
-4.669257253408432007e-02,-4.173073917627334595e-02,1.934025622904300690e-02,7.613794505596160889e-02,-1.046242471784353256e-02,-4.143296927213668823e-02,-2.983057685196399689e-02,-9.419116377830505371e-02,-8.335605263710021973e-02,-4.634719341993331909e-02,5.035064648836851120e-03,7.718166452832520008e-04,3.223661333322525024e-04,3.891762346029281616e-02,9.152653813362121582e-02,-6.822803989052772522e-03,-4.626129940152168274e-02,2.972093038260936737e-02,-7.694128900766372681e-02,-2.887428924441337585e-02,8.431538194417953491e-02,1.469137961976230145e-03,1.866028271615505219e-02,-9.429492056369781494e-03,3.558777272701263428e-02,-1.288217585533857346e-02,-2.265292219817638397e-02,1.312736328691244125e-02,-8.633118122816085815e-03,-3.233401104807853699e-03,-5.322859436273574829e-02,3.328219428658485413e-02,-1.756628043949604034e-02,-9.504921734333038330e-03,2.216214500367641449e-02,-4.604762792587280273e-02,1.319264061748981476e-02,-1.696400530636310577e-02,-4.822507873177528381e-02,-8.123596198856830597e-03,7.891706191003322601e-04,2.866270951926708221e-02,1.806445047259330750e-02,-3.072511777281761169e-02,3.869798779487609863e-02,2.109251730144023895e-02,-6.406126916408538818e-02,-3.815519064664840698e-02,-9.063541889190673828e-03,5.754663143306970596e-03,-1.825891621410846710e-02,-3.829599916934967041e-02,-4.383753985166549683e-02,-1.270678918808698654e-02,4.472490027546882629e-02,-3.345334902405738831e-02,3.192390874028205872e-02,-2.343315631151199341e-02,-8.368192613124847412e-02,-1.363671198487281799e-02,3.640618920326232910e-02,1.650412194430828094e-02,6.473703682422637939e-02,2.502818591892719269e-02,-1.951100490987300873e-02,-5.389701109379529953e-04,1.072031259536743164e-02,4.968675971031188965e-02,-2.851541712880134583e-02,1.568507961928844452e-02,-2.131781913340091705e-02,7.021711021661758423e-02,-4.535225778818130493e-02,-1.851450651884078979e-02,-1.734847389161586761e-02,9.032293019117787480e-05,9.506250731647014618e-03,-1.183125097304582596e-02,8.342794328927993774e-02,1.104311458766460419e-02,-2.093918062746524811e-02,-3.349719569087028503e-02,1.192707475274801254e-02,-6.319314986467361450e-02,-3.095988184213638306e-02,1.410612929612398148e-02,-6.852168007753789425e-04,2.272522263228893280e-02,-1.170439738780260086e-02,2.365274727344512939e-02,7.081572432070970535e-03,-8.293488062918186188e-03,9.493230842053890228e-03,-1.024256087839603424e-02,-3.712980076670646667e-02,5.082877352833747864e-03,-1.932399580255150795e-03,-1.735826209187507629e-02,-1.185171157121658325e-01,3.312843665480613708e-02,2.144805528223514557e-02,5.777590721845626831e-02,3.342726500704884529e-03,5.298812314867973328e-02,8.082756400108337402e-02,-1.052148416638374329e-01,-4.522835090756416321e-02,-6.241181120276451111e-02,-5.349601805210113525e-02,2.598410658538341522e-02,2.201607637107372284e-02,3.575416654348373413e-02,-2.950506983324885368e-03,9.812194854021072388e-03,-1.905114389955997467e-02,-3.100704401731491089e-02,-2.233220031484961510e-03,3.716525807976722717e-02,7.978928089141845703e-02,4.564338922500610352e-02,-5.339726060628890991e-02,-7.365579158067703247e-02,-5.399828031659126282e-02,-2.607599832117557526e-02,8.074232935905456543e-02,-2.138053067028522491e-02,1.738417148590087891e-02,-1.665245625190436840e-03
2.053941972553730011e-02,2.188961580395698547e-02,2.518488792702555656e-03,6.015848368406295776e-02,1.956208050251007080e-02,2.166746929287910461e-02,1.080850232392549515e-02,-1.806746795773506165e-02,1.659030839800834656e-02,-2.228723093867301941e-02,-1.108585949987173080e-02,1.971297152340412140e-02,-4.739518836140632629e-02,8.195647969841957092e-03,5.447170231491327286e-03,-7.904981076717376709e-02,-2.897812239825725555e-02,-2.526170760393142700e-02,-3.981242701411247253e-02,9.771066717803478241e-03,2.092324011027812958e-02,-3.997041657567024231e-02,1.143399905413389206e-02,1.972547546029090881e-02,3.141305223107337952e-02,2.515295892953872681e-02,-3.858838230371475220e-03,5.836381763219833374e-02,-8.223932236433029175e-03,-5.410247668623924255e-02,-2.213309705257415771e-02,-4.143447801470756531e-02,2.668597968295216560e-03,5.300674960017204285e-02,1.233667600899934769e-02,2.640469558537006378e-02,-5.591881275177001953e-02,-4.090711474418640137e-02,-5.880343262106180191e-03,2.213538996875286102e-02,2.096141502261161804e-02,3.400577232241630554e-02,-1.182298734784126282e-02,-8.439399302005767822e-03,-1.318842545151710510e-02,2.274728752672672272e-02,-3.609120845794677734e-02,-3.084639087319374084e-02,1.915552280843257904e-02,-3.528798371553421021e-02,-5.043917335569858551e-03,-2.803365886211395264e-02,4.100365564227104187e-02,6.700264755636453629e-03,4.363847896456718445e-02,-3.824803233146667480e-02,6.997983902692794800e-02,-2.536970004439353943e-02,-3.385423123836517334e-02,6.546895951032638550e-03,2.569041214883327484e-02,2.538889832794666290e-02,-2.993077598512172699e-02,-1.812122017145156860e-02,-1.368010416626930237e-02,2.429537475109100342e-02,2.864979207515716553e-02,1.131004374474287033e-02,1.773124001920223236e-02,-3.272718563675880432e-02,-5.699517950415611267e-02,7.772058993577957153e-02,1.872762851417064667e-02,2.693143300712108612e-02,-1.776434481143951416e-02,5.068445578217506409e-02,-4.388381168246269226e-02,4.434081912040710449e-02,1.503629144281148911e-02,3.635030239820480347e-02,-2.906666882336139679e-02,-6.881371140480041504e-02,-3.282891213893890381e-02,-3.832408785820007324e-02,-1.942957192659378052e-02,-4.608940333127975464e-02,4.348089918494224548e-03,8.748228661715984344e-03,-2.333869785070419312e-02,-2.657520957291126251e-02,9.118342399597167969e-02,1.842298731207847595e-02,-2.341095823794603348e-03,1.330607477575540543e-02,-2.392762340605258942e-02,4.869884252548217773e-02,-3.993228450417518616e-02,2.672718837857246399e-02,-2.113401703536510468e-02,-2.405383996665477753e-02,-1.500250678509473801e-02,1.968487165868282318e-03,2.398806437849998474e-02,-5.461314693093299866e-02,-1.984770409762859344e-02,-8.574449270963668823e-02,6.440644618123769760e-03,-8.884808421134948730e-02,-1.463725790381431580e-02,-3.317238390445709229e-02,3.419793769717216492e-02,3.810852020978927612e-02,4.860825091600418091e-02,-5.195318907499313354e-02,-2.356014447286725044e-03,3.709373762831091881e-03,1.507676206529140472e-02,-2.678032591938972473e-02,4.918577149510383606e-02,-3.518592193722724915e-02,2.259800396859645844e-02,1.160997338593006134e-02,6.824510544538497925e-02,-6.440554559230804443e-02,-7.576420903205871582e-02,1.857656612992286682e-02,-2.984530478715896606e-02,-6.950626522302627563e-02
8.120235987007617950e-03,3.125300645479001105e-05,3.125696256756782532e-02,3.473212942481040955e-02,1.028092112392187119e-02,4.048957303166389465e-02,-3.822532668709754944e-02,-2.305207215249538422e-02,-3.244721516966819763e-02,-4.877836629748344421e-02,-1.157804974354803562e-03,3.290664404630661011e-02,-2.910136478021740913e-03,-6.983137130737304688e-02,3.305488824844360352e-02,1.924367994070053101e-02,4.686311818659305573e-03,-9.633552283048629761e-02,-6.409877538681030273e-02,-5.385447293519973755e-02,-2.380114421248435974e-02,4.648992326110601425e-03,1.108899060636758804e-02,3.462222963571548462e-02,-9.904996305704116821e-02,-1.862677559256553650e-02,3.030380234122276306e-02,-5.254079122096300125e-03,-1.163162291049957275e-02,7.046355307102203369e-02,5.067417398095130920e-02,1.499187760055065155e-02,-3.988454118371009827e-02,2.114120312035083771e-02,-5.664448719471693039e-03,-2.768801897764205933e-02,-8.496609516441822052e-03,2.336935698986053467e-02,-5.816609039902687073e-02,4.869747906923294067e-02,-6.170699745416641235e-02,-4.497494548559188843e-03,1.103114616125822067e-02,-1.854975894093513489e-02,-1.198888197541236877e-02,-2.934897318482398987e-02,5.937089677900075912e-03,-2.394875511527061462e-02,-6.586494296789169312e-02,-6.269812583923339844e-03,-4.121557250618934631e-02,-2.010319195687770844e-02,3.622966178227216005e-04,6.712551694363355637e-03,3.950284793972969055e-02,-1.195859350264072418e-02,-9.629281610250473022e-02,-3.993217274546623230e-02,4.989495128393173218e-02,-4.616166278719902039e-02,9.432523697614669800e-02,-1.099080964922904968e-02,6.836118549108505249e-02,-4.153718426823616028e-02,8.508572354912757874e-03,8.849390596151351929e-02,1.362138520926237106e-02,6.270881858654320240e-04,4.491736739873886108e-02,3.881757333874702454e-02,7.449930533766746521e-03,-1.000186204910278320e-01,2.447265945374965668e-02,1.022967975586652756e-02,-3.161226585507392883e-02,-2.565881051123142242e-02,-7.818047702312469482e-02,6.733140349388122559e-02,1.851843483746051788e-02,-6.096239667385816574e-03,7.713691145181655884e-02,1.948157139122486115e-02,-4.981286078691482544e-02,3.358206897974014282e-02,1.308329752646386623e-03,1.185564231127500534e-02,-3.340061008930206299e-02,-2.325264737010002136e-02,-5.431416258215904236e-02,7.854657620191574097e-02,2.518888562917709351e-02,-2.677225880324840546e-02,-2.316278964281082153e-02,-2.344859205186367035e-02,-4.549556877464056015e-03,7.387027144432067871e-02,4.143497347831726074e-02,1.883802376687526703e-02,-6.464275717735290527e-02,-3.895418485626578331e-03,-1.178378332406282425e-02,4.876312613487243652e-02,-2.155568636953830719e-02,-7.846164517104625702e-03,1.391821261495351791e-02,-3.349366039037704468e-02,-1.028204616159200668e-02,-7.333487272262573242e-03,1.767453923821449280e-02,-1.482150238007307053e-02,-6.070730742067098618e-03,4.531288519501686096e-02,5.278071388602256775e-02,-3.779854625463485718e-02,1.661413162946701050e-02,-5.787704139947891235e-02,1.876099221408367157e-02,-2.804533578455448151e-02,-3.776846826076507568e-02,1.453044917434453964e-02,1.475860597565770149e-03,-3.480231761932373047e-02,-6.547583267092704773e-03,1.064191907644271851e-01,7.957465946674346924e-03,7.508830726146697998e-02,4.524659737944602966e-02,1.033391058444976807e-02
-4.555662721395492554e-02,-7.348015438765287399e-03,-2.647811919450759888e-02,9.674096852540969849e-02,-5.765479058027267456e-02,2.739661559462547302e-02,-1.561839133501052856e-02,2.527708932757377625e-02,-5.022570490837097168e-02,-7.471589371562004089e-03,-4.551254585385322571e-02,-4.612239450216293335e-02,7.177135441452264786e-03,-1.348360534757375717e-02,1.709028519690036774e-02,-1.025274675339460373e-02,6.135950610041618347e-02,-4.588918387889862061e-02,1.652591675519943237e-02,-2.430912852287292480e-02,4.590208455920219421e-02,-6.066286563873291016e-02,7.042351365089416504e-02,5.972947552800178528e-02,-8.541361242532730103e-02,1.177992392331361771e-02,1.398311834782361984e-02,-4.579349607229232788e-02,-5.905424058437347412e-02,1.921701128594577312e-03,2.168974839150905609e-02,-3.405828028917312622e-02,-2.230390161275863647e-02,-1.088980678468942642e-02,3.866635262966156006e-02,-3.883675858378410339e-02,-1.557819079607725143e-02,9.037552028894424438e-02,-3.238506615161895752e-02,-3.921984694898128510e-03,-1.893693022429943085e-02,-3.996675461530685425e-02,1.117688603699207306e-02,2.841166034340858459e-02,-4.805998504161834717e-02,-1.926885731518268585e-02,-1.923006214201450348e-02,-6.279163993895053864e-03,1.862972788512706757e-02,9.023974835872650146e-02,-4.072259366512298584e-02,9.637373499572277069e-03,-7.174600847065448761e-03,3.420608118176460266e-02,7.691317796707153320e-02,-2.966372482478618622e-02,-1.393475476652383804e-02,-5.793145298957824707e-02,-1.902778446674346924e-02,-1.916482113301753998e-02,3.137021139264106750e-02,-1.248447783291339874e-02,1.271131634712219238e-01,-5.039150640368461609e-02,4.818743467330932617e-02,2.392809838056564331e-02,-3.855096176266670227e-02,-3.177800402045249939e-02,5.198960006237030029e-02,7.791699841618537903e-03,9.244190528988838196e-03,3.041376825422048569e-03,-1.306398492306470871e-02,2.748452499508857727e-02,1.389842201024293900e-02,3.386531397700309753e-02,2.997839590534567833e-03,-1.626502163708209991e-02,-2.438434585928916931e-02,4.741986747831106186e-03,-2.768879197537899017e-02,-3.775295987725257874e-02,-8.204200863838195801e-02,-5.429231747984886169e-02,8.750610053539276123e-03,-6.671922747045755386e-03,-3.585400059819221497e-02,5.106965079903602600e-03,-2.365148393437266350e-03,-1.149451918900012970e-02,9.843110106885433197e-03,-1.646239659748971462e-03,-9.490485489368438721e-02,-2.070849575102329254e-02,-2.880763635039329529e-02,4.621513187885284424e-02,-2.026331052184104919e-02,-1.858637481927871704e-02,-7.340404391288757324e-02,-5.789341870695352554e-03,6.312153488397598267e-02,4.064769297838211060e-02,-3.741967305541038513e-02,4.658415168523788452e-02,7.579974830150604248e-02,-7.440060842782258987e-03,1.704700291156768799e-02,-6.634343415498733521e-02,-5.682180449366569519e-02,-4.584149271249771118e-02,4.892857279628515244e-03,-2.587587758898735046e-02,4.006788879632949829e-02,-6.697615981101989746e-02,-3.977824002504348755e-02,-4.787212610244750977e-02,2.595411241054534912e-02,-1.476917136460542679e-02,6.175023969262838364e-03,3.161076747346669436e-04,-1.927875727415084839e-02,-4.238410666584968567e-02,-3.753399848937988281e-02,6.765580922365188599e-02,-2.502068132162094116e-02,3.401309996843338013e-02,3.444917127490043640e-02,6.997670512646436691e-03
-4.382901638746261597e-02,-5.851186811923980713e-02,4.503253381699323654e-03,5.212077498435974121e-02,6.765658408403396606e-02,-2.124040201306343079e-02,-3.642678260803222656e-02,-4.352823644876480103e-02,-6.239845603704452515e-02,-1.193259097635746002e-02,-4.606591537594795227e-02,-2.997369272634387016e-03,5.208331346511840820e-02,1.094789709895849228e-02,5.022223573178052902e-03,1.588940038345754147e-03,-6.816569250077009201e-03,6.227571517229080200e-02,-3.603100031614303589e-02,1.117994170635938644e-02,3.131061047315597534e-02,2.360635623335838318e-02,3.195918723940849304e-02,3.724459186196327209e-02,4.626985639333724976e-02,5.042571574449539185e-02,-4.736647382378578186e-02,-3.357034549117088318e-02,-7.784258574247360229e-02,-5.030262097716331482e-02,-7.029099389910697937e-03,3.177988901734352112e-02,2.479429915547370911e-02,3.291562572121620178e-02,5.073629319667816162e-02,-5.223437026143074036e-02,-9.924108535051345825e-02,9.171544760465621948e-02,3.013292700052261353e-02,-4.389837756752967834e-02,-3.349693119525909424e-02,-4.763459786772727966e-03,2.952298521995544434e-02,-4.434920102357864380e-02,-1.508795097470283508e-02,-9.892310947179794312e-03,-1.421344745904207230e-02,-4.105692263692617416e-03,-6.430178135633468628e-02,6.423228234052658081e-02,3.840267658233642578e-02,2.504800818860530853e-02,-1.109876763075590134e-02,6.361815333366394043e-02,8.671159297227859497e-02,5.718820914626121521e-02,6.206117197871208191e-02,-9.221702814102172852e-02,-4.086291417479515076e-03,5.911268759518861771e-03,1.855671725934371352e-04,-5.994842574000358582e-02,-6.647520232945680618e-03,1.723591610789299011e-02,8.104542270302772522e-03,1.029944494366645813e-01,5.233153328299522400e-02,4.490950331091880798e-02,-5.100316368043422699e-03,2.985192276537418365e-02,1.211901544593274593e-03,1.209611594676971436e-01,6.162895355373620987e-03,-4.184305295348167419e-02,1.246927212923765182e-02,-4.831036552786827087e-02,-3.089306876063346863e-02,3.625183179974555969e-02,3.706162488015252165e-07,3.408155962824821472e-02,1.721401000395417213e-03,6.197581999003887177e-03,-2.848157472908496857e-02,-4.165262356400489807e-02,-4.332190752029418945e-02,1.257799379527568817e-02,1.420499943196773529e-02,5.471735075116157532e-02,-9.961889684200286865e-02,4.600872471928596497e-02,1.497255638241767883e-02,-7.708928734064102173e-02,-1.876705512404441833e-02,-2.732241712510585785e-02,-1.563737355172634125e-02,3.484618291258811951e-02,-2.243473939597606659e-02,-5.589280277490615845e-02,1.984735950827598572e-02,1.663787057623267174e-03,5.671602860093116760e-02,3.676490485668182373e-02,2.758243493735790253e-02,1.633721694815903902e-04,4.989147186279296875e-02,1.329510565847158432e-02,4.826362803578376770e-02,8.926431648433208466e-03,2.759324200451374054e-02,-8.832874149084091187e-02,-1.320052426308393478e-02,-1.906774193048477173e-02,-1.354661583900451660e-02,1.215600408613681793e-02,7.766435295343399048e-02,3.749462589621543884e-02,2.293123118579387665e-02,2.066310867667198181e-02,9.197577089071273804e-02,-2.556042373180389404e-02,1.059180032461881638e-02,3.301873803138732910e-02,-8.711846172809600830e-02,-3.586727753281593323e-02,3.254349343478679657e-03,6.187515798956155777e-03,7.860999554395675659e-02,-7.578735239803791046e-04
-4.170477390289306641e-02,-1.721012033522129059e-02,4.619806259870529175e-02,-1.427582465112209320e-02,-3.867146372795104980e-02,5.979166552424430847e-02,4.500214010477066040e-02,1.144331414252519608e-03,-7.727777957916259766e-02,-3.339737653732299805e-02,1.302475284319370985e-04,6.130757927894592285e-02,-2.052919194102287292e-02,8.190562948584556580e-03,4.097254201769828796e-02,-5.359107628464698792e-02,-1.935378834605216980e-02,8.027766644954681396e-02,1.058964356780052185e-01,1.035656034946441650e-02,-7.208158075809478760e-02,3.511883690953254700e-02,1.184263452887535095e-02,-5.555793642997741699e-02,-4.509216547012329102e-02,-7.382501848042011261e-03,-1.562602468766272068e-03,-6.038295105099678040e-02,-3.343351557850837708e-02,-3.689199453219771385e-03,-9.584484994411468506e-02,-5.221686791628599167e-03,-5.710456054657697678e-03,2.160847559571266174e-02,-3.327354043722152710e-02,-5.047511658631265163e-04,1.050045061856508255e-02,6.027583032846450806e-03,4.399104043841362000e-03,6.130424141883850098e-02,5.612294375896453857e-02,7.432494778186082840e-03,3.799873217940330505e-02,-2.167854458093643188e-02,-4.776318091899156570e-03,-4.461272433400154114e-02,1.551128644496202469e-02,-5.146932601928710938e-02,6.688018888235092163e-02,-5.792861431837081909e-02,-2.933906950056552887e-02,4.281472787261009216e-02,-5.610395222902297974e-02,4.057895392179489136e-02,-3.146984800696372986e-02,1.521150860935449600e-02,-1.357157900929450989e-02,7.222001999616622925e-02,3.208769112825393677e-02,-7.333293557167053223e-03,-6.152301654219627380e-02,-7.829024642705917358e-02,-5.927981436252593994e-02,6.686028838157653809e-02,-1.181858032941818237e-02,-1.707565970718860626e-02,-3.391434205695986748e-03,1.799512654542922974e-02,5.470412224531173706e-02,-8.639144152402877808e-02,-1.475237682461738586e-02,1.544534787535667419e-02,-5.842440202832221985e-02,-4.913457855582237244e-02,1.744414307177066803e-02,1.561051048338413239e-02,-6.277602910995483398e-02,3.341310098767280579e-02,-4.480202868580818176e-02,-1.238342933356761932e-02,-4.704928770661354065e-02,-1.005149725824594498e-02,-1.578692719340324402e-02,-2.587451040744781494e-02,-4.097355529665946960e-02,-8.462179452180862427e-03,-2.312273904681205750e-02,2.176514826714992523e-02,-2.109361253678798676e-02,-5.898112058639526367e-02,2.697616349905729294e-03,-1.701241475529968739e-03,-3.800196945667266846e-02,-4.367401450872421265e-02,3.880449384450912476e-02,-2.760756388306617737e-02,-2.472028601914644241e-03,-7.185514271259307861e-02,-1.143358461558818817e-02,-6.459915079176425934e-03,4.708630032837390900e-03,-4.831689596176147461e-02,-3.273799316957592964e-03,-1.203927546739578247e-01,1.307866722345352173e-01,2.364243380725383759e-02,7.869823276996612549e-02,1.463400479406118393e-02,-5.300857499241828918e-02,1.023679506033658981e-02,-8.997991681098937988e-03,-1.844173669815063477e-02,-1.605919934809207916e-02,5.162970628589391708e-03,-2.046256698668003082e-02,4.738494753837585449e-02,8.418458513915538788e-03,-4.681849095504730940e-04,7.287675887346267700e-02,7.750080525875091553e-02,-6.530968099832534790e-02,-3.811621665954589844e-02,-8.878599852323532104e-02,-3.593124449253082275e-02,-3.866300731897354126e-02,-3.249909263104200363e-03,-1.262137852609157562e-02,-7.151868939399719238e-02
-2.354525402188301086e-02,-4.827287048101425171e-03,3.613108396530151367e-02,1.259824074804782867e-02,4.447446204721927643e-03,-2.200828865170478821e-03,-3.670618310570716858e-02,-1.001898646354675293e-01,-1.897792331874370575e-02,-3.618660941720008850e-02,-5.617122631520032883e-03,-2.943896502256393433e-02,9.805508889257907867e-03,-1.273397542536258698e-02,-2.562576532363891602e-02,-1.477036904543638229e-02,-1.850495673716068268e-02,2.314921095967292786e-02,-4.519837722182273865e-02,-1.316851470619440079e-02,-2.791270427405834198e-02,-2.374747954308986664e-02,-3.040644899010658264e-02,3.064350690692663193e-03,-4.299229383468627930e-02,3.402013704180717468e-02,1.484507881104946136e-02,-3.007671423256397247e-02,-4.294812679290771484e-02,-1.697120442986488342e-02,-1.027194410562515259e-01,3.454057127237319946e-02,-9.892009198665618896e-03,-5.275607574731111526e-03,-4.063487425446510315e-02,-1.185190049000084400e-03,-4.306273162364959717e-02,-6.643586792051792145e-03,2.294227667152881622e-02,-2.336881496012210846e-02,-6.116854399442672729e-02,-6.124515086412429810e-02,5.469889938831329346e-02,-7.053925842046737671e-02,1.048273034393787384e-02,2.291994169354438782e-02,1.718858443200588226e-02,-9.644994512200355530e-03,-4.711732640862464905e-02,-4.583036527037620544e-02,-3.779980540275573730e-02,-3.730331733822822571e-02,2.141769230365753174e-02,3.116630204021930695e-02,-3.255717456340789795e-02,-3.556534647941589355e-02,-3.698195889592170715e-02,4.809781536459922791e-02,1.810183562338352203e-02,2.936284802854061127e-02,4.390799440443515778e-03,8.343222737312316895e-02,1.914604008197784424e-02,1.833440177142620087e-02,-5.050457641482353210e-02,1.954960636794567108e-02,-3.887783503159880638e-03,2.867465466260910034e-02,1.529412460513412952e-03,-6.129144132137298584e-02,-3.609638288617134094e-02,-6.319058686494827271e-02,-3.156154975295066833e-02,5.187486298382282257e-03,-1.382462866604328156e-02,-4.755481332540512085e-02,-6.791301071643829346e-02,2.309917472302913666e-03,1.795119233429431915e-02,3.562349360436201096e-03,3.959117829799652100e-02,-4.834664613008499146e-02,1.999302767217159271e-02,-5.617522820830345154e-02,-7.843839377164840698e-02,-3.848133981227874756e-02,1.017823256552219391e-02,2.954253368079662323e-02,4.239549115300178528e-02,-1.667677611112594604e-02,1.438097748905420303e-02,4.649211838841438293e-02,-3.405762091279029846e-02,-4.048444330692291260e-02,-2.434193342924118042e-02,2.185293287038803101e-02,-1.722235046327114105e-02,-4.794659838080406189e-02,9.499306790530681610e-03,-4.934950917959213257e-02,-1.339698862284421921e-02,-4.670363664627075195e-02,3.510925918817520142e-02,-1.098805740475654602e-01,8.811417967081069946e-03,-8.737063035368919373e-03,1.242491789162158966e-02,1.008647494018077850e-02,8.519855327904224396e-03,1.553979422897100449e-02,-8.720764890313148499e-03,1.584693044424057007e-02,-5.537672434002161026e-03,-9.055799804627895355e-03,2.422206290066242218e-02,-2.927307784557342529e-02,-4.284182563424110413e-02,1.136122271418571472e-02,3.192903473973274231e-02,-1.759902574121952057e-02,-4.502189531922340393e-02,-5.273718759417533875e-02,-2.984482049942016602e-02,-2.136063575744628906e-02,-3.079175204038619995e-02,-1.148479878902435303e-01,-4.795257747173309326e-02,-1.677243970334529877e-02
1.754877157509326935e-02,1.995751634240150452e-02,-2.222456783056259155e-02,-4.113122448325157166e-02,2.291921898722648621e-02,1.759508810937404633e-02,-6.066795065999031067e-02,-6.054722890257835388e-02,5.754740163683891296e-02,-7.202293258160352707e-03,-6.541405618190765381e-02,3.623111918568611145e-02,-3.632486239075660706e-02,-2.875886298716068268e-02,-7.240842282772064209e-02,8.776734466664493084e-04,-9.900082834064960480e-03,5.357684195041656494e-02,1.003878191113471985e-02,5.198511295020580292e-03,1.467760931700468063e-02,-2.870306000113487244e-02,8.118535578250885010e-02,3.957947343587875366e-02,-4.432125762104988098e-02,8.723800629377365112e-02,2.030295133590698242e-02,-3.119595348834991455e-02,-2.106605097651481628e-03,-5.775842070579528809e-02,1.335009559988975525e-02,7.869877666234970093e-02,-1.223443821072578430e-02,6.306351721286773682e-02,-8.595816791057586670e-03,-1.631298847496509552e-02,1.726518757641315460e-02,-3.259770944714546204e-02,5.274054035544395447e-02,1.899869553744792938e-02,9.852893650531768799e-03,3.624215722084045410e-02,-8.242793381214141846e-02,2.800199436023831367e-04,-1.097655971534550190e-03,5.833244696259498596e-02,2.647026255726814270e-02,-1.520135439932346344e-02,-6.109295040369033813e-02,4.766712710261344910e-02,-7.589378952980041504e-02,-4.775553941726684570e-02,2.079157903790473938e-02,5.201529711484909058e-02,-5.091539584100246429e-03,-1.987735927104949951e-02,-8.755522966384887695e-02,6.583064049482345581e-02,-2.246179990470409393e-02,-3.471814095973968506e-02,-1.629397831857204437e-02,3.574929013848304749e-02,-3.433636203408241272e-02,-1.322373654693365097e-02,9.608242660760879517e-03,-3.622813522815704346e-02,-4.675709828734397888e-02,-4.473499208688735962e-02,-3.932383283972740173e-02,-3.729848191142082214e-02,-5.485696718096733093e-02,3.966426104307174683e-02,-6.064609810709953308e-02,2.793835103511810303e-02,4.534537717700004578e-02,3.374138846993446350e-02,4.730273410677909851e-02,-4.408961907029151917e-02,-2.863243035972118378e-02,-1.919631101191043854e-02,2.218913659453392029e-02,4.268261138349771500e-03,1.130406260490417480e-01,2.029839903116226196e-03,-4.145456477999687195e-02,4.137096926569938660e-02,-3.605522215366363525e-02,7.849077694118022919e-03,3.421737253665924072e-02,-1.720442622900009155e-02,-5.910569429397583008e-02,2.648211270570755005e-02,1.095794234424829483e-02,5.548356473445892334e-02,-1.574642024934291840e-03,-2.462296001613140106e-02,-2.290726825594902039e-02,-6.779701262712478638e-02,-1.600332371890544891e-02,6.721754092723131180e-03,2.486494136974215508e-03,6.484521087259054184e-03,2.717836201190948486e-02,1.972725242376327515e-02,2.790594287216663361e-02,2.305176341906189919e-03,1.705357432365417480e-02,3.157785162329673767e-02,-6.180805712938308716e-02,5.476814508438110352e-02,-3.660938888788223267e-02,3.937218338251113892e-02,-2.462787553668022156e-02,-5.266547575592994690e-02,-6.000156328082084656e-02,-9.733768180012702942e-03,-2.501581050455570221e-02,4.198916628956794739e-02,-2.027725800871849060e-02,2.760391868650913239e-02,-4.686347395181655884e-02,-9.863823652267456055e-02,1.359667745418846607e-03,5.281637981534004211e-02,-6.175515055656433105e-02,-7.920820266008377075e-02,-5.433519929647445679e-02,-2.474581077694892883e-02
-2.180035953642800450e-04,1.529164426028728485e-02,4.193086177110671997e-02,4.301409050822257996e-02,5.379217118024826050e-02,-9.238314814865589142e-03,8.845124393701553345e-02,6.927174329757690430e-02,4.386618733406066895e-03,1.214634813368320465e-02,-7.450636476278305054e-02,-1.234470587223768234e-02,6.033055111765861511e-02,-2.365764789283275604e-02,-1.172723248600959778e-03,-8.226376958191394806e-03,3.711544722318649292e-02,-7.123035937547683716e-02,-4.499417543411254883e-02,3.059148974716663361e-02,-6.450410187244415283e-02,-8.550393395125865936e-03,3.733488963916897774e-03,8.614964038133621216e-02,-1.489699818193912506e-02,-1.231226697564125061e-02,-5.397940427064895630e-02,-1.384655106812715530e-02,-5.585288163274526596e-03,-3.685960546135902405e-02,-1.373058557510375977e-02,6.815533339977264404e-02,-4.608883336186408997e-02,-6.369039416313171387e-02,2.466393262147903442e-02,4.807791486382484436e-02,3.143273666501045227e-02,-3.367917239665985107e-02,5.707377195358276367e-02,-9.665536694228649139e-03,1.213719695806503296e-02,-9.652116335928440094e-03,-3.237256035208702087e-02,-2.035484835505485535e-02,-8.976209908723831177e-02,-4.067573696374893188e-02,-4.636560380458831787e-02,7.988422177731990814e-03,4.382671788334846497e-03,-3.905342146754264832e-02,1.237719655036926270e-01,5.884755030274391174e-02,-4.635344725102186203e-03,-1.784072443842887878e-02,-4.622972384095191956e-02,-6.885221693664789200e-03,-8.180089294910430908e-02,1.880220882594585419e-02,-5.741859227418899536e-02,-2.940130420029163361e-03,-5.848953500390052795e-02,-3.044735640287399292e-02,-5.489134043455123901e-02,-5.157311446964740753e-03,-3.947109356522560120e-02,6.092519685626029968e-02,-5.556106939911842346e-02,5.473592318594455719e-03,1.316293478012084961e-01,9.318219870328903198e-02,-3.184918686747550964e-02,2.436195965856313705e-03,-4.885144159197807312e-02,1.203909050673246384e-02,-1.086897123605012894e-02,-1.920880936086177826e-02,-4.277026280760765076e-02,-1.706149615347385406e-02,-4.100898280739784241e-02,-2.574656857177615166e-03,-1.218169275671243668e-02,1.473891269415616989e-02,-3.075044974684715271e-02,-6.221523508429527283e-03,7.748491596430540085e-03,6.407438777387142181e-03,-7.564821094274520874e-02,-2.054414898157119751e-02,4.560280591249465942e-02,-6.787945330142974854e-02,2.784372121095657349e-02,3.342909738421440125e-02,-3.246797993779182434e-02,-6.112392619252204895e-02,3.253390267491340637e-02,-2.046007104218006134e-02,1.774244196712970734e-02,-1.323237270116806030e-01,-3.454257175326347351e-02,6.040236912667751312e-03,1.446637790650129318e-02,-5.785902217030525208e-02,2.936462312936782837e-02,3.858477994799613953e-02,-5.543728359043598175e-03,-2.841490879654884338e-02,-3.244804218411445618e-02,-9.587273932993412018e-03,-5.587848275899887085e-02,-5.545807629823684692e-02,1.504524494521319866e-03,-6.388791371136903763e-03,-1.588603854179382324e-02,-7.900760322809219360e-02,8.418079465627670288e-03,-1.152902189642190933e-02,7.903915643692016602e-02,-5.519622564315795898e-02,-2.337820455431938171e-02,2.888830192387104034e-02,-2.525228261947631836e-02,-1.843226514756679535e-02,-5.018982291221618652e-02,-2.224962227046489716e-02,6.124133244156837463e-02,-2.955760993063449860e-02,-2.615306712687015533e-02,-2.569989860057830811e-02
2.899629622697830200e-02,-8.074330165982246399e-03,1.579069066792726517e-03,3.235285729169845581e-02,-2.127828542143106461e-03,2.821372821927070618e-02,-4.928354546427726746e-02,-3.714621812105178833e-02,2.833222784101963043e-02,-4.119160398840904236e-02,7.704241573810577393e-02,-3.429290605708956718e-03,-2.571649849414825439e-02,-1.229079719632863998e-02,5.802812520414590836e-03,-8.209028095006942749e-02,-1.688921451568603516e-02,-4.809400439262390137e-02,-5.372420419007539749e-03,-3.089968860149383545e-02,6.799255497753620148e-03,2.533443970605731010e-03,-5.234721302986145020e-02,2.628890797495841980e-02,-3.088476695120334625e-02,-5.591693148016929626e-02,-5.349749699234962463e-02,1.088844798505306244e-02,-2.327251434326171875e-02,-7.267146371304988861e-03,-2.362612821161746979e-02,-1.793161220848560333e-02,4.095762968063354492e-02,-4.183900356292724609e-02,-1.786411367356777191e-02,-5.650832783430814743e-03,4.893892630934715271e-02,-5.193166807293891907e-02,4.418308660387992859e-02,-3.458001464605331421e-02,6.922540068626403809e-02,-3.877143561840057373e-02,5.296748131513595581e-03,-8.263832330703735352e-02,3.939409181475639343e-02,-1.017729565501213074e-02,5.794163048267364502e-02,1.486308500170707703e-02,-5.358461663126945496e-02,-7.828786969184875488e-02,-4.254919290542602539e-02,5.294683575630187988e-02,8.142764680087566376e-03,-2.196905016899108887e-02,-3.030432388186454773e-02,-3.300346899777650833e-03,-2.564801834523677826e-02,-3.175766393542289734e-02,3.000972792506217957e-02,-3.970290720462799072e-02,-6.178598850965499878e-02,6.801434326916933060e-03,-1.393095310777425766e-02,-5.819854512810707092e-02,-1.023957083816640079e-04,1.854923437349498272e-03,7.114624604582786560e-04,-2.513529174029827118e-02,4.147123545408248901e-02,-2.630362473428249359e-02,-6.941155344247817993e-02,2.794977976009249687e-03,-3.584190830588340759e-02,-3.329428657889366150e-02,-3.175038099288940430e-02,-8.141166716814041138e-02,-1.761703379452228546e-02,-2.961598522961139679e-02,-1.440785638988018036e-02,6.989036500453948975e-02,-4.923404753208160400e-02,-7.048957049846649170e-02,-3.220929950475692749e-02,4.093923792243003845e-02,-5.717883259057998657e-02,-2.636969787999987602e-03,-4.581970348954200745e-02,-1.747316308319568634e-02,-6.285394076257944107e-03,-1.072290167212486267e-02,1.166696287691593170e-02,5.399551242589950562e-02,9.538537822663784027e-03,5.236767977476119995e-02,1.874196715652942657e-02,2.717226371169090271e-02,-4.040318541228771210e-03,-4.356221482157707214e-02,6.413097679615020752e-02,-8.152671158313751221e-02,8.132380992174148560e-02,8.074378222227096558e-02,-5.979114677757024765e-03,5.559214949607849121e-02,-5.713299289345741272e-02,-5.925605446100234985e-02,-7.945496588945388794e-03,-3.606716543436050415e-02,2.426786534488201141e-02,-4.916510079056024551e-03,-3.469055891036987305e-02,2.569190459325909615e-03,1.740531250834465027e-02,-2.543502114713191986e-02,-2.045555226504802704e-02,1.111112907528877258e-02,1.530434470623731613e-02,8.460474759340286255e-02,-3.006601519882678986e-02,-4.506589472293853760e-02,-1.355898566544055939e-02,1.889822888188064098e-03,-9.079235047101974487e-02,-3.602559864521026611e-02,-2.681734412908554077e-02,-2.783795818686485291e-03,4.711816087365150452e-02,-4.708383977413177490e-02
-1.226656604558229446e-02,5.076865479350090027e-02,-3.478882089257240295e-02,6.193514913320541382e-02,4.264701530337333679e-02,5.947922170162200928e-02,-3.366677463054656982e-02,9.077550843358039856e-03,4.594636149704456329e-03,-8.877049386501312256e-02,-4.796738922595977783e-02,-5.780855193734169006e-02,-6.448451429605484009e-02,8.982045948505401611e-02,-2.910214848816394806e-02,5.726001039147377014e-02,2.998473308980464935e-02,-4.114091023802757263e-02,5.378350988030433655e-02,-3.359059244394302368e-02,-2.768653258681297302e-02,-6.480586528778076172e-02,5.189001560211181641e-03,-3.611997887492179871e-02,-1.754201203584671021e-02,-6.392633169889450073e-02,3.915753588080406189e-02,-2.074640989303588867e-02,1.893307454884052277e-02,-1.259860489517450333e-02,4.235087707638740540e-02,-2.892896346747875214e-02,-7.077393680810928345e-02,5.169455334544181824e-02,-2.736188843846321106e-02,3.952753171324729919e-02,5.722683295607566833e-02,-5.902855098247528076e-02,7.821650244295597076e-03,-5.480827763676643372e-02,3.114454820752143860e-02,5.236189067363739014e-02,-2.562989108264446259e-02,-6.982203572988510132e-02,-8.719152957201004028e-02,4.986231215298175812e-03,4.823670315090566874e-04,1.865999959409236908e-02,-3.798623755574226379e-02,1.123917177319526672e-01,-7.344936486333608627e-03,6.977476924657821655e-02,4.470952972769737244e-02,5.115777626633644104e-02,2.026680484414100647e-02,-2.659300155937671661e-02,5.197718366980552673e-02,-1.882565702544525266e-04,-4.264653474092483521e-02,5.453991144895553589e-02,-1.351774670183658600e-02,4.383872076869010925e-02,-2.370396163314580917e-03,1.719794422388076782e-02,1.335968635976314545e-02,5.425035580992698669e-02,8.984943479299545288e-02,-3.928820043802261353e-02,3.308155387639999390e-02,3.253584355115890503e-02,-8.130113710649311543e-04,-4.703213926404714584e-03,-3.823980223387479782e-03,-4.864181205630302429e-02,-5.142874270677566528e-02,6.989534199237823486e-02,1.414909958839416504e-02,2.615616843104362488e-02,-4.800656437873840332e-02,-2.637469908222556114e-03,-1.697008498013019562e-03,-5.395960062742233276e-03,5.785779282450675964e-02,7.649458944797515869e-02,3.665038570761680603e-02,-1.885203644633293152e-02,-1.120794489979743958e-01,4.523549601435661316e-02,-5.541124194860458374e-02,2.746077068150043488e-02,-6.712848693132400513e-02,9.688202291727066040e-03,-3.105473332107067108e-02,-7.587722688913345337e-02,5.298667401075363159e-02,1.262277178466320038e-02,-1.696170866489410400e-02,-1.780021935701370239e-02,1.036299318075180054e-01,-4.505196958780288696e-02,6.218077242374420166e-02,1.008320972323417664e-01,-4.847472906112670898e-02,6.993799656629562378e-02,2.498350106179714203e-02,-1.136433426290750504e-02,2.569760382175445557e-02,-4.868646338582038879e-02,4.438376426696777344e-02,-3.411040082573890686e-02,-4.424583539366722107e-02,-2.049282658845186234e-03,-2.736703725531697273e-03,1.002463512122631073e-02,3.609459102153778076e-02,-7.129708305001258850e-03,1.482792291790246964e-02,3.579966351389884949e-02,5.010622367262840271e-02,2.777733653783798218e-02,8.160954713821411133e-02,-6.891200691461563110e-02,5.195780098438262939e-02,1.696016453206539154e-02,-5.932364612817764282e-02,-4.998415336012840271e-02,-3.813856467604637146e-02,-5.534865707159042358e-02
-2.557191811501979828e-02,1.004442051053047180e-01,-6.166924163699150085e-02,4.861718416213989258e-02,3.561433404684066772e-02,-4.274074360728263855e-02,2.512899413704872131e-02,5.416043847799301147e-02,8.132605999708175659e-02,-2.243866957724094391e-02,1.194614218547940254e-03,7.581586483865976334e-03,-2.675167750567197800e-03,-3.696363791823387146e-02,-3.948176279664039612e-02,2.321499772369861603e-02,-4.024448618292808533e-02,-4.210725054144859314e-02,-1.452292129397392273e-02,8.610116317868232727e-03,4.540766775608062744e-02,-7.162581384181976318e-02,-1.041461154818534851e-01,-1.788483560085296631e-02,-2.713352069258689880e-02,6.017512083053588867e-02,4.219308122992515564e-02,-9.958317130804061890e-02,-3.314102068543434143e-02,-3.271622210741043091e-02,-4.411492124199867249e-02,-1.135861873626708984e-02,-6.939041614532470703e-02,-6.551926583051681519e-02,-4.880866408348083496e-02,4.053525999188423157e-02,2.800929918885231018e-02,-6.291573494672775269e-02,-3.667876496911048889e-02,-1.974970661103725433e-02,-2.986646816134452820e-02,7.537838071584701538e-02,-4.299601167440414429e-02,-1.124389171600341797e-01,-1.116439402103424072e-01,4.120770841836929321e-02,-5.135210230946540833e-03,1.246221642941236496e-02,2.285372652113437653e-02,-5.287091061472892761e-02,7.325830310583114624e-02,-2.547951415181159973e-02,2.988999523222446442e-02,-9.403970034327358007e-05,5.038922280073165894e-02,-1.638095825910568237e-02,-6.249074637889862061e-02,3.275833278894424438e-02,-2.353942021727561951e-02,-6.323035061359405518e-02,-5.094683170318603516e-02,-5.657229945063591003e-02,-2.524488233029842377e-02,5.228508729487657547e-03,5.154437199234962463e-02,3.641059622168540955e-02,1.030462142080068588e-02,-6.399910151958465576e-02,-1.754719205200672150e-02,-4.018238931894302368e-02,-3.765023872256278992e-02,-1.040281280875205994e-01,-7.572916895151138306e-02,2.388643659651279449e-02,-1.036325655877590179e-02,-6.528400629758834839e-02,6.557647138833999634e-02,-5.542875453829765320e-02,2.096740296110510826e-03,-7.422591745853424072e-02,1.903443038463592529e-01,-1.370265986770391464e-02,-7.382236421108245850e-02,5.197803676128387451e-02,4.453380778431892395e-02,-5.278358235955238342e-02,-5.857864394783973694e-02,4.004010185599327087e-02,-3.603962482884526253e-03,-5.910347402095794678e-02,4.320488497614860535e-02,-8.559363335371017456e-02,-1.854188367724418640e-02,-4.719059914350509644e-02,1.040163263678550720e-01,-2.744598500430583954e-02,-1.727014034986495972e-02,2.546942792832851410e-02,6.203324720263481140e-02,-1.480382867157459259e-02,-1.658538542687892914e-02,-4.280704259872436523e-02,9.499105624854564667e-03,-9.071253985166549683e-02,-3.913189284503459930e-03,-1.184072159230709076e-02,2.463646791875362396e-02,-2.395318821072578430e-02,-1.196175813674926758e-01,5.835669487714767456e-02,-5.776216834783554077e-02,1.903086900711059570e-02,-5.352480709552764893e-02,2.034611813724040985e-02,5.886430665850639343e-02,-9.979765117168426514e-02,2.224194444715976715e-02,9.822814725339412689e-03,-6.511847022920846939e-03,-3.302489966154098511e-02,-6.709501612931489944e-03,-1.960044912993907928e-02,4.386288672685623169e-02,3.181076422333717346e-02,-2.586122974753379822e-02,8.901704131858423352e-05,-4.238354414701461792e-02,-4.036561772227287292e-02
-4.911870695650577545e-03,-2.651023119688034058e-02,-3.030442818999290466e-02,1.426142547279596329e-02,-6.734490394592285156e-02,-4.630122799426317215e-03,-2.181931771337985992e-02,5.290777608752250671e-02,1.323335021734237671e-01,-2.067114412784576416e-02,1.239534653723239899e-02,-7.667657732963562012e-02,-4.680975526571273804e-02,-1.943764090538024902e-02,-2.998407930135726929e-02,-1.003703474998474121e-01,-8.059044182300567627e-02,1.054375618696212769e-02,2.149582281708717346e-02,4.655410721898078918e-02,-5.371395871043205261e-02,-6.066989526152610779e-02,-6.591540575027465820e-02,-4.886369779706001282e-02,-3.471958637237548828e-02,-1.636270061135292053e-02,4.483040049672126770e-02,-2.061515487730503082e-02,1.694794744253158569e-02,1.679611019790172577e-02,5.363604053854942322e-02,-1.660919748246669769e-02,6.630073767155408859e-03,-2.085142768919467926e-02,6.051067728549242020e-03,1.558373402804136276e-02,2.058979496359825134e-02,-5.411107465624809265e-02,4.693454504013061523e-02,3.122714720666408539e-02,-5.144220590591430664e-02,4.086944833397865295e-02,-8.699206262826919556e-02,-1.081083789467811584e-01,5.265903845429420471e-02,1.059607267379760742e-01,-4.261887073516845703e-02,7.562467362731695175e-03,-3.616571798920631409e-02,-2.429656311869621277e-02,-3.207593411207199097e-02,1.646136865019798279e-02,1.643106713891029358e-02,-4.003748670220375061e-02,3.571352735161781311e-02,-1.331221219152212143e-02,6.615044921636581421e-02,5.195702984929084778e-02,-4.888796806335449219e-02,1.213426515460014343e-02,-2.617039903998374939e-02,-4.435016959905624390e-02,1.861753989942371845e-03,6.357408314943313599e-02,2.024491317570209503e-02,-1.638503931462764740e-02,5.422772839665412903e-02,8.138534426689147949e-02,-5.076786503195762634e-02,-2.228511683642864227e-02,-1.782075315713882446e-02,-3.619590774178504944e-02,-8.063513040542602539e-02,-1.757034286856651306e-02,-5.640545114874839783e-02,4.525137692689895630e-02,5.985081568360328674e-02,-3.294876590371131897e-02,-5.885815620422363281e-02,1.051684692502021790e-01,-1.820198260247707367e-02,-1.193579938262701035e-02,-5.872743204236030579e-02,-4.232045321259647608e-04,-7.998625934123992920e-02,-1.478946581482887268e-02,-1.893866062164306641e-02,5.497581139206886292e-02,-1.105847116559743881e-02,-4.347284138202667236e-02,-1.093644183129072189e-02,-1.946252188645303249e-03,-3.498612716794013977e-02,9.235326200723648071e-02,6.807578727602958679e-03,-2.448674477636814117e-02,-7.212772499769926071e-03,4.116674512624740601e-02,-2.384047955274581909e-02,-2.034679241478443146e-02,1.812434569001197815e-02,1.893621985800564289e-03,-3.446183353662490845e-02,-2.315271459519863129e-02,-2.185533568263053894e-02,-5.539834126830101013e-02,7.616881048306822777e-04,-5.966853350400924683e-02,-1.019862443208694458e-01,4.096644464880228043e-03,-4.019232094287872314e-02,-5.190139636397361755e-02,1.332327909767627716e-02,-3.757505118846893311e-02,-8.919309824705123901e-03,-2.076988853514194489e-02,-1.178793609142303467e-02,-2.245511487126350403e-02,7.882663607597351074e-02,-2.245029807090759277e-02,4.774492233991622925e-02,8.716621249914169312e-02,8.421831764280796051e-03,-6.544249504804611206e-02,4.953531548380851746e-02,-1.629912853240966797e-02,-1.247730478644371033e-02,-2.500242553651332855e-03
-4.541495814919471741e-02,2.793360874056816101e-02,-5.112836509943008423e-02,2.674216590821743011e-02,-2.125576697289943695e-02,1.188196125440299511e-03,-3.497132286429405212e-02,4.442936182022094727e-02,1.379590183496475220e-01,9.491362608969211578e-03,-4.902031272649765015e-02,-4.318726062774658203e-02,-6.141307204961776733e-02,-6.069321557879447937e-02,-1.135199703276157379e-02,5.439097061753273010e-03,-6.450534611940383911e-02,2.886197902262210846e-02,-4.442713409662246704e-02,2.061408013105392456e-02,7.300839293748140335e-03,-3.412802889943122864e-02,2.241476252675056458e-02,-3.543045744299888611e-02,5.052004382014274597e-02,3.390060504898428917e-03,1.996810175478458405e-02,-5.195638537406921387e-02,1.310546975582838058e-02,2.530617453157901764e-02,1.152544766664505005e-01,-7.226088643074035645e-02,-1.755988970398902893e-02,-3.582313284277915955e-02,-4.184436798095703125e-02,-9.855685755610466003e-03,9.099232405424118042e-02,-5.816700309514999390e-02,-4.372434690594673157e-03,-7.207009196281433105e-02,-1.189144328236579895e-02,3.713147714734077454e-02,-1.113505810499191284e-01,-5.742482468485832214e-02,3.020405955612659454e-02,3.740275651216506958e-02,-5.318449810147285461e-03,2.148764021694660187e-02,-1.318757142871618271e-02,-1.564751751720905304e-02,-2.027551271021366119e-02,1.974829705432057381e-03,-2.868671156466007233e-02,-3.949898108839988708e-02,9.490384906530380249e-02,-1.313590072095394135e-02,8.272454142570495605e-02,1.340360101312398911e-02,-4.984931647777557373e-02,-4.106836766004562378e-02,-4.577218554913997650e-03,7.364591211080551147e-02,1.674308255314826965e-02,1.143214479088783264e-01,7.564683258533477783e-02,-7.763846218585968018e-02,1.325543853454291821e-03,-1.227542944252490997e-02,-4.407786950469017029e-02,-4.966406151652336121e-03,8.767732977867126465e-02,-4.134695231914520264e-02,-6.456644833087921143e-02,-5.562920495867729187e-02,-1.400332245975732803e-02,7.681545615196228027e-02,2.719640731811523438e-02,-1.991492696106433868e-02,-4.474397376179695129e-02,-2.973036468029022217e-02,2.149558998644351959e-02,8.805603720247745514e-03,-6.981792300939559937e-02,8.330228738486766815e-03,1.360675878822803497e-02,1.165040209889411926e-02,-7.544643245637416840e-03,1.059948578476905823e-01,1.159146148711442947e-02,-1.926087774336338043e-02,5.296615511178970337e-02,2.994214929640293121e-02,9.510728716850280762e-02,8.177600800991058350e-02,8.206203579902648926e-02,-2.701456099748611450e-02,-7.269355468451976776e-03,-4.870280623435974121e-02,4.159375559538602829e-03,-5.277147516608238220e-02,-2.858815714716911316e-03,-4.351451992988586426e-02,9.194201789796352386e-03,2.415544353425502777e-03,-8.934193290770053864e-03,1.348819490522146225e-02,-1.905662193894386292e-02,-1.372857484966516495e-03,-9.048289805650711060e-02,2.930615842342376709e-02,-2.794140391051769257e-02,-3.506451845169067383e-02,-2.016907371580600739e-02,-6.932052224874496460e-02,1.647282205522060394e-02,3.104017488658428192e-02,-3.879835829138755798e-02,-1.113140862435102463e-02,8.166562020778656006e-02,5.680647119879722595e-02,2.670545876026153564e-02,1.365237962454557419e-02,1.693090051412582397e-02,4.300962667912244797e-03,1.193424873054027557e-02,-8.738042786717414856e-03,4.221057891845703125e-02,-7.962043583393096924e-02
1.349891349673271179e-02,-3.678075969219207764e-02,-2.059935126453638077e-03,-5.441723763942718506e-02,3.731204196810722351e-02,-5.319288372993469238e-02,-1.166932936757802963e-02,-4.370458889752626419e-03,5.488221999257802963e-03,-1.014625746756792068e-02,-6.311901658773422241e-02,-5.464011430740356445e-02,1.523238699883222580e-02,-4.011802747845649719e-02,6.073145568370819092e-02,-4.403506964445114136e-02,-3.905082354322075844e-03,-1.595886796712875366e-02,-4.653533175587654114e-02,4.933558404445648193e-02,-8.373300661332905293e-04,-2.962783351540565491e-02,7.682130485773086548e-02,-8.373454329557716846e-04,-8.890248835086822510e-02,-1.670612255111336708e-03,-2.603981271386146545e-02,-3.684444352984428406e-02,-2.422048524022102356e-02,6.548557430505752563e-02,-6.882363557815551758e-02,7.781536877155303955e-02,-3.809496760368347168e-02,6.428714096546173096e-02,1.207956951111555099e-02,-3.909428790211677551e-02,6.255812197923660278e-02,-6.689321249723434448e-02,6.317193806171417236e-02,-5.641878768801689148e-02,4.146287683397531509e-03,3.583572432398796082e-02,1.438701758161187172e-03,1.501595973968505859e-02,-6.252539157867431641e-02,5.733312666416168213e-02,-5.143742263317108154e-02,-1.586914621293544769e-02,-5.687826871871948242e-02,-3.209135681390762329e-02,3.344835340976715088e-02,-5.522490665316581726e-02,-3.331737592816352844e-02,-4.097525030374526978e-02,-5.884755030274391174e-02,-1.063663512468338013e-01,-5.341061204671859741e-02,2.152369916439056396e-02,-9.585089050233364105e-03,-9.133362025022506714e-02,1.066084206104278564e-02,-1.952688768506050110e-02,-3.397553041577339172e-02,4.012840986251831055e-02,-7.861575484275817871e-02,6.254329532384872437e-02,-6.677664816379547119e-03,-5.649667978286743164e-02,-3.440816327929496765e-02,4.826504364609718323e-02,6.463032215833663940e-02,-3.289901465177536011e-02,-6.813850998878479004e-02,-2.164293080568313599e-02,-8.066131733357906342e-03,-1.256852876394987106e-02,-8.504036068916320801e-02,-8.208204992115497589e-03,8.139200508594512939e-02,-7.207158207893371582e-02,1.149401217699050903e-01,8.751808106899261475e-02,3.422706574201583862e-02,-5.593213066458702087e-02,-5.060295388102531433e-02,-4.661425948143005371e-02,-3.578629344701766968e-02,-7.822404056787490845e-02,8.413481526076793671e-03,-9.262771345674991608e-03,-5.737104918807744980e-03,5.029852502048015594e-03,-1.085228286683559418e-03,-3.820522874593734741e-02,-9.048465639352798462e-03,-9.713727980852127075e-03,-6.172053888440132141e-02,-8.242018520832061768e-02,-2.148358523845672607e-02,-5.917218979448080063e-03,4.273819178342819214e-02,4.478903114795684814e-02,-8.639985322952270508e-02,5.841738358139991760e-02,-3.530258312821388245e-02,5.056294426321983337e-02,-2.691037766635417938e-02,-5.328507721424102783e-02,-8.989420533180236816e-02,-3.298502787947654724e-02,6.038867682218551636e-02,2.304868586361408234e-02,-8.127881214022636414e-03,-7.459782063961029053e-02,-1.427815761417150497e-02,-5.611706525087356567e-03,1.801314949989318848e-02,2.484088577330112457e-02,1.988473162055015564e-02,-1.876240596175193787e-03,-1.000289395451545715e-01,-1.009217724204063416e-01,-5.477181822061538696e-02,-6.931287050247192383e-02,7.943671941757202148e-02,-1.840067125158384442e-04,5.416018143296241760e-02,4.111867025494575500e-02
3.355416283011436462e-02,-4.875548556447029114e-02,-2.074768394231796265e-02,-6.579830497503280640e-02,1.127141118049621582e-01,-5.630410090088844299e-02,-6.008376833051443100e-03,-5.637466534972190857e-02,4.324378445744514465e-02,1.180866509675979614e-01,-5.421611666679382324e-02,-4.564892873167991638e-02,-3.492198884487152100e-02,4.319956153631210327e-02,-2.328427508473396301e-02,-1.134476065635681152e-02,-1.107920520007610321e-02,4.621302336454391479e-02,-4.007774218916893005e-02,-8.845178782939910889e-02,3.391874209046363831e-02,-1.201273174956440926e-03,1.069995984435081482e-01,2.934201993048191071e-02,1.889641955494880676e-02,-7.181484252214431763e-02,-8.230459690093994141e-02,1.247713901102542877e-02,2.174171851947903633e-03,2.386080846190452576e-02,-2.332036942243576050e-02,4.898807499557733536e-03,-6.040374189615249634e-02,2.330034226179122925e-02,-7.074410468339920044e-02,-4.352906718850135803e-02,2.088998910039663315e-03,1.269748434424400330e-02,6.184613332152366638e-02,5.946653708815574646e-02,1.138175427913665771e-01,6.666514277458190918e-02,1.305485051125288010e-02,1.890867762267589569e-02,2.510662004351615906e-02,-2.387250773608684540e-02,-1.695524901151657104e-02,-1.034477874636650085e-01,-4.292101133614778519e-03,-4.354680702090263367e-02,-6.313072890043258667e-02,-1.978091709315776825e-02,1.345588918775320053e-02,1.963122189044952393e-02,2.921794168651103973e-02,-1.053336821496486664e-02,-3.787518478929996490e-03,-6.098010344430804253e-04,-8.430399745702743530e-02,1.314798463135957718e-02,3.590969741344451904e-02,-3.877303004264831543e-02,-1.079892590641975403e-01,-5.314577370882034302e-02,-1.311476975679397583e-01,-1.008646190166473389e-02,-7.516843732446432114e-03,-1.238643750548362732e-01,-6.092395260930061340e-02,3.481838852167129517e-02,-2.282260917127132416e-02,-3.544804453849792480e-02,-4.285455122590065002e-02,-1.260939985513687134e-02,-1.334301661700010300e-03,5.867645516991615295e-02,-6.261562556028366089e-02,-2.472767606377601624e-02,5.848232656717300415e-03,4.614944010972976685e-02,1.207218877971172333e-02,-1.448450237512588501e-02,5.658229347318410873e-03,-7.058002799749374390e-02,4.392930120229721069e-02,-6.047756224870681763e-02,-7.271146029233932495e-02,-7.380580902099609375e-02,4.216114804148674011e-02,-3.622382134199142456e-02,-1.053053070791065693e-03,2.606583759188652039e-02,9.557849168777465820e-02,-7.195049524307250977e-02,-2.319804392755031586e-02,-5.739170685410499573e-02,-6.863483786582946777e-02,-4.031428694725036621e-02,8.025203133001923561e-04,-5.735423043370246887e-02,-5.310833454132080078e-02,2.459627203643321991e-02,-5.085489153861999512e-02,-8.768172003328800201e-03,-7.181471586227416992e-02,1.316876802593469620e-02,-5.598421767354011536e-02,4.510729573667049408e-03,-6.715775001794099808e-03,5.096625909209251404e-02,-5.614123865962028503e-02,-3.983552753925323486e-02,-3.064321540296077728e-02,7.818873040378093719e-03,4.174653068184852600e-02,-9.500259533524513245e-03,1.562605053186416626e-02,5.566858872771263123e-02,3.415649384260177612e-02,-9.019286185503005981e-02,-4.396917298436164856e-02,-2.065859735012054443e-02,-9.421366266906261444e-03,-6.709140539169311523e-02,2.150752954185009003e-02,6.244826689362525940e-02,-1.234902907162904739e-02,-4.610945284366607666e-02
2.631019160617142916e-04,-5.275349318981170654e-02,-1.908310689032077789e-02,1.025561988353729248e-02,-6.308779865503311157e-02,2.724530734121799469e-02,3.736077621579170227e-02,-5.531156435608863831e-02,-6.390673667192459106e-02,3.515654429793357849e-02,-6.392448674887418747e-03,-1.150594279170036316e-01,-8.960735052824020386e-03,1.176365390419960022e-01,5.425262264907360077e-03,-9.881570190191268921e-02,1.089462861418724060e-01,4.557409510016441345e-02,7.989210076630115509e-03,-6.785545498132705688e-02,-1.778549142181873322e-02,-4.354722797870635986e-03,5.818343535065650940e-02,5.102897062897682190e-02,-9.538404643535614014e-02,6.896524876356124878e-02,-4.612169787287712097e-02,-5.690681934356689453e-02,-1.389415469020605087e-02,-3.496707603335380554e-02,-2.192410454154014587e-02,2.861483208835124969e-02,-2.549169026315212250e-02,2.476910687983036041e-02,-1.139789447188377380e-02,1.028233487159013748e-02,-2.366704307496547699e-02,2.262460626661777496e-02,-4.636234045028686523e-02,2.496036887168884277e-02,1.411019712686538696e-01,-3.069982305169105530e-02,2.225226722657680511e-02,1.819136738777160645e-02,3.334327414631843567e-02,-2.428773045539855957e-02,3.942414477933198214e-04,-3.457091981545090675e-03,-6.295318156480789185e-02,9.900797158479690552e-03,-1.124806180596351624e-01,-6.105761975049972534e-02,4.849504679441452026e-02,6.657191365957260132e-02,-7.867532968521118164e-02,-5.895416066050529480e-02,-1.041672974824905396e-01,-1.671744883060455322e-02,-1.437894999980926514e-02,-1.494730263948440552e-02,2.416252531111240387e-02,7.064097374677658081e-02,-1.123131439089775085e-01,-3.803435713052749634e-02,-1.015708446502685547e-01,-8.934283256530761719e-02,-3.801779588684439659e-03,-1.385201700031757355e-02,-6.552825123071670532e-02,1.084624007344245911e-01,1.879449468106031418e-03,6.668703258037567139e-02,-3.913361579179763794e-02,-1.499768160283565521e-02,-3.713909536600112915e-02,1.812079548835754395e-01,-5.380530655384063721e-02,2.199564501643180847e-02,2.414656430482864380e-02,5.699433758854866028e-02,-1.000518328510224819e-03,-2.810508571565151215e-02,1.560468506067991257e-02,-6.375547498464584351e-02,2.485111472196877003e-04,-1.225179340690374374e-02,-2.194146625697612762e-02,-3.464704751968383789e-02,2.708395011723041534e-02,1.284439861774444580e-01,2.716867066919803619e-02,-6.962231546640396118e-02,-1.824665628373622894e-02,-1.848763413727283478e-02,-7.802265230566263199e-03,-2.586610615253448486e-02,-3.874628618359565735e-02,-1.176564171910285950e-01,-1.163754519075155258e-02,-2.417530305683612823e-02,-8.731085807085037231e-02,7.718131411820650101e-03,-8.165533095598220825e-02,-1.672216132283210754e-02,-9.731274843215942383e-02,-8.829428255558013916e-02,-1.424181312322616577e-01,5.705888848751783371e-03,-5.502151697874069214e-02,5.727186799049377441e-02,-3.801053389906883240e-02,1.937391981482505798e-02,-1.684144698083400726e-02,7.633817940950393677e-02,-4.561785608530044556e-02,-7.892957888543605804e-03,9.731544554233551025e-02,4.411346465349197388e-02,-1.867755316197872162e-02,-6.119770929217338562e-02,7.442151755094528198e-02,-1.500032655894756317e-02,8.736394345760345459e-02,1.726397126913070679e-02,7.133779674768447876e-02,1.324495673179626465e-02,-1.158576831221580505e-01,3.687307611107826233e-02
