3.551703318953514099e-02,3.911259397864341736e-02,-2.080050110816955566e-02,2.601655013859272003e-02,-8.601349778473377228e-03,-4.614925011992454529e-02,-2.702645026147365570e-02,-3.302124515175819397e-02,-2.544786408543586731e-02,4.124699160456657410e-02,1.631308533251285553e-02,-6.580287218093872070e-02,3.269224613904953003e-02,-1.470210868865251541e-02,-6.586799770593643188e-02,4.027125984430313110e-02,-3.055217675864696503e-02,-1.818144321441650391e-02,1.070393808186054230e-02,-2.761631086468696594e-02,-2.734038792550563812e-02,-4.455215856432914734e-02,5.517884157598018646e-03,-4.081797599792480469e-02,3.695880994200706482e-02,-6.698913872241973877e-02,2.516746520996093750e-02,-5.114462226629257202e-02,-9.644793719053268433e-02,-1.955998688936233521e-02,3.689282760024070740e-02,3.636224940419197083e-02,-2.932494319975376129e-02,2.640712074935436249e-02,-2.232885546982288361e-02,3.372733015567064285e-03,-3.707856312394142151e-02,-3.622224554419517517e-02,2.601926960051059723e-02,-4.137010872364044189e-02,-3.074771724641323090e-02,-2.331764902919530869e-03,2.576697990298271179e-02,-3.714787960052490234e-02,-5.883473157882690430e-02,-1.017745863646268845e-02,-8.778912015259265900e-03,-8.030808717012405396e-02,3.910105209797620773e-03,-1.994584500789642334e-02,-2.746035158634185791e-02,-4.380050301551818848e-02,-3.772027324885129929e-03,6.726962327957153320e-02,-1.743917353451251984e-02,-9.543882682919502258e-03,1.230620080605149269e-03,-5.396835505962371826e-02,-3.078932128846645355e-02,5.946206673979759216e-02,-3.616736829280853271e-02,6.153205037117004395e-02,-5.137389525771141052e-02,-1.277346257120370865e-02,-4.207487776875495911e-02,5.701849004253745079e-04,-2.007708325982093811e-02,-3.097146004438400269e-02,1.736216805875301361e-02,-2.908788248896598816e-02,-6.939915567636489868e-02,-4.580816254019737244e-02,3.207067400217056274e-02,-3.132766857743263245e-02,4.746269434690475464e-02,4.363339394330978394e-03,-2.868326939642429352e-02,-1.985934749245643616e-02,-3.154946863651275635e-02,3.944526612758636475e-02,-2.276816405355930328e-02,-5.049514397978782654e-02,-3.829367086291313171e-02,1.992329768836498260e-02,1.291382499039173126e-02,-5.160658061504364014e-02,9.529748000204563141e-03,-1.779543980956077576e-02,1.019135210663080215e-02,3.188342973589897156e-02,2.287276461720466614e-02,3.896289691329002380e-02,-3.569563850760459900e-03,1.902310177683830261e-02,-1.682570204138755798e-02,-3.576381504535675049e-02,5.863173864781856537e-03,-1.629405282437801361e-02,4.023122414946556091e-02,3.402142599225044250e-02,3.151120245456695557e-02,4.249288700520992279e-03,2.322379313409328461e-02,1.970519311726093292e-02,-3.190066665410995483e-02,4.798254743218421936e-02,-3.473251312971115112e-02,-5.181362852454185486e-02,2.247532084584236145e-02,-3.169414028525352478e-02,-3.664979478344321251e-03,5.508156958967447281e-03,5.432205740362405777e-03,-2.534864097833633423e-02,-1.233983039855957031e-02,1.427160203456878662e-02,5.109237134456634521e-02,1.444699615240097046e-02,2.373814024031162262e-02,2.921896800398826599e-02,-1.358259841799736023e-02,3.894808515906333923e-02,1.827933639287948608e-02,9.827421978116035461e-03,-3.300594910979270935e-02,2.863855659961700439e-02,-4.970877896994352341e-03,9.828406386077404022e-03
-9.190975106321275234e-04,-3.971915692090988159e-03,-2.384056150913238525e-02,1.166979316622018814e-02,-3.393253684043884277e-02,-5.165429785847663879e-03,-1.964586786925792694e-02,-3.440400585532188416e-02,3.605359792709350586e-02,4.781127348542213440e-02,-4.589547216892242432e-02,-1.616772077977657318e-02,6.126503273844718933e-02,3.349063917994499207e-04,3.738069534301757812e-02,-1.524597872048616409e-02,4.526032134890556335e-02,-2.099712379276752472e-02,-1.484326552599668503e-02,7.790931966155767441e-03,-1.912954635918140411e-02,-5.849625170230865479e-02,3.609064966440200806e-02,-4.780093207955360413e-02,1.607134193181991577e-02,2.467162348330020905e-02,-1.063627563416957855e-02,-3.110451251268386841e-02,-5.757843330502510071e-02,2.173238620162010193e-02,9.930239990353584290e-03,-2.617994509637355804e-02,2.117310184985399246e-03,-6.925362162292003632e-03,-1.260649412870407104e-02,3.566275164484977722e-02,-1.870416663587093353e-02,-3.065255284309387207e-02,-7.820773869752883911e-02,2.432306483387947083e-02,7.126483321189880371e-02,-6.164777278900146484e-02,1.945133134722709656e-02,-4.043718427419662476e-02,3.651119396090507507e-02,2.444384247064590454e-02,2.124094776809215546e-02,1.047383341938257217e-02,-3.777139261364936829e-02,-4.548572003841400146e-02,1.242957543581724167e-02,3.359800949692726135e-02,2.442930079996585846e-02,3.687957301735877991e-02,4.988595470786094666e-02,2.924409694969654083e-02,-2.064014784991741180e-03,-6.813560426235198975e-02,-2.327712811529636383e-02,-1.994590088725090027e-02,-8.320712950080633163e-04,5.165956541895866394e-02,-3.677389398217201233e-02,-1.842330582439899445e-02,6.457834504544734955e-03,2.991611696779727936e-02,4.310124367475509644e-02,-8.442079648375511169e-03,-2.183255925774574280e-02,3.913144767284393311e-02,1.117596519179642200e-03,-3.377933800220489502e-02,-3.778544440865516663e-02,3.482217667624354362e-03,-3.897440060973167419e-02,-6.427774578332901001e-02,5.352909490466117859e-02,6.736501585692167282e-03,-8.583185262978076935e-03,2.269659750163555145e-02,-4.469705373048782349e-02,1.200505625456571579e-02,1.419338490813970566e-02,1.845220103859901428e-02,7.409679703414440155e-03,3.601989522576332092e-02,-3.369083255529403687e-02,-5.227474495768547058e-02,-1.095650251954793930e-03,6.326627731323242188e-02,6.335960235446691513e-03,-1.890065707266330719e-02,2.161029726266860962e-02,-2.584938332438468933e-02,-3.169322386384010315e-03,2.615532092750072479e-02,5.089171230792999268e-02,-4.777900874614715576e-02,-1.026942860335111618e-02,-3.097085841000080109e-02,6.264165788888931274e-02,-3.337939828634262085e-02,-1.034042891114950180e-02,-1.677423156797885895e-02,-2.586018666625022888e-02,2.705852687358856201e-02,-3.472222760319709778e-02,5.186310154385864735e-04,4.079482168890535831e-04,2.134509012103080750e-02,2.199236862361431122e-02,-8.715629577636718750e-03,-3.556153923273086548e-02,-5.042482912540435791e-02,2.390088513493537903e-02,2.091762423515319824e-02,-7.782865315675735474e-03,-5.459322035312652588e-02,-4.923533275723457336e-02,1.125109940767288208e-02,3.607784956693649292e-02,-4.941510036587715149e-02,-2.907976321876049042e-02,3.507022559642791748e-02,-9.321064688265323639e-03,2.796996384859085083e-02,-4.770547896623611450e-02,1.764925383031368256e-02
-1.338303368538618088e-02,-1.023708190768957138e-02,2.403421700000762939e-02,4.372381046414375305e-02,-1.949790678918361664e-02,-6.915992498397827148e-02,-5.299683660268783569e-02,-2.802836475893855095e-03,3.623041324317455292e-03,-3.901152685284614563e-02,-2.786573953926563263e-03,1.863911747932434082e-02,6.250991672277450562e-02,-5.679294094443321228e-02,-3.744072094559669495e-02,2.002901770174503326e-02,-1.470401044934988022e-02,-4.562632367014884949e-02,-4.045592620968818665e-02,3.555191680788993835e-02,1.572647690773010254e-02,-4.552430659532546997e-02,-2.847427129745483398e-02,-2.040965948253870010e-03,1.078165788203477859e-02,3.265886381268501282e-02,-5.285104736685752869e-02,-3.487307205796241760e-02,-5.272264778614044189e-02,4.074082151055335999e-02,-4.183355346322059631e-02,2.806577831506729126e-02,-2.194782160222530365e-02,1.618762500584125519e-02,-5.575788766145706177e-02,1.080575678497552872e-02,-1.493229065090417862e-02,-1.494385953992605209e-02,-4.087889567017555237e-02,2.081288211047649384e-02,-2.248834259808063507e-02,-5.470872670412063599e-02,-1.372237876057624817e-02,3.963599354028701782e-02,1.497318781912326813e-02,4.236851260066032410e-02,-9.469861164689064026e-03,-1.194719597697257996e-02,-1.908771321177482605e-02,-1.995447278022766113e-02,1.289006229490041733e-02,-4.350191156845539808e-04,4.575624689459800720e-02,4.443543776869773865e-02,-3.448417410254478455e-02,-4.111833497881889343e-02,-5.254121497273445129e-03,2.292734757065773010e-02,1.274346560239791870e-02,1.255743787623941898e-03,3.754756599664688110e-02,3.083750233054161072e-02,-7.634112238883972168e-02,3.365731239318847656e-02,-1.728257536888122559e-02,-3.235891088843345642e-02,1.027593947947025299e-02,-1.068739220499992371e-02,-1.106793135404586792e-01,6.734621711075305939e-04,5.393258761614561081e-03,-3.027396649122238159e-02,-3.230030462145805359e-02,-2.823905833065509796e-02,-4.239262640476226807e-02,4.297024384140968323e-02,7.270308583974838257e-02,-4.490703344345092773e-02,-5.494265630841255188e-02,-2.005957998335361481e-02,-1.869951933622360229e-02,1.190621219575405121e-02,-5.632176250219345093e-02,8.887400478124618530e-02,-2.960339188575744629e-03,-1.034605316817760468e-02,3.033327497541904449e-02,-2.901659533381462097e-02,-1.341914758086204529e-02,2.965431846678256989e-02,7.504792418330907822e-03,-1.263958052732050419e-03,-5.546472966670989990e-02,-1.563823409378528595e-02,1.390239316970109940e-02,-1.938356272876262665e-02,-3.300071880221366882e-02,-1.415412407368421555e-02,4.313487559556961060e-02,2.238030731678009033e-02,2.810479141771793365e-02,-1.323623210191726685e-02,5.691075325012207031e-02,-6.049142684787511826e-03,-7.677718997001647949e-03,-6.952963769435882568e-02,1.721969246864318848e-02,3.499539336189627647e-03,-4.469705373048782349e-02,-3.979995846748352051e-02,1.618940965272486210e-03,-1.767690666019916534e-02,2.235501073300838470e-02,1.216948963701725006e-02,3.940440714359283447e-03,-1.141896191984415054e-02,-1.546543743461370468e-02,-2.816203422844409943e-02,-6.630797684192657471e-02,5.906955897808074951e-02,2.849956229329109192e-02,-2.920316904783248901e-02,-3.522024676203727722e-02,-1.191202551126480103e-02,-2.597798593342304230e-02,5.828083679080009460e-02,2.778524160385131836e-02,4.928911849856376648e-02
-2.100174129009246826e-02,2.220649085938930511e-02,1.031408738344907761e-02,2.530059404671192169e-02,-6.404371559619903564e-02,3.534042974933981895e-03,-2.131567150354385376e-02,-2.032298408448696136e-02,-4.541747644543647766e-02,6.779079139232635498e-02,-5.455891042947769165e-02,1.601929217576980591e-02,2.196782641112804413e-02,1.420956291258335114e-02,3.688774257898330688e-02,-4.153610393404960632e-02,-4.495789855718612671e-02,-9.922897443175315857e-03,-6.342761684209108353e-03,3.073332598432898521e-03,-1.330353878438472748e-02,-9.339027106761932373e-03,-3.611276042647659779e-04,-4.783521965146064758e-02,3.730759024620056152e-02,6.405748426914215088e-03,5.536012351512908936e-02,-1.793123409152030945e-02,-1.424363721162080765e-02,-1.400780025869607925e-02,-5.796015262603759766e-02,2.565561607480049133e-02,5.024086218327283859e-03,-4.896449856460094452e-03,5.722430068999528885e-03,-1.849499344825744629e-02,-4.632611945271492004e-02,8.184498175978660583e-03,5.401793168857693672e-04,4.810178279876708984e-02,4.179392755031585693e-02,1.418413128703832626e-02,2.270759269595146179e-02,2.297373861074447632e-02,-3.487478569149971008e-02,5.849796347320079803e-03,-3.948905214201658964e-04,-1.188434008508920670e-02,-2.168454788625240326e-02,4.324775934219360352e-02,-2.508905157446861267e-02,2.600640058517456055e-02,4.339980706572532654e-02,-2.971529029309749603e-02,1.051008608192205429e-02,2.807353809475898743e-02,-7.600691635161638260e-03,-2.924090810120105743e-02,1.042238529771566391e-02,2.026228606700897217e-02,-2.681436762213706970e-02,-4.074806813150644302e-03,-4.359541088342666626e-02,1.693031401373445988e-03,1.068800501525402069e-02,-1.830672495998442173e-03,-3.344098478555679321e-02,-1.094526983797550201e-02,-1.149508263915777206e-02,-5.445802584290504456e-03,1.313866302371025085e-02,-4.363815113902091980e-02,-2.172508649528026581e-02,-8.021484315395355225e-02,-1.194542460143566132e-02,-2.203955501317977905e-02,-5.617051944136619568e-02,-4.086286947131156921e-02,-5.133562907576560974e-02,4.392111673951148987e-02,-3.914276603609323502e-03,-7.004826515913009644e-02,-9.543091058731079102e-03,5.326860398054122925e-02,5.939137935638427734e-02,9.621136821806430817e-03,-4.006216302514076233e-03,-2.300538122653961182e-02,-5.793359503149986267e-02,-6.671069655567407608e-03,3.780290484428405762e-02,-3.121325746178627014e-02,-8.119098097085952759e-02,6.380386650562286377e-02,-1.437876373529434204e-02,-1.347387861460447311e-02,2.699104510247707367e-02,-5.785791203379631042e-02,-1.129083987325429916e-02,2.299021184444427490e-02,-2.872288785874843597e-02,2.281129546463489532e-02,4.637612774968147278e-02,-6.922204792499542236e-02,-2.964818105101585388e-02,-2.417325228452682495e-02,-2.093504881486296654e-03,-1.174012199044227600e-02,3.575037047266960144e-02,2.249542064964771271e-02,-7.665716111660003662e-02,4.760891944169998169e-02,5.958932451903820038e-03,-5.036590248346328735e-02,-3.207652643322944641e-02,7.732529193162918091e-02,-1.989800669252872467e-02,-2.315382100641727448e-02,3.327042609453201294e-02,3.475870564579963684e-02,3.708782419562339783e-02,-2.401206083595752716e-02,-6.000854074954986572e-03,4.583100974559783936e-02,-1.073516812175512314e-02,6.030339864082634449e-04,2.869436703622341156e-02,-3.181109204888343811e-02
3.130798414349555969e-02,-8.907163143157958984e-02,1.075242878869175911e-03,-4.320801421999931335e-02,-3.868296369910240173e-02,-6.810224056243896484e-02,-5.364450160413980484e-03,5.029888078570365906e-02,6.417327374219894409e-02,-5.877573788166046143e-02,9.312471374869346619e-03,-1.161272171884775162e-02,2.413289807736873627e-02,-2.182189933955669403e-02,4.355529788881540298e-03,3.630679566413164139e-03,-3.874594403896480799e-04,1.637533679604530334e-02,-1.422450318932533264e-02,1.621165499091148376e-02,-4.081086721271276474e-03,-1.425324380397796631e-02,-9.387739934027194977e-03,1.588588580489158630e-02,-1.689207926392555237e-02,-2.839275635778903961e-02,-1.296789385378360748e-02,-3.886258974671363831e-02,-2.545885927975177765e-02,2.914190664887428284e-02,3.629704564809799194e-02,3.771029040217399597e-02,6.368435919284820557e-02,3.018302284181118011e-02,-5.256152525544166565e-02,-1.086012180894613266e-02,1.865384913980960846e-02,-3.467013314366340637e-02,-5.133757740259170532e-02,1.766408979892730713e-02,3.132871538400650024e-02,-5.548864230513572693e-02,-1.667546806856989861e-03,1.181930024176836014e-02,-3.044845536351203918e-02,6.452144682407379150e-02,-4.613834619522094727e-02,1.917669363319873810e-02,1.843054033815860748e-02,3.393193706870079041e-02,-3.701686859130859375e-02,7.358321547508239746e-02,-1.805976964533329010e-02,-4.506492114160209894e-04,-4.006031900644302368e-02,-3.714096546173095703e-02,3.306519240140914917e-02,-3.237574175000190735e-02,-1.312930509448051453e-02,4.098466597497463226e-03,6.382704526185989380e-02,-1.654089055955410004e-02,-3.718585893511772156e-02,2.672250568866729736e-02,-1.856719143688678741e-02,-5.364625155925750732e-02,-5.901450756937265396e-03,-8.328679949045181274e-03,-4.278782755136489868e-02,-1.983793638646602631e-02,-4.231463000178337097e-02,3.872824087738990784e-02,3.623127192258834839e-02,3.469716385006904602e-02,4.569769662339240313e-04,-5.722598358988761902e-02,-2.515920624136924744e-02,1.465766690671443939e-02,-1.529195625334978104e-02,8.266979455947875977e-02,-4.060789197683334351e-02,3.195181488990783691e-02,2.686184272170066833e-02,-2.425084589049220085e-03,-3.265350684523582458e-02,1.172135816887021065e-03,4.580919444561004639e-02,-2.388450130820274353e-02,4.224462807178497314e-02,2.544974163174629211e-02,-3.599711135029792786e-02,-4.998026415705680847e-02,7.676474750041961670e-03,6.269142031669616699e-02,1.146742794662714005e-02,-2.083928557112812996e-03,1.222338248044252396e-02,-3.152597695589065552e-02,3.675719257444143295e-03,3.606401849538087845e-03,9.698004461824893951e-03,-6.462010741233825684e-02,6.324459612369537354e-02,-5.292319878935813904e-02,-1.954574696719646454e-02,-3.995251376181840897e-03,-2.410887181758880615e-02,1.317428983747959137e-02,-2.307453751564025879e-02,-6.039430387318134308e-03,-4.289340600371360779e-02,5.758184008300304413e-03,1.758670806884765625e-02,-5.945008620619773865e-02,-4.535120446234941483e-03,-2.008659765124320984e-02,3.195698931813240051e-02,3.277011215686798096e-02,-5.419854819774627686e-02,2.255978994071483612e-02,1.494727842509746552e-02,-2.557735890150070190e-02,-5.256996676325798035e-02,5.188504233956336975e-02,1.526695489883422852e-02,-1.169791165739297867e-02,3.096509911119937897e-02,1.617787405848503113e-02
-9.790179319679737091e-03,3.001156728714704514e-03,5.438722297549247742e-02,-3.328721225261688232e-02,-6.973726302385330200e-02,-3.868106054142117500e-03,-4.542021453380584717e-02,-3.352502128109335899e-03,-6.281032692641019821e-03,-2.580963261425495148e-02,2.579792169854044914e-03,4.158258065581321716e-02,-1.684601604938507080e-02,-8.418650180101394653e-02,-2.089530788362026215e-02,3.403254598379135132e-02,4.933435842394828796e-02,1.545485015958547592e-02,-3.295508399605751038e-02,2.921179495751857758e-02,-8.942689746618270874e-03,-3.317871689796447754e-02,-3.554595261812210083e-02,2.661837637424468994e-02,-7.446420192718505859e-02,-1.434455998241901398e-02,-4.932806640863418579e-02,-9.966123104095458984e-02,-6.056407466530799866e-02,-4.933881387114524841e-02,-2.447206899523735046e-02,-4.184779152274131775e-02,5.018889531493186951e-02,-4.397851228713989258e-02,-5.033367499709129333e-02,1.208772696554660797e-02,6.409487873315811157e-02,-3.070214018225669861e-02,-2.591646835207939148e-02,-5.496969074010848999e-02,2.861455827951431274e-02,-3.448692336678504944e-02,-2.934182062745094299e-02,2.483583241701126099e-02,3.936043754220008850e-02,-1.003629062324762344e-02,-2.773573063313961029e-02,7.458241190761327744e-03,-2.888037450611591339e-02,3.476810827851295471e-02,5.104898288846015930e-02,-2.604801021516323090e-02,-2.229824475944042206e-02,3.833100199699401855e-04,2.169139496982097626e-02,-1.123501956462860107e-01,-1.292532496154308319e-02,3.388120979070663452e-02,1.325001101940870285e-02,-1.429317705333232880e-02,-4.197343438863754272e-02,-5.597940459847450256e-02,-3.601971641182899475e-02,4.492506012320518494e-02,-9.164462797343730927e-03,1.174177136272192001e-02,-4.458383470773696899e-02,-7.221614569425582886e-02,4.075429588556289673e-02,-2.195436321198940277e-02,-8.268890529870986938e-02,4.719909653067588806e-02,-6.944853812456130981e-03,1.802385850169230253e-05,2.398038282990455627e-02,-3.212243318557739258e-02,-1.194860972464084625e-02,-3.118020854890346527e-02,-6.724286824464797974e-02,4.981364682316780090e-02,-2.232471480965614319e-02,2.384147606790065765e-02,6.539383530616760254e-02,-2.976766042411327362e-02,-5.397962778806686401e-02,3.699390217661857605e-02,1.897430047392845154e-02,3.829958289861679077e-02,-3.498525917530059814e-02,-5.668960511684417725e-02,-4.987736046314239502e-02,3.132462874054908752e-02,-3.571076691150665283e-02,3.389279544353485107e-02,-2.052422240376472473e-02,-5.711921676993370056e-02,-3.145457059144973755e-02,-5.784627050161361694e-02,1.446657069027423859e-02,1.496587973088026047e-02,5.967076122760772705e-02,-3.573112562298774719e-02,-5.447674542665481567e-02,-3.588794171810150146e-02,-3.446825593709945679e-02,-2.764905244112014771e-02,3.311962261795997620e-02,-1.055013947188854218e-02,-2.153035951778292656e-03,2.245241589844226837e-02,-5.385164916515350342e-02,-3.687514737248420715e-02,-2.869008667767047882e-02,3.998041152954101562e-02,1.188452821224927902e-03,7.618515286594629288e-03,3.593992814421653748e-02,-7.092896383255720139e-03,-1.731142401695251465e-02,8.903723210096359253e-03,-1.692920923233032227e-02,-3.581758961081504822e-02,-2.567318454384803772e-02,5.576296895742416382e-02,-1.218742923811078072e-03,2.587196603417396545e-02,-1.479952130466699600e-02,6.326432526111602783e-02
-6.408180296421051025e-02,-3.131961822509765625e-02,-6.111879646778106689e-02,-1.785344257950782776e-02,-2.242930606007575989e-02,2.466036193072795868e-02,-3.171429783105850220e-02,2.831090986728668213e-02,5.699209403246641159e-03,3.499813377857208252e-03,-1.953775621950626373e-02,-1.468591019511222839e-02,4.850359261035919189e-02,-2.273297123610973358e-02,2.181854285299777985e-02,1.139857154339551926e-02,-3.174293786287307739e-02,2.631873823702335358e-02,8.312570862472057343e-03,-1.060144230723381042e-02,4.275639355182647705e-02,-1.922155544161796570e-02,-6.905659288167953491e-02,-3.192616626620292664e-02,-1.966999657452106476e-02,-6.196784228086471558e-02,6.282046437263488770e-02,5.581302102655172348e-03,-9.389970451593399048e-03,-1.932669617235660553e-02,-7.916221022605895996e-02,4.365787655115127563e-02,-7.100619841367006302e-04,4.092173278331756592e-02,-6.772266328334808350e-02,2.822555229067802429e-02,5.340245738625526428e-02,-1.584542542695999146e-02,4.576792940497398376e-02,4.699923843145370483e-02,4.938694834709167480e-02,-1.255324576050043106e-03,1.694558933377265930e-02,-2.886665053665637970e-02,-2.179500088095664978e-02,2.242722548544406891e-02,3.457008302211761475e-02,6.619326770305633545e-02,1.196333440020680428e-03,4.204164445400238037e-02,9.057566523551940918e-03,4.163171350955963135e-02,-1.493516750633716583e-02,3.382644057273864746e-02,9.880459867417812347e-03,-4.505803808569908142e-02,3.784481203183531761e-03,-4.819608479738235474e-02,-1.325171533972024918e-02,2.991635818034410477e-03,5.494228005409240723e-02,6.424919236451387405e-03,-3.971867635846138000e-02,-4.201094806194305420e-02,2.444008924067020416e-02,-2.243086928501725197e-03,4.023521672934293747e-03,1.854244619607925415e-02,1.198010239750146866e-02,-3.271123394370079041e-02,2.851340919733047485e-03,3.439618740230798721e-03,3.607229143381118774e-02,-1.755082234740257263e-02,3.497188678011298180e-03,9.595684707164764404e-02,-2.616745047271251678e-02,-4.336144030094146729e-02,-3.864111006259918213e-02,-1.889164373278617859e-02,-1.734938658773899078e-02,1.599775440990924835e-02,-1.034693978726863861e-02,5.265861749649047852e-02,5.278281494975090027e-02,5.616889102384448051e-04,2.126746624708175659e-02,-2.695191069506108761e-04,-3.647829173132777214e-03,-1.657474040985107422e-02,-2.055431529879570007e-02,-2.976592257618904114e-02,-9.361170977354049683e-02,2.759608812630176544e-02,-1.349538937211036682e-02,-4.699822887778282166e-02,-7.007625699043273926e-02,-3.256306797266006470e-02,-1.228429283946752548e-02,1.580266689416021109e-04,6.298603117465972900e-02,-3.098757006227970123e-02,-3.489895537495613098e-02,4.189629573374986649e-03,-2.855882421135902405e-02,2.638709265738725662e-03,-3.732006624341011047e-02,-1.027944590896368027e-02,-3.881442919373512268e-02,-3.488280251622200012e-02,1.397699676454067230e-02,8.610658347606658936e-02,1.148364041000604630e-02,2.241846174001693726e-02,-7.511989772319793701e-02,4.529057443141937256e-02,-5.663383007049560547e-02,-9.336742805317044258e-04,-1.120766252279281616e-02,-4.044312238693237305e-02,6.072730943560600281e-02,3.286939114332199097e-02,-4.292117804288864136e-02,3.613371029496192932e-02,1.467380300164222717e-02,-1.478530280292034149e-02,-6.678510457277297974e-03,-9.265456348657608032e-03
-2.697472088038921356e-02,8.759465068578720093e-02,-4.755459353327751160e-02,-4.056886956095695496e-02,-5.149608850479125977e-02,4.781226813793182373e-02,-3.379303961992263794e-02,4.174126312136650085e-02,6.366015970706939697e-02,2.286289073526859283e-02,2.890890277922153473e-02,1.582988724112510681e-02,-4.759792611002922058e-02,-1.668629795312881470e-02,-2.791081555187702179e-02,3.240210190415382385e-02,2.162989974021911621e-02,3.905617445707321167e-02,-4.577586427330970764e-02,-1.055864337831735611e-02,-5.315443500876426697e-02,7.602654397487640381e-02,-2.460768260061740875e-02,-9.866150096058845520e-03,-3.389705717563629150e-02,-2.498864196240901947e-02,5.091229826211929321e-02,1.720419339835643768e-02,-5.295575782656669617e-02,-1.994619518518447876e-02,8.251182734966278076e-03,9.576504118740558624e-03,6.864794343709945679e-02,4.259099811315536499e-02,-4.505173116922378540e-02,1.580272987484931946e-02,4.031800851225852966e-02,4.260006546974182129e-02,3.688706830143928528e-02,4.896595329046249390e-02,1.782670430839061737e-02,8.872288279235363007e-03,-5.087311379611492157e-03,2.879493869841098785e-02,-1.332754455506801605e-02,-3.767271712422370911e-02,3.394166007637977600e-02,4.454779252409934998e-02,-1.084827911108732224e-02,8.135750144720077515e-02,-5.673946812748908997e-02,-1.259335502982139587e-02,-3.207269310951232910e-02,6.659371405839920044e-02,1.265557203441858292e-02,-8.184913545846939087e-03,-3.505964949727058411e-02,3.245677426457405090e-02,-4.496769607067108154e-02,-7.401671260595321655e-03,3.244262887164950371e-03,-2.530036726966500282e-03,5.537676066160202026e-02,4.698503762483596802e-03,4.526576399803161621e-02,2.629542956128716469e-03,3.425382077693939209e-02,1.698821783065795898e-02,3.605893626809120178e-02,-3.200162574648857117e-02,6.132225971668958664e-03,-3.400962334126234055e-03,-2.677572146058082581e-02,-5.468981713056564331e-02,-1.660760119557380676e-02,1.195594202727079391e-02,3.767827525734901428e-02,1.352836610749363899e-03,-2.307956852018833160e-02,3.295228630304336548e-02,5.644227191805839539e-02,3.385804966092109680e-02,1.186802634038031101e-03,2.624662593007087708e-02,1.626088097691535950e-02,2.699842303991317749e-02,4.484105110168457031e-02,-7.332663983106613159e-02,-1.089645083993673325e-02,-4.670848697423934937e-02,-2.928100526332855225e-02,1.552863232791423798e-02,-8.101118355989456177e-02,-3.648705780506134033e-02,-7.666125893592834473e-02,9.771475568413734436e-03,1.904836669564247131e-02,6.378823425620794296e-03,-1.015532296150922775e-02,1.676338352262973785e-02,3.002819232642650604e-02,-4.350342229008674622e-02,-1.711870543658733368e-02,-3.060538507997989655e-02,-4.271228611469268799e-02,-3.443725407123565674e-02,2.445472404360771179e-02,-3.280962631106376648e-02,5.595897324383258820e-03,-4.814516380429267883e-02,-1.957145705819129944e-02,8.663981407880783081e-02,-6.611916422843933105e-02,-2.439922839403152466e-02,-7.614143937826156616e-02,-1.856908574700355530e-02,-8.583968132734298706e-02,-1.886215619742870331e-02,6.084532663226127625e-02,-3.892634063959121704e-02,-2.139698155224323273e-02,-4.902592301368713379e-02,5.805742368102073669e-02,1.442608307115733624e-03,4.454314184840768576e-04,-1.493018027395009995e-02,4.538704827427864075e-02,3.612307459115982056e-02
-1.342135574668645859e-02,1.268200427293777466e-01,4.056392237544059753e-02,-1.673456281423568726e-02,2.293035201728343964e-02,4.712299257516860962e-02,-7.124366704374551773e-03,-5.234991200268268585e-03,-6.057139486074447632e-02,-1.922176592051982880e-02,-3.721139393746852875e-03,-2.201320976018905640e-02,-1.092106327414512634e-01,-5.209339037537574768e-02,3.263721987605094910e-02,4.556166753172874451e-02,1.118268352001905441e-02,7.788586616516113281e-02,-1.124070025980472565e-02,-2.803546749055385590e-02,2.077782154083251953e-02,1.300926227122545242e-02,-5.047465115785598755e-02,-2.458347752690315247e-02,-2.290411619469523430e-03,-4.375952854752540588e-02,2.131294272840023041e-02,-2.090642787516117096e-02,-3.578260540962219238e-02,-3.100497461855411530e-02,-1.249968167394399643e-02,-2.466475218534469604e-02,1.196456048637628555e-02,2.937730751000344753e-04,-2.630944177508354187e-02,1.554577704519033432e-02,6.981834024190902710e-02,-2.367283217608928680e-02,5.414532124996185303e-02,1.457853335887193680e-02,-6.618650257587432861e-02,4.151066765189170837e-02,-4.992303252220153809e-02,9.749798482516780496e-05,2.268099039793014526e-02,4.186412785202264786e-03,6.749526411294937134e-02,3.057090751826763153e-02,-2.861422859132289886e-02,2.960071526467800140e-02,-2.474886178970336914e-02,1.735587418079376221e-02,-3.336514160037040710e-02,3.344889357686042786e-02,-1.064162775874137878e-01,-3.374623879790306091e-02,-3.979025408625602722e-03,-2.277987636625766754e-02,4.237417876720428467e-02,-8.702549152076244354e-03,3.911688178777694702e-02,-2.684794180095195770e-02,2.412421628832817078e-02,-3.563841432332992554e-02,7.261066883802413940e-02,-2.471113577485084534e-02,1.308848988264799118e-02,-3.062811121344566345e-02,-3.123055025935173035e-02,2.157247997820377350e-02,-1.754679344594478607e-02,7.345642149448394775e-02,-9.197851759381592274e-04,-3.627295419573783875e-02,2.160355262458324432e-02,-5.267312377691268921e-02,4.582245834171772003e-03,-2.672314830124378204e-02,-5.262042209506034851e-02,1.381479320116341114e-03,1.847782405093312263e-03,6.563798338174819946e-02,-3.628275543451309204e-02,2.543983049690723419e-02,3.335782885551452637e-02,2.418719604611396790e-02,2.039798535406589508e-02,-1.637312583625316620e-02,1.362428348511457443e-02,-2.949055097997188568e-02,8.628249168395996094e-03,5.558278784155845642e-02,-1.657746545970439911e-02,2.821753919124603271e-02,-3.280552849173545837e-02,4.704184830188751221e-03,-7.524839136749505997e-03,4.717517178505659103e-03,4.671144112944602966e-02,-9.715613909065723419e-03,1.448771823197603226e-02,-6.231844052672386169e-02,-3.835407271981239319e-02,-1.878735609352588654e-02,2.977956272661685944e-02,4.387947916984558105e-02,-3.417715430259704590e-02,-3.057366423308849335e-02,2.966806292533874512e-02,-4.584164544939994812e-02,-5.093862116336822510e-02,1.306082215160131454e-02,-4.319300502538681030e-02,-3.672155737876892090e-02,6.913520395755767822e-02,2.028431370854377747e-02,-7.436956465244293213e-02,-8.823902346193790436e-03,6.517720222473144531e-02,-1.108998991549015045e-02,-1.428499445319175720e-02,-5.350255966186523438e-02,-3.851902671158313751e-03,-9.262869134545326233e-03,-2.919062040746212006e-02,-4.358978196978569031e-02,4.672043025493621826e-02,-3.625008091330528259e-02
-1.468468084931373596e-02,3.894221968948841095e-03,-1.004397217184305191e-02,-7.184457778930664062e-02,-6.110285222530364990e-02,-2.969841705635190010e-03,-6.223500706255435944e-03,2.537252008914947510e-02,1.521297078579664230e-02,5.907473713159561157e-02,9.197724610567092896e-02,-6.482505798339843750e-02,-3.213488310575485229e-02,1.894146390259265900e-02,4.374522343277931213e-02,-7.646986097097396851e-02,3.201451152563095093e-02,4.152771830558776855e-02,-3.214317187666893005e-02,1.258990727365016937e-02,-3.715312480926513672e-02,2.901498228311538696e-02,4.371690005064010620e-02,-2.734663896262645721e-02,-6.749704480171203613e-02,-5.695956200361251831e-02,1.293138321489095688e-02,6.190565973520278931e-02,4.727290570735931396e-02,-1.990987919270992279e-03,6.319856643676757812e-02,-4.214307293295860291e-02,-1.018259376287460327e-01,-8.174610882997512817e-02,-4.138487391173839569e-03,-3.781602159142494202e-02,-5.716239288449287415e-02,8.955000340938568115e-02,-1.512248720973730087e-02,-8.462961763143539429e-03,-2.734075859189033508e-02,-5.005357414484024048e-02,2.816663123667240143e-02,6.476774811744689941e-02,2.140314318239688873e-02,-8.437486737966537476e-02,-3.461172059178352356e-02,1.141947228461503983e-02,-6.016694754362106323e-02,3.266714885830879211e-02,7.950763404369354248e-02,1.240021921694278717e-02,-4.935590922832489014e-02,-8.905319496989250183e-03,-5.670883879065513611e-02,-1.297492533922195435e-01,-1.976591721177101135e-02,-4.504277557134628296e-02,-6.411750614643096924e-02,1.492729503661394119e-02,1.333709154278039932e-02,1.566135138273239136e-02,-8.552210032939910889e-02,-7.841861993074417114e-02,-3.868309780955314636e-02,1.027065441012382507e-01,1.190051808953285217e-02,-5.100271664559841156e-03,2.368354052305221558e-02,-2.637019008398056030e-02,1.037277728319168091e-01,-5.612482503056526184e-02,6.762584298849105835e-02,-9.292326867580413818e-03,2.554717846214771271e-02,-1.159765012562274933e-02,5.510288104414939880e-02,-5.470778793096542358e-02,-4.192787408828735352e-02,9.971529990434646606e-02,3.601728007197380066e-02,-5.062277615070343018e-02,-2.133279852569103241e-02,-1.048048213124275208e-02,-6.349048763513565063e-02,5.815997347235679626e-02,-1.914495229721069336e-02,5.150896497070789337e-03,3.776234760880470276e-02,-2.859787270426750183e-02,5.812215059995651245e-02,-2.938380651175975800e-02,-3.811800619587302208e-03,1.679532346315681934e-03,-3.150967881083488464e-02,-2.703253366053104401e-02,2.110949903726577759e-02,-1.923078484833240509e-02,4.308758676052093506e-02,5.347566306591033936e-02,1.660841889679431915e-02,4.070016741752624512e-02,2.015740238130092621e-02,3.365715965628623962e-02,-5.313400924205780029e-02,3.069753199815750122e-02,5.358117073774337769e-02,3.108585625886917114e-02,-7.700510788708925247e-03,-2.692810073494911194e-02,-6.731318309903144836e-03,8.718309924006462097e-03,-6.982557475566864014e-02,1.741908304393291473e-02,7.210768293589353561e-03,1.541346125304698944e-02,-2.615388669073581696e-02,7.334426790475845337e-02,5.501468479633331299e-02,-1.670098863542079926e-02,-6.377862393856048584e-02,1.082717627286911011e-02,-1.062588766217231750e-02,-1.293665636330842972e-02,-1.546507515013217926e-02,-4.494290798902511597e-02,-4.972333461046218872e-02,-4.839507862925529480e-02
5.730959400534629822e-02,8.180109784007072449e-03,-1.011030673980712891e-01,-4.013461992144584656e-02,7.422874122858047485e-02,9.055043570697307587e-03,-6.964740157127380371e-02,-1.904501020908355713e-02,1.911417953670024872e-02,-1.235542166978120804e-02,6.344291567802429199e-02,-8.517196401953697205e-03,4.092538729310035706e-02,1.190842092037200928e-01,-7.398926466703414917e-02,-9.642083942890167236e-02,4.222022369503974915e-02,-1.193119212985038757e-02,-5.422890558838844299e-02,4.770274832844734192e-02,-1.356015726923942566e-02,1.340029537677764893e-01,-1.194295659661293030e-02,1.055805757641792297e-02,9.832562878727912903e-03,7.750424090772867203e-03,8.154982328414916992e-02,-6.589072290807962418e-03,6.831028498709201813e-03,5.746743455529212952e-02,-1.542769465595483780e-02,-9.488835930824279785e-03,-3.996964916586875916e-02,-3.438562899827957153e-02,-2.633172832429409027e-02,-4.275727644562721252e-02,-2.125665172934532166e-02,-9.729790501296520233e-03,3.989074006676673889e-02,-4.689047578722238541e-03,-5.394690856337547302e-02,-1.990346005186438560e-03,2.134937793016433716e-02,1.219936739653348923e-02,-6.277689337730407715e-02,-1.329132635146379471e-02,-1.387706119567155838e-02,-1.626487076282501221e-02,2.304259873926639557e-02,2.659923583269119263e-02,-5.671041831374168396e-02,-8.514034748077392578e-02,2.242490649223327637e-02,4.197136685252189636e-02,-3.723550960421562195e-02,-5.492522567510604858e-02,-5.418790504336357117e-02,-7.712807506322860718e-02,1.379204355180263519e-02,-6.471750140190124512e-02,2.211259270552545786e-04,5.698533728718757629e-02,-4.880199208855628967e-02,2.639246173202991486e-02,3.744379058480262756e-02,-1.928859204053878784e-02,2.033006213605403900e-02,-7.205428183078765869e-02,5.099424347281455994e-02,-7.530051469802856445e-02,-2.698236517608165741e-02,-6.190821528434753418e-02,-2.075679786503314972e-02,-2.978027239441871643e-02,8.350742864422500134e-04,-3.931251168251037598e-02,4.578336700797080994e-02,-1.265708450227975845e-02,-1.043002679944038391e-02,1.382492110133171082e-02,3.174442425370216370e-02,-7.766158878803253174e-02,-2.393129654228687286e-02,-1.185601111501455307e-02,-9.511931985616683960e-02,-5.098570883274078369e-02,-6.497634202241897583e-02,-1.334902178496122360e-02,6.086943298578262329e-02,-7.781936973333358765e-02,-2.417604066431522369e-02,1.056974101811647415e-02,3.155355341732501984e-03,-4.458887130022048950e-02,-1.798548176884651184e-02,1.015564799308776855e-02,7.938586920499801636e-02,5.889091268181800842e-02,6.712916307151317596e-03,-6.251782923936843872e-02,-2.930738031864166260e-02,-7.308185566216707230e-03,-9.404464066028594971e-02,-8.742327243089675903e-02,-8.062846027314662933e-03,5.070897564291954041e-02,-4.733906313776969910e-02,1.798833906650543213e-02,-6.692281365394592285e-02,-5.238149315118789673e-02,-6.616389006376266479e-02,5.407122522592544556e-02,-2.073281910270452499e-03,-7.042530179023742676e-02,-5.027360096573829651e-02,2.172698080539703369e-02,6.678099161945283413e-04,-1.906044594943523407e-02,6.602657586336135864e-02,-7.595206052064895630e-02,-2.802581526339054108e-03,-2.849667891860008240e-02,-4.861404374241828918e-02,1.372474338859319687e-02,2.217353694140911102e-02,-5.171450600028038025e-02,3.501457860693335533e-03,2.091561071574687958e-02
1.176466699689626694e-02,-3.297346457839012146e-02,-4.656288027763366699e-02,2.149035222828388214e-02,-1.645844778977334499e-03,-8.519701077602803707e-04,4.249457642436027527e-02,4.104814678430557251e-02,4.588887095451354980e-02,-4.501298069953918457e-02,9.750951081514358521e-03,-6.636759638786315918e-02,3.280871361494064331e-02,5.146729946136474609e-02,-3.399231657385826111e-02,-7.328464649617671967e-03,1.057570986449718475e-02,-2.995325624942779541e-02,-3.315819799900054932e-02,-1.516597811132669449e-02,1.172240916639566422e-02,-1.387198083102703094e-02,-1.843483932316303253e-02,3.820779174566268921e-02,1.504366006702184677e-02,4.355107620358467102e-02,-3.349770233035087585e-02,-2.381281740963459015e-02,4.986750334501266479e-02,-6.731469184160232544e-02,-2.004854008555412292e-02,5.905124358832836151e-03,-7.885631173849105835e-02,1.007200032472610474e-02,-7.602012902498245239e-02,1.076837349683046341e-02,-2.854825183749198914e-02,-3.666319185867905617e-03,-7.037902716547250748e-03,3.094480372965335846e-02,-9.277939051389694214e-02,-1.543865911662578583e-02,4.290707036852836609e-02,-1.221765065565705299e-03,8.457902818918228149e-03,3.297425806522369385e-02,4.571532085537910461e-02,-5.576499924063682556e-02,-5.059408396482467651e-02,-5.753278359770774841e-02,-9.394795051775872707e-04,-2.905603498220443726e-02,1.087003201246261597e-01,-1.223574578762054443e-02,-3.046755865216255188e-02,4.009343683719635010e-02,1.924717612564563751e-02,-9.306737035512924194e-02,4.119903314858675003e-03,-6.999889388680458069e-03,-2.230422012507915497e-02,-7.623866200447082520e-02,-8.369356393814086914e-02,1.390560902655124664e-02,-4.758489876985549927e-02,-2.194813825190067291e-02,1.594955916516482830e-03,-3.098930418491363525e-02,7.593798637390136719e-02,3.217371646314859390e-03,-5.864221602678298950e-02,-7.746610790491104126e-02,-3.372751921415328979e-02,-2.101622521877288818e-02,-8.864097297191619873e-02,-5.383335426449775696e-02,6.702161580324172974e-02,6.525128614157438278e-03,3.963733091950416565e-02,9.154547005891799927e-02,2.231049351394176483e-02,1.928457617759704590e-02,8.721794933080673218e-02,6.782876700162887573e-02,-1.495922170579433441e-02,3.145385533571243286e-02,-1.044835802167654037e-02,3.525951132178306580e-02,-9.974175132811069489e-03,-1.083044931292533875e-01,-2.816195599734783173e-02,1.034408621490001678e-02,5.799733567982912064e-03,-8.648770302534103394e-02,-1.801416277885437012e-02,-1.802595891058444977e-02,5.761714279651641846e-02,3.834973275661468506e-02,-5.555516108870506287e-02,-6.853462662547826767e-03,9.040336124598979950e-03,-7.764495164155960083e-02,-1.589565724134445190e-02,8.196743577718734741e-02,-5.020401626825332642e-02,3.669507056474685669e-02,-2.505455352365970612e-02,4.698869585990905762e-02,-3.004176542162895203e-02,-6.055982410907745361e-02,-1.825966313481330872e-02,8.357617259025573730e-02,-1.479749102145433426e-02,-8.551175147294998169e-02,2.234336361289024353e-02,-6.511581689119338989e-02,-5.856452882289886475e-02,-3.249772125855088234e-03,-7.011827081441879272e-02,-3.873549168929457664e-03,8.639370091259479523e-03,3.900059312582015991e-02,2.156452275812625885e-02,-1.025793142616748810e-02,1.340562477707862854e-02,-1.024060472846031189e-01,2.957908622920513153e-02,2.595929056406021118e-02
2.047593519091606140e-02,-2.596442587673664093e-02,5.015482753515243530e-02,5.033318698406219482e-02,-3.965345770120620728e-02,1.036640163511037827e-02,-4.101087525486946106e-02,-6.250977516174316406e-02,3.050043806433677673e-02,2.557575702667236328e-02,1.634922437369823456e-02,-2.912390604615211487e-02,-1.842259988188743591e-02,-1.172730326652526855e-01,-3.607758134603500366e-02,-2.172420034185051918e-03,-4.528687859419733286e-04,-3.257455676794052124e-02,-4.337161779403686523e-02,-4.194037243723869324e-02,-2.297246642410755157e-02,-1.404822710901498795e-02,2.416757307946681976e-02,3.015078045427799225e-02,-3.136762976646423340e-02,1.152938790619373322e-02,2.478024549782276154e-02,-8.317893743515014648e-02,5.809255689382553101e-02,3.226479887962341309e-02,4.357893019914627075e-02,4.656218364834785461e-02,2.556885359808802605e-03,-1.078202854841947556e-02,3.139327466487884521e-02,4.990931134670972824e-03,-6.524852942675352097e-03,1.084303110837936401e-01,1.373765338212251663e-02,-9.803857654333114624e-03,-3.136849030852317810e-02,-2.084569074213504791e-02,5.023622140288352966e-02,2.367170382058247924e-04,-4.517360031604766846e-02,-7.384202629327774048e-02,-2.320147305727005005e-02,-5.219824612140655518e-02,1.640115492045879364e-02,2.726730145514011383e-02,3.108670702204108238e-03,-1.218256074935197830e-02,-6.763839628547430038e-03,-7.624866068363189697e-02,-3.166235610842704773e-02,-9.920091181993484497e-02,-8.497725427150726318e-02,-3.050706814974546432e-03,-2.807660028338432312e-02,4.578714072704315186e-02,-7.618359476327896118e-02,5.107941105961799622e-02,1.586929894983768463e-02,-6.662610452622175217e-03,-3.364127129316329956e-02,-4.305352270603179932e-02,4.066951572895050049e-02,-2.011180110275745392e-02,-2.573361434042453766e-02,-2.779143489897251129e-02,-4.689269512891769409e-02,2.642506733536720276e-02,-1.855504699051380157e-02,-4.701014235615730286e-02,-2.096624858677387238e-02,3.852161765098571777e-02,1.336724963039159775e-02,-7.010751962661743164e-02,4.396387189626693726e-02,-6.840841472148895264e-02,-3.851344808936119080e-02,2.999872528016567230e-02,-1.715769805014133453e-02,-1.028663013130426407e-02,-4.550950601696968079e-02,-2.930133044719696045e-02,-7.978046685457229614e-02,-1.654843613505363464e-02,-2.863521687686443329e-02,-5.285143852233886719e-02,-4.733971133828163147e-02,-8.509313315153121948e-02,6.670206319540739059e-03,-2.015903033316135406e-02,8.569458499550819397e-03,1.289621344767510891e-03,-9.097017347812652588e-02,-2.469683624804019928e-02,1.584503799676895142e-02,-2.937891520559787750e-02,-3.966234624385833740e-02,1.194715593010187149e-02,-2.660370804369449615e-02,2.385630272328853607e-02,-6.090731825679540634e-03,5.627762526273727417e-03,-2.015685103833675385e-02,9.233551472425460815e-02,1.253137737512588501e-02,-5.694725736975669861e-02,6.290471553802490234e-02,-2.937048114836215973e-02,-3.780116885900497437e-02,4.591875895857810974e-02,-6.282400339841842651e-02,1.911380141973495483e-02,-8.063262701034545898e-02,9.260433167219161987e-02,3.027275437489151955e-03,-3.897630423307418823e-02,-6.719192862510681152e-02,-1.020864490419626236e-02,4.461755044758319855e-03,-3.454646468162536621e-02,2.523157745599746704e-02,4.782541841268539429e-02,3.377373516559600830e-02,-1.346662174910306931e-02
6.585947424173355103e-02,1.652986742556095123e-02,4.381624981760978699e-03,-7.225628197193145752e-02,2.325959317386150360e-02,1.648697257041931152e-02,-2.761320210993289948e-02,-1.512164808809757233e-02,1.049101166427135468e-02,5.240850150585174561e-03,-1.984950527548789978e-02,-6.752265244722366333e-02,-7.704523950815200806e-02,8.092855568975210190e-04,-3.919103369116783142e-02,-1.643964671529829502e-03,9.032481163740158081e-02,5.769300088286399841e-02,-1.009002700448036194e-02,1.556244678795337677e-02,-3.652624040842056274e-02,2.394928596913814545e-02,5.144938081502914429e-02,-7.342935074120759964e-03,2.881568297743797302e-02,1.365014538168907166e-02,3.711749333888292313e-03,-7.439975440502166748e-02,-4.709108546376228333e-02,2.483206614851951599e-02,-4.803313408046960831e-03,9.749414026737213135e-02,-3.577796742320060730e-02,-2.828419394791126251e-02,-3.420423716306686401e-02,-4.008755460381507874e-02,1.886861585080623627e-02,-4.745116457343101501e-02,1.501937117427587509e-02,-1.115812454372644424e-03,-8.590336143970489502e-02,-4.193516448140144348e-02,-3.252715617418289185e-02,3.619420900940895081e-02,-7.207296043634414673e-02,-2.966775558888912201e-02,4.023213684558868408e-02,9.763571433722972870e-03,4.675388336181640625e-03,6.646424531936645508e-03,8.393907919526100159e-03,-2.091275528073310852e-02,-3.033907338976860046e-02,-5.999926105141639709e-02,5.785996466875076294e-02,-1.282102763652801514e-01,-6.249439343810081482e-02,2.940581925213336945e-02,2.975402399897575378e-02,3.867670893669128418e-02,2.398177050054073334e-02,5.418857187032699585e-02,2.377325296401977539e-02,8.416500687599182129e-02,8.098468184471130371e-03,-7.119002938270568848e-02,-2.866326645016670227e-02,-1.353088300675153732e-02,-4.901340231299400330e-02,-4.652838408946990967e-02,-2.866823785006999969e-02,1.662660390138626099e-02,-2.493261126801371574e-03,6.734488531947135925e-03,-2.277125231921672821e-02,-3.956985473632812500e-02,3.841214999556541443e-02,9.270549751818180084e-03,-7.013782858848571777e-02,-2.633466757833957672e-02,-6.835819035768508911e-02,1.596703380346298218e-02,3.635641420260071754e-03,2.527215285226702690e-03,1.389049272984266281e-02,-2.219328284263610840e-02,1.768227666616439819e-02,-4.903208464384078979e-02,-1.503157988190650940e-02,9.169713594019412994e-03,-5.143970251083374023e-02,-3.669147193431854248e-02,3.593631787225604057e-03,-4.289121925830841064e-02,5.796762183308601379e-02,-3.878973424434661865e-02,5.243138968944549561e-02,3.271561488509178162e-02,-6.321185082197189331e-02,-6.663741916418075562e-02,-2.642534673213958740e-02,-5.988417938351631165e-02,-3.802389651536941528e-02,-2.355435118079185486e-02,2.277944982051849365e-02,-6.424302700906991959e-03,-5.717545747756958008e-02,6.130552291870117188e-02,-4.283196851611137390e-02,-7.280532270669937134e-02,-4.706273227930068970e-02,-3.948498517274856567e-02,-1.345278788357973099e-02,3.629105910658836365e-02,-5.643469467759132385e-02,-9.241594932973384857e-03,1.940689235925674438e-02,3.612318541854619980e-03,-5.153970420360565186e-02,-5.819311738014221191e-02,-5.913626402616500854e-02,-3.766423463821411133e-02,5.905964970588684082e-02,-9.865040890872478485e-03,-4.344262555241584778e-02,-3.141051903367042542e-02,-2.264841459691524506e-02,-2.764352038502693176e-02
8.813405036926269531e-02,4.791488498449325562e-02,-1.878987182863056660e-03,-8.381464332342147827e-02,-4.443938657641410828e-02,-1.283340528607368469e-02,2.527171559631824493e-02,1.191619038581848145e-02,-1.471842825412750244e-02,-1.001017354428768158e-02,-1.567332446575164795e-02,-4.530866816639900208e-02,-5.957268178462982178e-02,-8.811080828309059143e-03,1.894283480942249298e-02,2.976553700864315033e-02,2.793662995100021362e-02,3.491963446140289307e-02,-6.247459724545478821e-02,-2.266662381589412689e-02,-4.359055310487747192e-02,1.094110123813152313e-02,8.662741631269454956e-02,-3.436822816729545593e-02,9.482968598604202271e-02,-4.245350509881973267e-02,-4.664145410060882568e-02,-8.356825448572635651e-03,2.856666222214698792e-02,-3.597569465637207031e-02,-1.900839246809482574e-02,-3.623516112565994263e-02,-2.916217595338821411e-02,-1.264584902673959732e-02,-9.121296554803848267e-02,4.842390120029449463e-02,-1.596417091786861420e-02,-5.773475393652915955e-02,-5.129643902182579041e-02,-1.608991809189319611e-02,-2.958315797150135040e-02,1.207688357681035995e-02,6.640026113018393517e-04,-4.985716938972473145e-02,1.608974672853946686e-02,-5.042196437716484070e-02,1.209448650479316711e-02,5.204545333981513977e-03,1.509267836809158325e-02,3.122480399906635284e-02,-5.353685095906257629e-02,-8.073147386312484741e-02,3.766281530261039734e-02,-6.661422550678253174e-02,-8.285886049270629883e-02,1.732287369668483734e-02,-3.387306258082389832e-02,-3.407742455601692200e-02,-2.161009982228279114e-02,3.090478107333183289e-02,8.797498419880867004e-03,2.886411175131797791e-02,-9.882680140435695648e-03,1.564812473952770233e-02,4.107835888862609863e-02,-9.999399073421955109e-03,-4.989568609744310379e-03,-8.775222301483154297e-02,7.625029236078262329e-02,-5.508057773113250732e-02,-6.568512320518493652e-02,-3.985404595732688904e-02,-3.262003883719444275e-02,2.373027801513671875e-02,2.266957238316535950e-02,-3.053715266287326813e-02,-3.520913422107696533e-02,-5.075318366289138794e-02,-1.199751067906618118e-02,4.310117661952972412e-02,-5.028865113854408264e-02,-2.195907197892665863e-02,2.822684869170188904e-02,-6.828283518552780151e-02,-3.565051034092903137e-02,1.010386645793914795e-01,-4.092074558138847351e-02,-3.417367860674858093e-02,-2.999555505812168121e-02,-8.460096269845962524e-02,-5.368181318044662476e-02,-6.557827442884445190e-02,-8.619125001132488251e-04,-6.086829677224159241e-02,2.927940711379051208e-02,-2.556438744068145752e-02,1.716843247413635254e-02,3.708150610327720642e-02,-6.272941827774047852e-02,1.368327625095844269e-02,-1.803156174719333649e-02,-1.324300374835729599e-02,-6.439135968685150146e-02,5.130867660045623779e-02,-1.710125803947448730e-02,3.223288804292678833e-03,-3.154353797435760498e-02,5.111664533615112305e-03,3.718149848282337189e-03,-4.531958606094121933e-03,2.937624603509902954e-02,-2.578483195975422859e-03,4.282688349485397339e-02,1.549259014427661896e-02,1.228358969092369080e-02,-1.331030204892158508e-02,-4.553495440632104874e-03,-3.699095174670219421e-02,-7.291464507579803467e-02,7.532268762588500977e-02,-1.135240588337182999e-02,-3.987358883023262024e-02,6.377108395099639893e-02,-6.887330673635005951e-03,-1.469498593360185623e-02,-3.014820441603660583e-02,3.995868191123008728e-02,1.890082657337188721e-02
-7.069615181535482407e-03,-5.092309415340423584e-02,-2.461218275129795074e-03,7.908404618501663208e-02,-5.286576971411705017e-02,-1.569681428372859955e-02,-7.008773833513259888e-02,-1.862202398478984833e-02,4.945373162627220154e-02,-1.818016357719898224e-02,1.526107173413038254e-02,-7.952132262289524078e-03,-7.117632310837507248e-03,-5.336270108819007874e-02,-8.312198519706726074e-02,-5.022403970360755920e-02,1.195664983242750168e-02,-6.292182952165603638e-02,-4.944114387035369873e-02,-4.184808209538459778e-02,-3.390138968825340271e-02,-3.846539556980133057e-02,-1.026543155312538147e-01,5.704214796423912048e-02,-8.994103223085403442e-02,1.487310230731964111e-02,-4.130797926336526871e-03,-8.114898204803466797e-02,3.315118327736854553e-02,-4.017777740955352783e-02,1.147193741053342819e-02,-6.099484860897064209e-02,8.186489343643188477e-02,-8.161142468452453613e-02,-6.171157211065292358e-02,-9.017560514621436596e-04,-5.376227200031280518e-03,3.813498839735984802e-02,-1.812455430626869202e-02,-4.382626339793205261e-02,5.686131771653890610e-03,1.380662713199853897e-02,3.601884003728628159e-03,-1.869252510368824005e-02,-3.549682348966598511e-02,-4.586534947156906128e-02,-5.107622593641281128e-02,-5.030594766139984131e-02,8.820922113955020905e-03,-2.077409438788890839e-02,-6.150072440505027771e-03,3.310773149132728577e-02,6.423726677894592285e-02,-3.727766498923301697e-02,6.900612264871597290e-02,-5.056714639067649841e-02,-5.024050921201705933e-02,1.421081833541393280e-02,-1.081770099699497223e-02,6.221220362931489944e-03,-7.335025072097778320e-02,3.121765563264489174e-03,-4.203047603368759155e-03,-5.487379804253578186e-02,2.541091479361057281e-02,2.264304552227258682e-03,-6.711971946060657501e-03,6.095509231090545654e-02,7.013136893510818481e-02,-6.648590415716171265e-02,-3.427628800272941589e-02,6.226890534162521362e-02,4.243059456348419189e-02,-1.399182435125112534e-02,3.960804641246795654e-02,-4.273057566024363041e-04,-6.986901164054870605e-02,-1.085104141384363174e-02,6.506670266389846802e-02,1.276354026049375534e-02,-7.291530817747116089e-02,4.097713902592658997e-02,1.219791639596223831e-02,-3.174242004752159119e-02,-2.576114237308502197e-02,-3.887647390365600586e-02,-5.320501048117876053e-03,-1.791132800281047821e-02,9.072857350111007690e-02,6.078745238482952118e-03,1.384847164154052734e-01,5.684103816747665405e-02,-2.063936181366443634e-02,-4.272467270493507385e-02,-1.127280853688716888e-02,2.536297775804996490e-02,-7.040110975503921509e-02,1.724916510283946991e-02,5.669895932078361511e-02,-3.179154545068740845e-02,1.025606226176023483e-02,-1.590937562286853790e-02,-3.191278874874114990e-02,-1.762282662093639374e-02,-4.877430945634841919e-02,1.339834555983543396e-02,-9.984124451875686646e-02,-6.046274304389953613e-02,-9.450987726449966431e-02,3.366858139634132385e-02,1.044137999415397644e-01,-9.998587891459465027e-03,-2.116421982645988464e-02,3.377119824290275574e-02,-1.053157672286033630e-01,-1.514431834220886230e-02,-5.939510837197303772e-02,3.009184077382087708e-02,6.010015681385993958e-02,-9.848430054262280464e-04,-1.867264695465564728e-02,-2.614846639335155487e-02,2.832319773733615875e-02,-4.277782142162322998e-02,-3.540623560547828674e-02,3.381876647472381592e-02,-2.387020550668239594e-02,-2.059777081012725830e-02
-8.736600726842880249e-02,7.715555280447006226e-02,1.114038378000259399e-02,-2.320548146963119507e-02,-4.200476780533790588e-02,6.257344037294387817e-02,-5.688467994332313538e-02,-3.882763162255287170e-02,-8.856731653213500977e-02,2.822962217032909393e-02,-2.028767718002200127e-03,-4.784073680639266968e-02,-1.065152734518051147e-01,-5.180694907903671265e-02,-9.433311788598075509e-05,-1.553024630993604660e-03,-7.018275558948516846e-02,-1.048068776726722717e-01,-2.704849094152450562e-02,-5.196207668632268906e-03,-3.596306964755058289e-02,-4.312469065189361572e-02,2.412494271993637085e-02,2.963719144463539124e-02,-4.287307709455490112e-02,-7.322996971197426319e-04,6.805966794490814209e-02,3.010451560840010643e-03,-1.086607947945594788e-01,-2.706152014434337616e-02,-7.510463893413543701e-02,4.570599645376205444e-02,-3.869087435305118561e-03,-2.524493634700775146e-02,-6.055341288447380066e-02,3.404436260461807251e-02,-3.774338401854038239e-03,-2.776043303310871124e-02,2.889744751155376434e-02,-4.852657020092010498e-02,-3.189940378069877625e-02,4.427801072597503662e-02,-7.349982857704162598e-02,-6.136060692369937897e-03,-4.150926694273948669e-02,2.619496919214725494e-02,-4.157613962888717651e-02,-1.284879911690950394e-02,-2.111358940601348877e-02,1.303026918321847916e-02,-4.112242534756660461e-02,-5.266080051660537720e-02,4.943764582276344299e-02,-1.849720440804958344e-02,-2.054207213222980499e-02,-3.396853059530258179e-02,-9.202230721712112427e-02,7.592698931694030762e-02,-5.286217480897903442e-02,-2.793027274310588837e-02,-5.145537108182907104e-02,-2.900175284594297409e-03,1.134617440402507782e-02,-1.566563546657562256e-02,2.326216176152229309e-02,-6.979311257600784302e-02,-1.146120391786098480e-02,-2.657728828489780426e-02,-1.941444538533687592e-02,-9.468141011893749237e-03,-4.113045055419206619e-03,6.262828409671783447e-02,9.034447371959686279e-02,-1.197333913296461105e-02,9.301574900746345520e-03,-5.725278705358505249e-02,-2.701924368739128113e-02,-5.086427927017211914e-02,-4.698767326772212982e-03,4.841328039765357971e-02,4.058953747153282166e-02,-4.509416874498128891e-03,-4.208815842866897583e-02,-3.385910764336585999e-02,-1.372628472745418549e-02,2.751755714416503906e-02,3.969807922840118408e-02,-4.998466372489929199e-02,2.858653478324413300e-02,2.821556478738784790e-02,-6.579016894102096558e-02,1.989917270839214325e-02,-5.590990558266639709e-02,-6.548365950584411621e-02,5.609251186251640320e-02,-8.613687939941883087e-03,1.815270632505416870e-02,1.494504045695066452e-02,-6.447946280241012573e-02,-5.130453407764434814e-02,1.201654877513647079e-02,-1.873402856290340424e-02,-3.207566961646080017e-02,-1.057601161301136017e-02,-2.576643787324428558e-02,1.103843376040458679e-02,-5.962457507848739624e-02,-2.031362429261207581e-02,-2.284080721437931061e-02,-6.060693785548210144e-02,-2.189345657825469971e-02,3.439514338970184326e-02,-3.402101993560791016e-02,4.714021459221839905e-02,-1.102991625666618347e-01,5.337860062718391418e-02,4.070588038302958012e-04,-3.537825122475624084e-02,-1.662798225879669189e-02,6.730359792709350586e-02,8.630874752998352051e-02,-7.758263498544692993e-02,1.292568724602460861e-02,2.886622771620750427e-02,-5.060766637325286865e-02,-3.351290151476860046e-02,-1.489299815148115158e-02,-8.336934261023998260e-03
-7.992309331893920898e-02,-8.465354144573211670e-02,-2.901978418231010437e-02,3.209467977285385132e-02,-1.997683942317962646e-02,1.790621876716613770e-02,-3.526811301708221436e-02,-7.833388634026050568e-03,8.805698715150356293e-03,-8.090060437098145485e-04,-4.051764309406280518e-02,2.042068168520927429e-02,-3.791951388120651245e-02,-9.279083460569381714e-03,6.117915734648704529e-02,-3.095988929271697998e-02,-4.183947294950485229e-02,-5.279834195971488953e-02,3.501641005277633667e-02,-4.859823361039161682e-02,-2.504384703934192657e-02,-5.195160210132598877e-02,-3.108545439317822456e-03,-3.214316070079803467e-02,4.988398402929306030e-03,-6.188634037971496582e-02,6.332405656576156616e-02,-4.222619533538818359e-02,-1.933827623724937439e-02,-4.175925999879837036e-02,-1.604743115603923798e-02,-5.808871611952781677e-02,4.333469271659851074e-02,3.619462251663208008e-02,3.066586330533027649e-02,4.313423857092857361e-02,-1.070304494351148605e-02,-7.606854289770126343e-02,-2.860938012599945068e-02,7.168859243392944336e-03,-8.881893754005432129e-02,5.721930414438247681e-02,-1.719665899872779846e-02,-1.503544300794601440e-02,4.950452968478202820e-02,-4.040495678782463074e-02,1.806327491067349911e-03,-2.594276703894138336e-02,-5.382176861166954041e-02,-4.313783720135688782e-02,-9.002460166811943054e-03,-3.379067033529281616e-02,9.552947431802749634e-02,-4.978717491030693054e-02,-5.966376885771751404e-02,-2.611099556088447571e-02,5.819196812808513641e-03,-8.556205779314041138e-03,-4.898070916533470154e-02,7.677870988845825195e-02,-3.026850894093513489e-02,9.298144141212105751e-04,2.732905000448226929e-02,-6.195389851927757263e-02,-2.287358045578002930e-02,-7.386226207017898560e-02,-5.515413731336593628e-02,-5.915047228336334229e-02,3.124436922371387482e-02,5.075586214661598206e-02,-2.803167141973972321e-02,-2.950155362486839294e-02,2.988131530582904816e-02,-7.225535809993743896e-02,1.191262621432542801e-03,-2.934709005057811737e-02,3.950106352567672729e-02,-6.075159087777137756e-02,-1.280351309105753899e-03,-5.984097346663475037e-02,-3.543237596750259399e-02,4.554469510912895203e-02,-4.545390140265226364e-03,-3.011302649974822998e-02,-7.186543941497802734e-02,4.958380013704299927e-02,2.745440416038036346e-02,-4.633105546236038208e-02,1.426698174327611923e-03,-1.571141928434371948e-02,-5.194074288010597229e-02,-7.774431258440017700e-02,1.956017315387725830e-02,-6.280273199081420898e-02,-8.852058090269565582e-03,3.965768218040466309e-02,-1.567535847425460815e-02,-1.332403998821973801e-02,2.142808400094509125e-02,-2.336750179529190063e-02,-2.692226320505142212e-02,-3.141618892550468445e-02,-4.660574719309806824e-02,-7.375402748584747314e-02,2.487228810787200928e-02,1.909347251057624817e-02,-5.582838878035545349e-02,8.267697691917419434e-02,-1.420401595532894135e-02,-1.176236569881439209e-01,-4.148324206471443176e-02,1.240565069019794464e-02,4.198161512613296509e-02,-4.379981011152267456e-02,-4.217604175209999084e-02,1.071858927607536316e-01,-2.251467481255531311e-02,5.735985189676284790e-02,-5.892883986234664917e-02,1.100419182330369949e-02,6.134220212697982788e-02,-7.386812567710876465e-02,-2.448759973049163818e-02,-2.722654305398464203e-02,1.283217966556549072e-02,2.761249057948589325e-02,-3.973152860999107361e-02,-8.816148340702056885e-02
2.281597629189491272e-02,-3.638739511370658875e-02,-4.574921354651451111e-02,-8.674351498484611511e-03,-1.443136949092149734e-02,-5.061745643615722656e-02,-1.606555469334125519e-02,-2.683752588927745819e-02,-3.872399404644966125e-02,2.490694820880889893e-02,-4.606192931532859802e-02,5.895140394568443298e-02,5.113390088081359863e-02,-9.900689125061035156e-03,1.158798672258853912e-02,1.010817568749189377e-02,1.166873844340443611e-03,8.507332764565944672e-03,1.405539270490407944e-02,-1.832485757768154144e-02,-3.020619973540306091e-03,5.723885446786880493e-02,-9.255210869014263153e-03,5.308825895190238953e-02,4.175910726189613342e-02,-1.718735136091709137e-02,-9.129938669502735138e-03,-5.974576342850923538e-03,2.225241065025329590e-02,-3.687701001763343811e-02,2.508781664073467255e-02,5.106990411877632141e-02,2.766583114862442017e-02,-1.356493565253913403e-03,2.230043901363387704e-05,-4.537679255008697510e-02,-3.479940933175384998e-04,1.494357269257307053e-02,-4.623524099588394165e-02,4.107369109988212585e-02,-6.309548020362854004e-02,3.032102435827255249e-02,-1.209704671055078506e-02,-3.956434503197669983e-02,2.395482361316680908e-02,1.834532245993614197e-02,-5.297178402543067932e-03,1.478486321866512299e-02,5.178656894713640213e-03,1.426737383008003235e-02,1.923409104347229004e-02,3.243742510676383972e-02,-3.149027004837989807e-02,2.272477559745311737e-02,2.127896994352340698e-02,-7.684852462261915207e-03,5.936678498983383179e-03,-5.869778245687484741e-02,1.603264175355434418e-02,-4.115423187613487244e-02,2.665629796683788300e-02,-2.873440086841583252e-02,1.278612297028303146e-02,5.306243430823087692e-03,-1.562208123505115509e-02,-4.928778484463691711e-02,5.000704154372215271e-02,-2.549440041184425354e-02,-2.042590081691741943e-02,-1.108556287363171577e-03,1.082997024059295654e-02,-2.154381759464740753e-02,1.882923766970634460e-02,3.167222440242767334e-02,5.218635778874158859e-04,7.110125571489334106e-02,-7.093662861734628677e-03,-2.268509753048419952e-02,1.948072202503681183e-02,-3.148095915094017982e-03,2.877899073064327240e-02,8.670357987284660339e-03,3.991689905524253845e-02,-9.946502745151519775e-03,3.596807643771171570e-02,6.095694378018379211e-02,6.200517993420362473e-03,-7.789143826812505722e-03,-4.125658050179481506e-02,3.518971428275108337e-02,-4.026150330901145935e-02,-1.569252833724021912e-02,-3.736448660492897034e-02,2.738861180841922760e-02,3.278432041406631470e-02,1.048094779253005981e-02,1.018919982016086578e-02,-5.437817052006721497e-02,4.143351316452026367e-02,-1.677726767957210541e-02,-3.229033574461936951e-02,-2.593277022242546082e-02,-1.127199269831180573e-02,-3.885284066200256348e-02,-4.787048324942588806e-02,-4.410895705223083496e-02,1.380285061895847321e-02,5.212522670626640320e-02,1.293943729251623154e-02,6.391396373510360718e-02,4.104858264327049255e-02,-2.584339678287506104e-02,2.869406715035438538e-02,9.962510084733366966e-04,-2.879901975393295288e-02,-4.269960150122642517e-02,-2.339147217571735382e-02,-3.927917405962944031e-02,4.435806535184383392e-03,-6.172277405858039856e-02,7.718660403043031693e-03,-2.951577119529247284e-02,2.617446519434452057e-02,-3.917688969522714615e-03,1.147886179387569427e-02,5.210839677602052689e-03,-3.334625437855720520e-02,3.385047242045402527e-02
-4.540485143661499023e-02,7.669077254831790924e-03,-3.437338024377822876e-02,-2.430156059563159943e-02,-8.794962428510189056e-03,-1.561042014509439468e-02,-2.131966874003410339e-02,1.353928935714066029e-03,-5.650519952178001404e-02,-3.449273109436035156e-02,-1.184471882879734039e-03,2.567416056990623474e-02,-4.102635011076927185e-02,-1.768806390464305878e-02,-3.841726854443550110e-02,1.671605743467807770e-02,-2.893624454736709595e-02,4.951742291450500488e-02,-9.392195381224155426e-03,1.456879731267690659e-02,-4.468395560979843140e-02,-3.649166226387023926e-02,4.035950079560279846e-02,1.053645461797714233e-02,-1.724952086806297302e-02,-1.729893311858177185e-02,-5.030602216720581055e-02,-5.589555366896092892e-04,6.662216619588434696e-04,-2.763913944363594055e-02,3.060072660446166992e-02,3.459315747022628784e-02,7.412446662783622742e-03,2.709860727190971375e-02,-3.110398910939693451e-02,-3.412542119622230530e-02,1.621951721608638763e-02,2.695167623460292816e-02,2.130832336843013763e-02,-2.576082572340965271e-02,-8.202355820685625076e-04,1.764624379575252533e-02,-3.662504255771636963e-02,2.788991667330265045e-02,-4.687800258398056030e-02,-9.522626176476478577e-03,3.263337537646293640e-02,4.032615199685096741e-02,2.246021665632724762e-02,3.192053735256195068e-02,-4.028674215078353882e-02,3.925058990716934204e-02,2.353361109271645546e-03,2.792446501553058624e-02,4.560615494847297668e-02,4.722241312265396118e-03,1.620763330720365047e-03,4.928645212203264236e-04,5.129227414727210999e-02,-3.987392410635948181e-02,-3.040298819541931152e-02,1.251655910164117813e-02,-1.980858296155929565e-02,-3.625619411468505859e-02,-3.832723945379257202e-02,4.547989740967750549e-02,-4.490419290959835052e-03,-2.589471079409122467e-02,1.619915850460529327e-02,-3.669364005327224731e-02,-5.975071713328361511e-02,5.097772181034088135e-02,1.387407351285219193e-02,-4.458578675985336304e-02,4.206652194261550903e-02,3.621986880898475647e-02,-3.409539908170700073e-02,-1.782131753861904144e-02,-3.785827010869979858e-02,-2.296536788344383240e-02,-1.431721728295087814e-02,1.958068087697029114e-02,-3.904999420046806335e-02,3.159336745738983154e-02,-1.522973645478487015e-02,2.495498396456241608e-03,3.372224792838096619e-02,-1.926578767597675323e-02,3.197508305311203003e-02,2.068734541535377502e-02,5.550471320748329163e-02,-4.926926642656326294e-02,-5.299216136336326599e-02,-2.569694258272647858e-02,-4.068059381097555161e-03,-2.204804494976997375e-02,-1.013066712766885757e-02,1.757059991359710693e-02,9.092422202229499817e-03,-3.576996969059109688e-03,-1.776533946394920349e-02,6.543034315109252930e-02,-3.510675951838493347e-02,-2.033777162432670593e-02,3.379176557064056396e-02,1.492007169872522354e-02,4.538975656032562256e-03,2.793546393513679504e-02,-2.373934164643287659e-02,5.851877853274345398e-02,-1.074113417416810989e-02,-8.565305732190608978e-03,-2.270527370274066925e-02,4.527304694056510925e-02,-3.349340287968516350e-03,3.748453781008720398e-02,-8.527846075594425201e-03,-8.887201547622680664e-03,1.699897460639476776e-02,1.672034151852130890e-02,-7.136462256312370300e-03,2.844684757292270660e-02,-4.099475219845771790e-02,-4.226372018456459045e-02,-4.341250285506248474e-02,-2.646662481129169464e-02,-1.506176311522722244e-02,-1.756229065358638763e-02
-2.425300329923629761e-02,1.602446660399436951e-02,-4.804306849837303162e-02,1.826522313058376312e-02,2.161595784127712250e-02,3.301141411066055298e-02,1.127908285707235336e-02,2.696067094802856445e-02,-4.872148390859365463e-03,-9.693931788206100464e-03,-1.264221407473087311e-02,2.154791541397571564e-02,7.015031762421131134e-03,-2.919805049896240234e-02,4.694214463233947754e-02,-1.133851893246173859e-02,-2.152972482144832611e-02,-7.908902131021022797e-03,-1.786907576024532318e-02,-4.637307301163673401e-02,8.913644589483737946e-03,1.694346964359283447e-02,-2.416938170790672302e-02,-2.996078133583068848e-02,1.610999112017452717e-03,-4.883648827672004700e-02,2.422401122748851776e-02,-1.045763865113258362e-02,-5.099665001034736633e-02,-6.314437091350555420e-02,-5.633490532636642456e-02,-2.607193402945995331e-02,3.101418027654290199e-03,5.063524469733238220e-03,2.626817114651203156e-02,-1.899830065667629242e-02,1.857703179121017456e-02,-4.636796563863754272e-02,3.092121891677379608e-02,3.907733410596847534e-02,3.697746619582176208e-02,-1.839473098516464233e-02,2.353054657578468323e-02,-3.340435028076171875e-02,2.002175897359848022e-02,-1.634063012897968292e-02,3.011572360992431641e-02,5.846066866070032120e-03,-1.328391302376985550e-02,-6.259747594594955444e-02,-3.562326356768608093e-02,4.311320558190345764e-02,3.812782838940620422e-02,4.350627958774566650e-02,-1.855633221566677094e-02,-4.212925583124160767e-02,-3.067534416913986206e-02,7.636687904596328735e-02,4.529144987463951111e-02,-1.550769899040460587e-02,1.927899895235896111e-03,-4.858576878905296326e-02,8.128789253532886505e-03,3.268869593739509583e-02,-3.568445146083831787e-02,-2.008744282647967339e-03,-4.019308835268020630e-02,5.711187794804573059e-02,-2.493893727660179138e-03,-3.824238106608390808e-02,-7.885699160397052765e-03,-4.941387102007865906e-02,-1.602046564221382141e-02,-2.610358595848083496e-02,4.485933482646942139e-02,4.918091744184494019e-02,-2.755155786871910095e-03,-2.107876539230346680e-02,1.341276615858078003e-02,-1.261017937213182449e-02,-3.762132301926612854e-02,6.093056872487068176e-03,-2.259055385366082191e-03,2.835073880851268768e-02,3.742469847202301025e-02,-1.859175413846969604e-02,2.683856338262557983e-02,-4.488483816385269165e-02,2.819655230268836021e-03,3.995943069458007812e-02,-1.392402686178684235e-02,2.932380884885787964e-02,-1.584202423691749573e-02,5.671246442943811417e-03,-8.329355157911777496e-03,8.145629428327083588e-03,-9.550541639328002930e-03,2.433040924370288849e-02,-5.052132532000541687e-03,2.215407416224479675e-02,3.883841913193464279e-03,2.422489458695054054e-03,3.068574145436286926e-02,-2.150780521333217621e-02,3.517505945637822151e-03,-2.373880520462989807e-02,-2.108947373926639557e-02,1.846339181065559387e-02,-6.615769583731889725e-03,2.310566790401935577e-02,-2.215160243213176727e-02,-3.746528550982475281e-02,-1.580245420336723328e-02,7.855527102947235107e-03,-5.746475234627723694e-02,-4.637311398983001709e-02,2.344609238207340240e-03,-1.013643294572830200e-02,2.791680209338665009e-02,3.960879403166472912e-04,-4.396138712763786316e-02,1.905191317200660706e-02,-3.730045258998870850e-02,2.926362119615077972e-02,1.411039731465280056e-03,-4.062310326844453812e-03,-4.327187314629554749e-02,1.060566492378711700e-02
-1.762638799846172333e-02,-5.441976711153984070e-02,2.200296334922313690e-02,-2.354095131158828735e-02,1.372115500271320343e-02,-6.294017657637596130e-05,2.069069445133209229e-02,5.578862968832254410e-03,5.841646715998649597e-02,5.720560625195503235e-02,-4.262170195579528809e-02,-4.589341988321393728e-04,-6.780945230275392532e-03,-3.365766257047653198e-02,2.228507027029991150e-02,-6.772330962121486664e-03,1.534692291170358658e-02,1.228657551109790802e-03,-3.508211672306060791e-02,5.127739533782005310e-02,6.271705497056245804e-03,1.226618234068155289e-02,-3.947609104216098785e-03,2.020495012402534485e-02,-6.772988475859165192e-03,3.825063630938529968e-02,4.486623220145702362e-03,-4.100378602743148804e-02,-1.695250533521175385e-02,-5.190272629261016846e-02,-1.984937302768230438e-02,2.567123807966709137e-02,-3.284395486116409302e-02,3.595915809273719788e-02,-1.002387702465057373e-02,-2.107690274715423584e-02,-5.022380966693162918e-03,1.343063823878765106e-02,-5.213384702801704407e-02,-4.828956723213195801e-02,-6.977613270282745361e-02,-4.939585179090499878e-02,-6.015133578330278397e-03,3.200029954314231873e-02,-8.149116300046443939e-03,-2.930874703451991081e-03,6.814077496528625488e-03,1.971892826259136200e-02,-8.408156223595142365e-03,-1.010379008948802948e-02,8.727297186851501465e-03,4.164119437336921692e-02,-3.610711172223091125e-02,2.741838991641998291e-02,-1.849541068077087402e-02,1.109484024345874786e-02,-2.385910786688327789e-02,-1.941942237317562103e-02,4.070244729518890381e-03,-3.941114246845245361e-02,-2.420538291335105896e-02,1.927190460264682770e-02,7.868003100156784058e-02,5.410822108387947083e-02,-1.442925445735454559e-02,-2.832443825900554657e-02,3.901343047618865967e-02,-5.043224617838859558e-02,-5.724780261516571045e-02,-1.498542260378599167e-02,4.149380326271057129e-02,-9.339987300336360931e-03,2.159841172397136688e-02,8.197207935154438019e-03,3.868615254759788513e-03,4.944727942347526550e-02,-8.382890373468399048e-02,3.208376839756965637e-02,-3.164126724004745483e-02,5.093866027891635895e-03,2.077627368271350861e-02,-1.957979239523410797e-02,-1.831682282499969006e-03,9.047357365489006042e-03,2.951050642877817154e-03,8.914798498153686523e-02,-2.402235521003603935e-03,-1.527133118361234665e-02,-1.420794986188411713e-02,2.452206425368785858e-02,3.167832270264625549e-02,1.151133980602025986e-02,4.804592207074165344e-02,3.586772084236145020e-02,-5.475708749145269394e-03,4.653145000338554382e-02,2.036780491471290588e-02,-2.909649163484573364e-02,1.276465039700269699e-02,-2.301540225744247437e-02,1.845410838723182678e-02,2.554189786314964294e-02,-2.312818542122840881e-02,-4.193403199315071106e-02,2.375304326415061951e-02,-6.813886016607284546e-02,5.368587002158164978e-02,4.250883683562278748e-02,-1.290272083133459091e-02,-3.494401229545474052e-03,2.083550393581390381e-02,3.424045071005821228e-02,-2.461930364370346069e-02,7.219623308628797531e-03,-5.605424568057060242e-02,-3.368373960256576538e-02,-1.565813831984996796e-02,4.426141828298568726e-02,-5.846837162971496582e-02,3.413770347833633423e-02,-9.919174481183290482e-04,4.235548153519630432e-02,-9.959168732166290283e-03,-2.814350882545113564e-03,-3.391950204968452454e-02,-7.116694934666156769e-03,-3.019536845386028290e-02,1.195235829800367355e-02
-4.705187305808067322e-02,-4.554244503378868103e-02,-3.552820160984992981e-02,1.355242822319269180e-02,-1.712243631482124329e-02,1.533627323806285858e-02,-3.324337012600153685e-04,-2.647499367594718933e-02,1.079403236508369446e-02,-1.080656144767999649e-02,-2.394780144095420837e-02,3.867714479565620422e-02,-3.923734277486801147e-02,2.249811217188835144e-02,-2.532907761633396149e-02,2.023801393806934357e-02,-5.961065366864204407e-02,4.463113844394683838e-02,2.958802320063114166e-02,1.196889206767082214e-02,1.428019441664218903e-02,2.304561249911785126e-02,1.199008617550134659e-02,2.160545624792575836e-02,3.734611719846725464e-02,2.751524932682514191e-02,-1.707367412745952606e-02,1.946557871997356415e-02,-1.362561248242855072e-02,-3.674931079149246216e-02,-3.232874348759651184e-02,2.335838787257671356e-02,-2.377497032284736633e-02,1.804004795849323273e-02,3.442540997639298439e-03,-4.736914858222007751e-02,-7.954992353916168213e-03,1.271282695233821869e-02,3.530359268188476562e-02,3.718354180455207825e-02,-1.407143473625183105e-02,-3.676795586943626404e-02,7.073874026536941528e-02,3.170645982027053833e-02,2.863929048180580139e-02,3.095571510493755341e-02,-2.605357952415943146e-02,2.209571376442909241e-02,-3.994163870811462402e-02,-6.644779443740844727e-02,-4.292855039238929749e-02,3.830418735742568970e-02,2.955816686153411865e-02,3.324945271015167236e-02,-4.190330207347869873e-02,4.278475418686866760e-02,-4.585336148738861084e-02,6.837634835392236710e-03,2.750789374113082886e-02,-1.317241881042718887e-02,3.604869544506072998e-02,-7.197006791830062866e-02,9.672051295638084412e-03,5.758338049054145813e-02,3.259327728301286697e-03,-2.850397676229476929e-02,-3.730101138353347778e-02,-1.451081689447164536e-02,8.842822164297103882e-03,3.114638105034828186e-02,-9.463139809668064117e-03,4.080794379115104675e-02,2.469640970230102539e-02,-2.667685039341449738e-03,-2.864680625498294830e-02,-3.223398327827453613e-02,-9.657356888055801392e-03,3.545137867331504822e-02,5.780829116702079773e-02,6.871426850557327271e-02,2.184742502868175507e-02,-4.733478277921676636e-02,5.842710658907890320e-02,-7.067500054836273193e-02,2.285724878311157227e-02,-3.797715902328491211e-02,2.350137755274772644e-02,-3.909092769026756287e-02,-6.701773963868618011e-03,6.720100343227386475e-02,-5.721836350858211517e-03,-3.361519426107406616e-02,-1.549146883189678192e-02,4.862580075860023499e-02,2.610339038074016571e-02,-9.840309619903564453e-03,2.738488093018531799e-02,-1.257272623479366302e-02,3.949431329965591431e-02,2.321895956993103027e-02,-1.538660842925310135e-02,5.705282464623451233e-02,2.908388711512088776e-02,4.032533615827560425e-02,2.013999223709106445e-02,-3.695949167013168335e-02,4.557954147458076477e-02,3.936785273253917694e-03,3.874496370553970337e-02,2.003265544772148132e-02,5.134723335504531860e-02,-7.400589436292648315e-02,1.521589141339063644e-02,5.399430543184280396e-02,5.704539828002452850e-03,4.786245897412300110e-02,2.571406587958335876e-02,-2.496129088103771210e-02,3.747682273387908936e-02,1.268503628671169281e-02,1.884876750409603119e-03,5.926493089646100998e-03,4.013973847031593323e-02,-3.337503969669342041e-02,2.020262368023395538e-02,3.863640129566192627e-02,3.240417689085006714e-02,-2.991177514195442200e-02
7.224365323781967163e-02,-3.977310284972190857e-02,-6.224995013326406479e-03,3.630017116665840149e-02,-3.507724776864051819e-02,-3.199311206117272377e-03,3.276985511183738708e-02,3.465755283832550049e-02,1.486961636692285538e-02,-5.576970800757408142e-02,-4.294046387076377869e-02,-6.328802090138196945e-03,1.215547206811606884e-03,1.294951606541872025e-02,-2.303002960979938507e-02,-1.294063549721613526e-04,1.916455477476119995e-02,-3.799898922443389893e-02,5.537672434002161026e-03,-2.702962420880794525e-02,-4.284925386309623718e-02,-2.630514092743396759e-02,-7.038099318742752075e-02,5.072595551609992981e-02,1.682810951024293900e-03,-2.754727564752101898e-02,2.873361855745315552e-02,1.495494134724140167e-02,2.371884137392044067e-02,-4.635796695947647095e-02,3.041004203259944916e-02,5.986772477626800537e-03,2.390672266483306885e-02,2.694711647927761078e-02,-1.255317497998476028e-02,-3.803445398807525635e-02,-2.120859175920486450e-02,1.229910831898450851e-02,5.016383156180381775e-02,3.119847364723682404e-02,1.185797993093729019e-02,-4.743193567264825106e-04,2.141408622264862061e-02,1.827370002865791321e-02,-2.412169240415096283e-02,-6.584938615560531616e-02,1.082938909530639648e-02,1.521425228565931320e-02,-2.376644872128963470e-02,-5.549645423889160156e-02,-3.840166330337524414e-02,-5.003182217478752136e-03,-3.431959450244903564e-02,-5.146826431155204773e-02,4.395560175180435181e-02,2.390777319669723511e-02,-1.962819322943687439e-02,-1.175149809569120407e-02,2.439909614622592926e-02,-7.246406748890876770e-03,8.472775109112262726e-03,-6.326523423194885254e-02,-4.046646133065223694e-02,3.513933718204498291e-02,-4.287386313080787659e-02,4.445229656994342804e-03,9.682570584118366241e-03,-3.553839400410652161e-02,3.402404114603996277e-02,-3.414063714444637299e-03,4.869342222809791565e-02,1.387279294431209564e-02,-3.391822427511215210e-02,-4.203848168253898621e-02,2.077002637088298798e-02,-8.676765486598014832e-03,3.223728016018867493e-02,2.312788181006908417e-02,5.065324157476425171e-02,2.115190494805574417e-03,-3.370511531829833984e-02,4.571575298905372620e-02,1.811393722891807556e-02,1.282884459942579269e-02,-5.273144692182540894e-02,4.371616616845130920e-02,1.623857970116659999e-04,3.314219880849123001e-03,1.317817904055118561e-02,7.556433323770761490e-03,3.701429441571235657e-02,5.189535021781921387e-02,2.996762283146381378e-02,-3.842251142486929893e-03,-4.838357865810394287e-02,8.307040482759475708e-02,1.862693950533866882e-02,-1.136285252869129181e-02,-2.600933611392974854e-02,-1.836103573441505432e-02,-5.572698637843132019e-02,1.286425348371267319e-02,-1.473071239888668060e-02,-2.912950143218040466e-02,3.008684329688549042e-02,2.669699862599372864e-02,3.240286931395530701e-02,2.835142891854047775e-03,6.295846309512853622e-03,1.377978827804327011e-03,-4.794251918792724609e-02,-5.045626312494277954e-02,3.800760209560394287e-02,4.497996997088193893e-03,1.406357064843177795e-02,2.596788480877876282e-02,2.868818305432796478e-02,-1.838985830545425415e-02,-3.365957364439964294e-02,-1.988821290433406830e-02,-5.949653685092926025e-02,-2.735516987740993500e-02,1.295711286365985870e-02,-2.131807245314121246e-02,1.861837878823280334e-02,3.973647579550743103e-02,-6.535596400499343872e-02,1.219452172517776489e-02
-7.263462059199810028e-03,-7.314119488000869751e-02,-6.156604364514350891e-02,1.362353842705488205e-02,6.758799776434898376e-03,9.284529834985733032e-03,2.742873132228851318e-02,-1.604615710675716400e-02,8.658315055072307587e-04,-2.062408067286014557e-02,-3.322745114564895630e-02,-2.445070073008537292e-02,-7.619319483637809753e-03,8.331809192895889282e-03,-4.183355346322059631e-02,6.335017085075378418e-02,-1.213107374496757984e-03,4.488953575491905212e-02,1.214287802577018738e-02,3.381298482418060303e-02,1.490051578730344772e-02,-5.634283646941184998e-02,8.988973684608936310e-03,-5.375259369611740112e-02,-4.826569929718971252e-02,5.926654115319252014e-02,-3.759872540831565857e-02,-2.197520807385444641e-02,1.469039916992187500e-02,-1.050090137869119644e-02,4.056506231427192688e-02,-7.933558523654937744e-02,-4.458142211660742760e-05,-5.596594139933586121e-02,4.233114793896675110e-02,4.570316523313522339e-02,2.066971734166145325e-02,4.772735387086868286e-02,4.151514917612075806e-02,-1.026772335171699524e-02,2.089644083753228188e-03,4.785785451531410217e-02,-8.312845602631568909e-03,1.528183347545564175e-03,-2.532393485307693481e-02,-3.313429281115531921e-02,-7.174883969128131866e-03,6.278605014085769653e-02,-1.040159631520509720e-02,-1.030744798481464386e-02,-2.650919370353221893e-02,7.836627215147018433e-02,-2.174358349293470383e-03,2.376883290708065033e-03,-4.055623710155487061e-02,2.309517189860343933e-02,-6.660139560699462891e-02,-3.627590090036392212e-02,-5.622809752821922302e-02,-5.557524040341377258e-03,3.704934939742088318e-02,-3.349720686674118042e-02,6.220871955156326294e-02,1.476739905774593353e-02,-1.991446316242218018e-02,-4.520639032125473022e-02,-6.101735867559909821e-03,1.922981813549995422e-02,2.269312366843223572e-02,-1.322734542191028595e-02,-1.637904718518257141e-02,6.331938202492892742e-04,1.148788072168827057e-02,-1.242089644074440002e-02,-3.345663473010063171e-02,-1.107710413634777069e-02,-6.898739933967590332e-02,-2.209414914250373840e-02,-2.185313962399959564e-02,5.343011394143104553e-02,2.663248218595981598e-03,-3.843091055750846863e-02,-2.882539480924606323e-02,2.707656845450401306e-02,1.423341594636440277e-02,7.227424532175064087e-02,3.663739189505577087e-02,3.279075771570205688e-02,-2.130161039531230927e-02,1.578722521662712097e-02,-1.359912473708391190e-02,2.263256534934043884e-02,-2.491031587123870850e-02,5.168646946549415588e-02,-1.148187904618680477e-03,2.484927140176296234e-02,5.538573488593101501e-03,3.776094317436218262e-02,-2.169140800833702087e-02,1.775552704930305481e-02,-2.387480065226554871e-02,-3.427487239241600037e-02,8.961122512118890882e-05,2.397207729518413544e-02,3.207402303814888000e-02,-2.413389086723327637e-02,-2.143498882651329041e-02,9.151265025138854980e-03,-3.079076530411839485e-03,-2.047131583094596863e-02,4.068110510706901550e-02,-3.833109512925148010e-02,-5.401543527841567993e-02,-3.013611957430839539e-02,1.058873813599348068e-02,-4.309825133532285690e-03,2.953353151679039001e-02,-4.097509756684303284e-02,-2.045146189630031586e-02,8.729846216738224030e-03,-1.044282037764787674e-02,1.059872005134820938e-02,1.465886086225509644e-02,2.595506422221660614e-02,5.713459849357604980e-02,-2.747876383364200592e-02,-2.364658936858177185e-02,3.621223568916320801e-02
-5.989370867609977722e-02,-1.021674722433090210e-01,-3.785983100533485413e-02,4.334782063961029053e-02,3.687027841806411743e-02,-5.075649544596672058e-02,-4.399967938661575317e-02,2.382422983646392822e-02,5.030611529946327209e-03,-1.793189160525798798e-02,3.279256448149681091e-02,-1.758063398301601410e-02,3.679409250617027283e-02,-2.147980220615863800e-02,-1.626819185912609100e-02,1.926434808410704136e-03,-4.049117118120193481e-02,2.157419361174106598e-02,5.405497923493385315e-02,-3.050560876727104187e-02,-4.212304949760437012e-02,-4.814571142196655273e-02,2.450232207775115967e-02,-2.513926103711128235e-02,3.466393053531646729e-02,1.403770875185728073e-02,-9.298149496316909790e-03,-2.004513517022132874e-02,2.352307736873626709e-02,3.318459913134574890e-02,8.417770266532897949e-03,2.516358532011508942e-02,-6.960796564817428589e-02,2.206530980765819550e-02,5.060184001922607422e-02,1.594850793480873108e-02,-1.431877352297306061e-02,-2.524790354073047638e-02,2.924112230539321899e-02,2.517149038612842560e-02,7.071637362241744995e-02,-1.401474047452211380e-02,3.866549953818321228e-02,4.777592420578002930e-02,5.608400702476501465e-02,2.695907279849052429e-02,-4.166639596223831177e-02,5.290601402521133423e-02,-9.735131636261940002e-03,-3.575631976127624512e-02,-1.324772927910089493e-02,5.830309912562370300e-02,-2.309589646756649017e-02,2.256373316049575806e-02,-7.203287631273269653e-02,3.297772258520126343e-02,-3.082490153610706329e-02,2.069438435137271881e-02,1.959478668868541718e-02,5.486847832798957825e-03,3.269158676266670227e-02,-3.922830522060394287e-02,7.741795480251312256e-02,-4.568832740187644958e-02,-9.900204837322235107e-03,1.559365447610616684e-02,4.578813910484313965e-02,-1.891756989061832428e-02,1.342819258570671082e-02,-3.308263421058654785e-02,1.438937336206436157e-02,2.855689672287553549e-04,-4.059805721044540405e-02,-3.128752112388610840e-03,3.793603554368019104e-02,-2.825451269745826721e-02,-1.975051499903202057e-02,4.707634449005126953e-03,1.156266545876860619e-03,-4.678751807659864426e-03,5.623944848775863647e-02,-4.642768949270248413e-02,-4.562381654977798462e-02,-5.651342496275901794e-02,-3.081512637436389923e-02,5.441097170114517212e-02,-8.242616429924964905e-03,1.496070344001054764e-02,-2.076782472431659698e-02,5.815088748931884766e-02,-8.960615843534469604e-03,-4.899239912629127502e-02,5.925779230892658234e-03,3.745019063353538513e-02,1.846971688792109489e-03,3.562838584184646606e-02,4.237391054630279541e-02,8.339301683008670807e-03,-6.355968862771987915e-02,5.752754583954811096e-02,-2.299433387815952301e-02,1.617458276450634003e-02,1.248696912080049515e-02,4.499386996030807495e-02,-6.035956367850303650e-02,3.889949293807148933e-04,-1.464487053453922272e-03,2.085165120661258698e-02,-2.286872081458568573e-02,-6.594364345073699951e-02,9.824853390455245972e-03,-6.425006687641143799e-02,-3.068580850958824158e-02,3.932286798954010010e-02,-5.142100900411605835e-02,-3.317992016673088074e-02,-3.119785152375698090e-02,-6.628314033150672913e-03,3.233450278639793396e-02,-1.221513748168945312e-02,-8.492063730955123901e-03,-4.544161260128021240e-03,-7.543120533227920532e-03,-2.690901979804039001e-02,6.503366399556398392e-03,-2.813676930963993073e-02,-4.547099024057388306e-02,6.748170405626296997e-02
2.549531497061252594e-02,3.015986271202564240e-02,-7.855787873268127441e-03,-6.092283502221107483e-02,1.793197728693485260e-02,2.949998900294303894e-02,1.289944071322679520e-02,-3.146464750170707703e-02,6.107231602072715759e-02,-7.992081344127655029e-02,-1.595424674451351166e-02,2.685292623937129974e-02,-1.444933563470840454e-02,-4.082262888550758362e-02,-4.653368890285491943e-02,2.006002329289913177e-02,-3.135941177606582642e-02,-9.676879271864891052e-03,1.363606844097375870e-02,2.114463411271572113e-02,-9.038631105795502663e-04,-3.691060841083526611e-02,-9.042754769325256348e-03,3.316906839609146118e-02,5.323741585016250610e-03,9.077209047973155975e-03,4.404323920607566833e-02,2.455542236566543579e-02,1.690951548516750336e-02,2.109044790267944336e-02,-3.288973122835159302e-02,-7.387255318462848663e-03,-2.642408944666385651e-02,6.986642628908157349e-02,5.151588097214698792e-02,-1.101082540117204189e-03,1.254517957568168640e-02,-2.707350067794322968e-02,2.572735212743282318e-02,4.512706398963928223e-02,1.008286327123641968e-02,3.934554010629653931e-02,-3.805605322122573853e-02,-2.476157434284687042e-02,-2.806341461837291718e-02,1.853361353278160095e-02,4.509750753641128540e-02,4.124633595347404480e-02,1.068326551467180252e-02,8.414139971137046814e-03,1.348064932972192764e-02,2.735462784767150879e-02,-5.855364352464675903e-02,-7.271134108304977417e-02,-4.027581587433815002e-02,-2.175037376582622528e-02,4.047100991010665894e-02,-6.039117462933063507e-03,-1.496658893302083015e-03,-6.870296318084001541e-03,3.113105148077011108e-02,-5.030817911028862000e-02,-2.190342918038368225e-02,-2.905257744714617729e-03,-2.740089548751711845e-03,-1.885491795837879181e-02,-2.732835151255130768e-02,-9.411250241100788116e-03,-4.469702765345573425e-02,-3.493127971887588501e-02,-4.785651341080665588e-02,5.482507869601249695e-03,8.961436105892062187e-04,-4.552581533789634705e-02,-3.662921860814094543e-02,7.309979200363159180e-02,2.682325243949890137e-02,-7.979879155755043030e-03,-5.074202269315719604e-02,5.866117402911186218e-02,2.785512618720531464e-02,-5.530891939997673035e-02,-5.051946267485618591e-02,-9.722078219056129456e-03,3.336315974593162537e-02,3.136460483074188232e-02,2.102886140346527100e-02,3.441444411873817444e-02,1.058340631425380707e-02,-1.647491939365863800e-02,-2.914691902697086334e-02,-2.341357991099357605e-02,-3.633024916052818298e-02,-3.033727034926414490e-02,1.735623739659786224e-02,3.683796152472496033e-02,-3.832739777863025665e-03,4.996981471776962280e-02,-4.489650949835777283e-02,6.140033528208732605e-02,-3.584694117307662964e-03,2.795205637812614441e-02,-8.934301882982254028e-02,-5.878482013940811157e-02,-4.358041658997535706e-02,-1.960736699402332306e-02,-2.226232178509235382e-02,-3.844741731882095337e-02,1.723651774227619171e-03,-5.286503583192825317e-02,-3.284707665443420410e-02,-1.547949761152267456e-02,4.860820248723030090e-02,-2.773827640339732170e-03,2.975252084434032440e-02,1.748169027268886566e-02,2.609507739543914795e-02,-5.657963454723358154e-02,-2.962225116789340973e-03,6.401809514500200748e-05,2.979851141571998596e-02,2.467313222587108612e-02,6.918583996593952179e-03,7.816571742296218872e-03,1.833706349134445190e-02,-2.095594443380832672e-02,-1.724405586719512939e-02,5.935216788202524185e-03
-6.978997588157653809e-02,-4.040228947997093201e-02,-1.664115861058235168e-02,9.879426099359989166e-03,3.433257341384887695e-02,-4.718966782093048096e-02,-3.998364508152008057e-02,-6.670455634593963623e-02,2.191696688532829285e-02,-2.130327560007572174e-02,3.045210242271423340e-02,4.693292453885078430e-02,4.430325701832771301e-03,1.225579306483268738e-01,-5.548431724309921265e-02,-6.505325436592102051e-02,3.596462309360504150e-03,-1.541164889931678772e-02,-6.764198094606399536e-02,-1.589923910796642303e-02,1.403846777975559235e-02,-3.537746518850326538e-02,1.228487584739923477e-02,7.573822978883981705e-03,1.959578134119510651e-02,-3.420597407966852188e-03,-2.113161049783229828e-02,1.431491971015930176e-02,-1.128193642944097519e-02,3.372473642230033875e-02,5.496165528893470764e-02,7.899952121078968048e-03,-1.739230356179177761e-03,-4.737028479576110840e-02,8.824838325381278992e-03,-3.091256693005561829e-02,2.575610391795635223e-02,3.196658194065093994e-02,2.303876169025897980e-02,-4.317267984151840210e-02,2.045455388724803925e-02,4.667663574218750000e-02,-2.398154698312282562e-02,4.791111219674348831e-03,-5.157783161848783493e-03,-2.773234434425830841e-02,4.021632298827171326e-02,2.669520210474729538e-03,4.591827467083930969e-02,2.597419917583465576e-02,7.069686055183410645e-02,-4.444164410233497620e-02,5.997319519519805908e-02,-1.312793325632810593e-02,1.911174878478050232e-02,-1.995747350156307220e-02,4.471733234822750092e-03,2.715627476572990417e-02,1.957793161273002625e-02,-2.119656279683113098e-02,-4.523937776684761047e-02,4.145816341042518616e-02,-6.880144774913787842e-02,1.059142779558897018e-02,5.885102972388267517e-02,-3.654662519693374634e-02,-5.559768527746200562e-02,2.845757640898227692e-02,-1.536887791007757187e-02,2.499407343566417694e-02,4.845950007438659668e-02,1.411249954253435135e-02,-3.047857992351055145e-02,-3.240245580673217773e-02,3.180469945073127747e-02,3.728243056684732437e-03,6.396182812750339508e-03,2.974494174122810364e-02,-6.449565291404724121e-02,-1.977153681218624115e-02,-3.038754314184188843e-02,-1.497463881969451904e-02,-2.998303994536399841e-02,-7.280345540493726730e-03,5.080027505755424500e-03,-7.898246496915817261e-02,-2.618115395307540894e-02,-1.820977963507175446e-02,-3.578458353877067566e-02,-9.621085599064826965e-03,-1.058039627969264984e-02,2.063291519880294800e-02,-3.680931031703948975e-02,4.263935610651969910e-03,-5.740538239479064941e-02,-1.000807154923677444e-02,-2.838139422237873077e-02,-3.095436654984951019e-02,2.219068817794322968e-02,-8.432095497846603394e-02,3.532619029283523560e-02,4.191509447991847992e-03,-8.465768396854400635e-02,-4.029244184494018555e-02,7.357870694249868393e-03,-9.645367413759231567e-02,1.682076416909694672e-02,1.986481714993715286e-03,3.962059505283832550e-03,-8.956789970397949219e-02,-1.792500540614128113e-02,4.127888381481170654e-02,-6.213104352355003357e-02,-3.162021189928054810e-02,1.034985575824975967e-02,2.440961636602878571e-02,-2.813366986811161041e-02,7.092029601335525513e-02,2.577880211174488068e-02,-5.238075274974107742e-03,-3.671589493751525879e-02,-4.307487607002258301e-02,3.360887244343757629e-02,-8.115209056995809078e-04,1.342072058469057083e-02,6.044273450970649719e-02,3.298762068152427673e-02,-3.690586611628532410e-02
-4.569878429174423218e-02,1.449072174727916718e-02,-1.426851842552423477e-02,2.018697001039981842e-02,-2.994897961616516113e-02,-2.054790407419204712e-02,3.325317427515983582e-02,-2.160841040313243866e-02,-4.688792675733566284e-02,-1.924335211515426636e-02,-4.124430939555168152e-02,1.786880753934383392e-02,-3.416151180863380432e-02,3.451847657561302185e-02,1.214062608778476715e-02,9.753155522048473358e-03,3.163659945130348206e-02,-3.613311052322387695e-02,-5.764312669634819031e-02,5.160892009735107422e-02,1.299589127302169800e-02,-1.353193353861570358e-02,-1.299325004220008850e-02,5.327111110091209412e-02,-3.727084770798683167e-02,2.278094179928302765e-03,-7.709448784589767456e-02,-5.081944167613983154e-02,-1.638531871140003204e-02,3.500673174858093262e-02,-4.319093748927116394e-02,3.440650552511215210e-02,4.360472410917282104e-02,2.678863704204559326e-02,-1.265584677457809448e-01,7.559604197740554810e-02,-5.066328123211860657e-02,-3.491384908556938171e-02,-2.838191203773021698e-02,4.193710535764694214e-02,1.737115718424320221e-02,-3.684358438476920128e-03,-4.078204184770584106e-02,1.525222323834896088e-02,2.214890345931053162e-02,-1.695104874670505524e-02,-3.493749350309371948e-02,-2.303140610456466675e-02,-1.543753687292337418e-02,3.711456060409545898e-02,-4.165951907634735107e-02,-1.159687805920839310e-02,7.431815378367900848e-03,1.546725165098905563e-02,3.867894038558006287e-02,2.001427672803401947e-02,2.097401581704616547e-02,-3.454459831118583679e-02,2.799037285149097443e-02,2.385971695184707642e-02,1.947734877467155457e-02,-4.284667223691940308e-02,-1.780903199687600136e-03,7.838400453329086304e-02,6.342840846627950668e-03,-5.137332156300544739e-02,5.412512109614908695e-04,-1.068321801722049713e-02,5.394174531102180481e-02,2.977252937853336334e-02,-5.589488893747329712e-02,1.280743908137083054e-02,-3.873198106884956360e-02,-2.298965118825435638e-02,-2.054199762642383575e-02,-5.208537448197603226e-03,-2.672552689909934998e-02,-3.819701448082923889e-02,-3.975775092840194702e-02,3.474077209830284119e-02,-5.164585262537002563e-02,-5.053586512804031372e-02,3.980993106961250305e-02,-1.969849132001399994e-02,3.098085522651672363e-02,-9.563521482050418854e-03,-2.780348621308803558e-02,-3.362113237380981445e-02,-5.658800899982452393e-02,5.350777879357337952e-02,5.051976069808006287e-03,5.222769081592559814e-02,-3.464031592011451721e-02,-3.234113752841949463e-02,-3.619873523712158203e-02,-4.339641705155372620e-02,4.657375440001487732e-02,6.456681340932846069e-02,-7.292137481272220612e-03,-8.462835103273391724e-02,2.559157274663448334e-02,5.204984545707702637e-02,-9.235787391662597656e-02,-6.454661488533020020e-02,3.945233300328254700e-03,-1.287338696420192719e-02,2.475221268832683563e-02,-8.983367122709751129e-03,-2.046002307906746864e-03,-6.313489377498626709e-02,-1.465086918324232101e-02,-1.277651544660329819e-02,4.088647663593292236e-02,-5.463317036628723145e-02,-1.400950457900762558e-02,1.912512071430683136e-02,2.956437878310680389e-02,2.107549645006656647e-02,-1.748177409172058105e-02,3.425186872482299805e-02,5.255652591586112976e-02,2.512068115174770355e-02,7.768659852445125580e-03,-3.199698403477668762e-02,4.037898406386375427e-02,2.870026789605617523e-02,-6.215802580118179321e-02,5.374908819794654846e-02
-4.968835785984992981e-02,-7.260008901357650757e-02,-1.355656771920621395e-03,9.699534624814987183e-03,4.025851190090179443e-02,2.914723753929138184e-02,4.453865811228752136e-02,5.305000394582748413e-02,-6.962238997220993042e-02,5.514409276656806469e-04,-6.467787176370620728e-02,-8.727217093110084534e-03,-1.911467127501964569e-02,-2.618474140763282776e-02,-4.906090721487998962e-02,4.073290154337882996e-02,-1.064078789204359055e-02,-7.809737324714660645e-02,6.016695406287908554e-03,2.457852009683847427e-03,-4.391551017761230469e-02,4.273308441042900085e-03,-3.625956922769546509e-02,-2.619787491858005524e-02,-5.821911152452230453e-03,4.949119314551353455e-02,-8.292569220066070557e-02,-5.710793659090995789e-02,8.197613805532455444e-02,6.117030978202819824e-02,-4.175236821174621582e-02,4.130947962403297424e-02,1.199575699865818024e-02,4.744669888168573380e-03,-8.456456661224365234e-02,4.186273738741874695e-02,-2.672271057963371277e-02,-1.953516341745853424e-02,-2.447252161800861359e-02,1.661039888858795166e-02,5.428578704595565796e-02,-1.696496084332466125e-02,-4.373049363493919373e-02,-4.167385026812553406e-02,-3.734717145562171936e-02,5.069303140044212341e-02,5.211714282631874084e-02,-1.590239815413951874e-02,-2.105278149247169495e-02,-4.181281849741935730e-02,-7.179386448115110397e-04,-2.460727095603942871e-02,8.528823032975196838e-03,-3.503193333745002747e-02,9.205082803964614868e-02,4.858640953898429871e-02,2.296610362827777863e-02,-4.374304413795471191e-02,6.813877820968627930e-02,4.237954691052436829e-02,-4.141114652156829834e-02,-3.510014340281486511e-02,7.312566973268985748e-03,4.636703059077262878e-02,-1.249117124825716019e-02,5.100558698177337646e-02,-5.804008990526199341e-02,-5.877815559506416321e-02,-3.005401603877544403e-02,4.274535179138183594e-02,-3.207348752766847610e-03,-1.043330412358045578e-02,2.950009889900684357e-02,-1.557569392025470734e-02,6.281794048845767975e-03,-1.253229286521673203e-02,3.362137079238891602e-02,-1.813937723636627197e-02,2.200731821358203888e-02,-4.015070851892232895e-03,3.955930843949317932e-02,-3.801038116216659546e-02,3.214591741561889648e-02,-2.131027728319168091e-02,-1.719579286873340607e-02,2.675017109140753746e-03,-3.213432803750038147e-02,-4.396548122167587280e-02,-6.841184198856353760e-02,-1.090134959667921066e-02,-2.682328037917613983e-02,4.615563899278640747e-02,-4.589244350790977478e-02,-1.767910830676555634e-02,3.118952363729476929e-02,6.578703876584768295e-03,-6.931470124982297421e-04,-1.210348028689622879e-02,-4.305804893374443054e-02,-1.422556675970554352e-02,-1.187646016478538513e-02,2.278978377580642700e-02,-2.141331508755683899e-02,7.286666077561676502e-04,-6.112103164196014404e-02,-3.456899663433432579e-03,8.987402543425559998e-03,-1.008470775559544563e-03,9.027491509914398193e-02,7.922317832708358765e-02,3.802318498492240906e-02,2.650302834808826447e-02,7.993866689503192902e-03,4.862567409873008728e-02,-2.101064100861549377e-02,-3.233282268047332764e-02,3.419820591807365417e-02,9.515146724879741669e-03,6.767180562019348145e-02,3.583720186725258827e-03,6.773250550031661987e-02,1.811155118048191071e-02,-3.193330019712448120e-02,-3.575332462787628174e-02,-2.415418624877929688e-02,9.328116476535797119e-02,-2.358488366007804871e-02,-5.775898229330778122e-03
