8.296576328575611115e-03,1.209210511296987534e-02,2.167954482138156891e-02,-1.443245261907577515e-02,-1.462064404040575027e-02,-2.137941308319568634e-02,-3.732646815478801727e-03,-2.716068737208843231e-02,5.619627237319946289e-02,-4.845773056149482727e-02,-1.444800384342670441e-02,4.857473075389862061e-02,1.544776093214750290e-02,-6.930308043956756592e-02,-3.466814011335372925e-02,-5.241366568952798843e-03,-3.168764710426330566e-02,-2.815572917461395264e-02,-4.833962302654981613e-03,6.249771267175674438e-02,8.832287043333053589e-03,3.773747384548187256e-02,8.905347436666488647e-03,-7.134789228439331055e-02,-4.255882930010557175e-03,6.796947866678237915e-02,3.353119269013404846e-02,-2.468793839216232300e-02,-5.714492499828338623e-02,-2.751739695668220520e-02,3.089154139161109924e-03,2.342636696994304657e-02,1.960406824946403503e-02,-5.398313980549573898e-03,3.678305819630622864e-02,3.844504803419113159e-02,-1.813487894833087921e-02,5.013233795762062073e-02,3.588073328137397766e-02,2.773575484752655029e-03,5.268961936235427856e-02,-2.094086259603500366e-02,2.670969627797603607e-02,-1.378973387181758881e-02,-2.657600305974483490e-02,-6.635474413633346558e-02,6.851116567850112915e-02,-4.825401678681373596e-02,2.721694298088550568e-02,-5.294570326805114746e-02,-5.348607525229454041e-02,-2.451745606958866119e-02,6.248672679066658020e-02,-4.227322712540626526e-02,2.270560245960950851e-03,-1.064153295010328293e-02,1.192986220121383667e-02,1.167372427880764008e-02,3.198721632361412048e-02,-1.707146991975605488e-03,-4.944821354001760483e-03,-9.133814275264739990e-02,3.374693542718887329e-02,2.070057392120361328e-02,2.859103307127952576e-02,-5.162928253412246704e-02,-1.979132927954196930e-02,-7.709930650889873505e-04,-5.309264734387397766e-02,4.934132471680641174e-02,-1.248976495116949081e-02,4.174107685685157776e-03,-1.703029125928878784e-02,-1.290536299347877502e-02,-1.408275123685598373e-02,2.991932630538940430e-02,-3.947017714381217957e-02,-5.163445323705673218e-02,3.839229047298431396e-02,-3.354856371879577637e-02,-1.683361642062664032e-02,9.421131014823913574e-02,-2.752888202667236328e-02,2.495851367712020874e-02,-5.165418237447738647e-02,3.357734158635139465e-02,-2.448924630880355835e-02,-4.555423557758331299e-02,-3.448650706559419632e-03,-9.220508858561515808e-03,-1.466243620961904526e-02,-1.691764593124389648e-02,-9.202782064676284790e-03,-5.993365868926048279e-02,-3.110846504569053650e-02,-1.274844352155923843e-02,-2.159880101680755615e-02,-8.501154184341430664e-02,-6.611427757889032364e-03,-1.304946281015872955e-02,2.335806936025619507e-02,-2.133155427873134613e-02,-3.508451208472251892e-02,1.060906648635864258e-01,-4.966931417584419250e-02,7.630500476807355881e-03,-1.760800927877426147e-02,-1.006755698472261429e-02,-2.008102275431156158e-02,9.428859502077102661e-02,-4.265946149826049805e-02,-4.576130956411361694e-02,6.880310922861099243e-02,-2.941546030342578888e-02,2.030351385474205017e-02,4.513890668749809265e-02,2.594972029328346252e-03,9.310445934534072876e-02,-5.815785750746726990e-02,5.567463114857673645e-02,1.717677712440490723e-02,7.278209086507558823e-04,4.321943223476409912e-02,1.997723244130611420e-02,5.141552537679672241e-02,-4.494192823767662048e-02,-5.930491164326667786e-02,-3.046634420752525330e-02
-4.142612591385841370e-02,-5.123637989163398743e-02,-4.609788581728935242e-02,-2.655076421797275543e-02,3.915297612547874451e-02,-5.289598181843757629e-02,-8.637640625238418579e-03,-4.478598013520240784e-02,2.203278988599777222e-02,-3.152756486088037491e-03,9.824502281844615936e-03,-4.261440597474575043e-03,-1.839772425591945648e-02,-6.917309761047363281e-02,-3.469420596957206726e-02,-3.604686819016933441e-03,-7.505942881107330322e-02,1.180212944746017456e-02,-8.034181781113147736e-03,3.325618430972099304e-02,-3.161686286330223083e-02,-1.009104028344154358e-02,-3.351200371980667114e-02,2.085366845130920410e-02,3.887344524264335632e-02,1.332004554569721222e-02,8.352389186620712280e-02,-6.878942251205444336e-03,-2.475608373060822487e-03,-8.552289567887783051e-03,3.323595970869064331e-02,-1.042365282773971558e-02,2.090391516685485840e-02,2.608804788906127214e-04,-7.198527455329895020e-02,1.701361313462257385e-02,-1.544435881078243256e-02,3.381197154521942139e-02,4.224690608680248260e-03,-2.698324061930179596e-02,5.888841673731803894e-02,3.259824588894844055e-02,3.172586858272552490e-02,3.926854580640792847e-02,-5.577211454510688782e-02,-4.473219811916351318e-02,-4.740085080265998840e-02,1.714464090764522552e-02,2.431907504796981812e-02,-8.693742565810680389e-03,-3.931994363665580750e-02,-2.924865484237670898e-02,1.382205751724541187e-03,-5.146661028265953064e-02,-1.954259723424911499e-02,-1.895199343562126160e-02,-7.935119792819023132e-03,-5.451142042875289917e-02,1.472398755140602589e-03,5.535393580794334412e-02,-3.794859349727630615e-02,-6.096941232681274414e-02,-6.947350222617387772e-03,2.528429031372070312e-03,2.522524446249008179e-02,4.506550263613462448e-03,2.590850368142127991e-02,3.545618616044521332e-03,3.420944884419441223e-02,-1.905213668942451477e-02,-6.495330017060041428e-03,-3.931101039052009583e-02,-2.092436328530311584e-02,-6.684932857751846313e-03,1.136078871786594391e-02,8.894141763448715210e-03,-3.431342914700508118e-02,-6.399651989340782166e-03,-4.810399189591407776e-02,-4.561553895473480225e-02,-4.291705042123794556e-02,1.570327393710613251e-02,-4.701136425137519836e-02,-3.770141303539276123e-02,-4.141492396593093872e-02,-3.271653503179550171e-02,-1.645729318261146545e-02,1.811482012271881104e-02,-4.122472181916236877e-02,-7.470435649156570435e-02,-4.059692844748497009e-02,-3.693363815546035767e-02,2.725346386432647705e-02,-6.720233708620071411e-02,2.648733928799629211e-02,-6.003078538924455643e-03,-5.889505147933959961e-02,-2.090466581284999847e-02,1.326437690295279026e-03,-7.455801963806152344e-02,9.248643182218074799e-03,-2.816503867506980896e-02,-1.395830139517784119e-02,-5.188595876097679138e-02,2.446915395557880402e-02,1.029101852327585220e-02,3.963934257626533508e-02,-3.013420663774013519e-02,-2.026361599564552307e-02,2.571423351764678955e-02,3.606238216161727905e-02,-8.309146761894226074e-02,-1.267172489315271378e-02,-5.272324383258819580e-02,6.275474280118942261e-02,-4.673958942294120789e-02,-3.545890562236309052e-03,-1.921123638749122620e-02,-2.600206062197685242e-02,2.427463233470916748e-02,6.155060231685638428e-02,-7.007841020822525024e-02,-1.744584925472736359e-02,8.025697618722915649e-02,2.029331028461456299e-02,-8.169217966496944427e-03,-4.754904657602310181e-02,-2.057704515755176544e-02
-4.799714684486389160e-02,-5.316977854818105698e-03,-3.281571716070175171e-02,-1.032513682730495930e-03,-6.123251095414161682e-02,1.231452636420726776e-02,-7.472315803170204163e-03,2.863218542188405991e-03,-1.346344407647848129e-02,-4.818342253565788269e-02,-3.710999386385083199e-03,-3.362055122852325439e-02,1.259475015103816986e-02,-5.288236960768699646e-02,-5.002521444112062454e-03,-7.756002992391586304e-02,-2.555728703737258911e-02,-6.293547339737415314e-03,2.621294371783733368e-02,4.713063314557075500e-02,-5.572686716914176941e-02,-3.607409819960594177e-02,3.195587545633316040e-02,-2.533259429037570953e-02,1.213247328996658325e-01,-1.818622089922428131e-02,1.320659648627042770e-02,1.137185841798782349e-02,9.407958132214844227e-04,-4.457853361964225769e-02,3.595374897122383118e-02,4.187409952282905579e-02,6.357866339385509491e-03,-3.532920777797698975e-02,-5.188990756869316101e-02,1.182541064918041229e-02,-5.475568771362304688e-02,7.821260392665863037e-02,-7.259386125952005386e-03,-4.029878228902816772e-02,8.776900917291641235e-02,-4.317614249885082245e-03,-9.749560616910457611e-03,-3.997711464762687683e-02,-5.823116749525070190e-02,-6.222293898463249207e-02,6.584635120816528797e-04,1.426482014358043671e-02,3.553115949034690857e-02,-2.820167224854230881e-03,-3.603672236204147339e-02,-3.740873560309410095e-02,-2.151109278202056885e-02,-1.157036051154136658e-02,-2.860874496400356293e-02,-3.854503110051155090e-02,-2.409444749355316162e-02,-3.975176811218261719e-02,-1.007192302495241165e-02,-3.270715847611427307e-02,1.682255184277892113e-03,-3.042984008789062500e-02,1.132243573665618896e-01,-1.351898303255438805e-03,-1.894614286720752716e-02,-5.461787804961204529e-02,3.593144938349723816e-02,2.265834435820579529e-02,4.051298275589942932e-02,2.805506624281406403e-02,-4.936695098876953125e-03,5.572317913174629211e-02,3.554177656769752502e-02,-3.849452594295144081e-03,3.830001503229141235e-02,-4.049396887421607971e-02,3.426967933773994446e-02,-1.553617790341377258e-02,-1.603730022907257080e-02,-3.309683129191398621e-02,-3.482320345938205719e-03,2.959390357136726379e-02,3.027219790965318680e-03,-5.200710892677307129e-02,-7.631184998899698257e-03,-6.757697090506553650e-03,-2.101686224341392517e-02,7.590566575527191162e-02,-1.354906894266605377e-02,6.530113052576780319e-03,-5.774975940585136414e-02,2.051141299307346344e-02,-1.091617904603481293e-02,1.938744244398549199e-04,-5.008501932024955750e-02,4.043966531753540039e-03,-2.865835465490818024e-02,-4.349623993039131165e-02,-7.274588197469711304e-02,5.312082171440124512e-02,-1.545604970306158066e-02,-1.399208419024944305e-02,-3.197643905878067017e-02,6.531160324811935425e-02,-3.038720786571502686e-02,1.182534545660018921e-02,-5.332945380359888077e-03,2.364968881011009216e-02,-2.240437455475330353e-02,-1.954408735036849976e-02,5.942520871758460999e-02,1.015235483646392822e-02,2.505541406571865082e-02,-2.451620437204837799e-02,-6.913338601589202881e-02,3.636000212281942368e-03,-8.009877055883407593e-02,-1.498519908636808395e-02,-5.569401383399963379e-02,3.570493310689926147e-02,-1.205112412571907043e-02,3.582452191039919853e-03,2.889881283044815063e-02,2.606747299432754517e-02,-5.595286190509796143e-02,-3.723239526152610779e-02,2.260267734527587891e-02,1.780469343066215515e-02
-4.166660457849502563e-02,-4.521486535668373108e-02,6.327029317617416382e-03,-4.831170290708541870e-02,-5.414670333266258240e-02,1.070182863622903824e-02,-5.963174998760223389e-02,-5.534814670681953430e-02,-4.959895461797714233e-02,-3.450523689389228821e-02,3.130069468170404434e-03,3.585017286241054535e-03,-4.729074984788894653e-02,2.071250975131988525e-02,6.662490218877792358e-02,-1.112849824130535126e-02,-6.754517555236816406e-02,-1.335167232900857925e-02,-3.365579992532730103e-02,-1.964645460247993469e-02,1.501357275992631912e-02,8.015913888812065125e-03,-1.683056540787220001e-02,-6.452429294586181641e-02,6.314957980066537857e-03,-4.557059705257415771e-02,-2.788714691996574402e-02,1.945104822516441345e-02,-1.112228818237781525e-02,-3.729459270834922791e-02,-5.213499441742897034e-02,2.838928438723087311e-02,5.532960966229438782e-02,-2.091038599610328674e-02,1.936298236250877380e-02,-4.959443584084510803e-02,4.759635403752326965e-02,-5.532851070165634155e-02,8.488192223012447357e-03,2.252834476530551910e-02,-2.103182300925254822e-02,-2.954438887536525726e-02,-5.753637477755546570e-02,-4.339965432882308960e-02,-4.388195276260375977e-02,1.961146481335163116e-02,6.787309050559997559e-02,1.095424871891736984e-02,-4.394502937793731689e-02,1.182641368359327316e-02,-2.019271068274974823e-02,6.492123007774353027e-03,-2.393081411719322205e-02,1.011472195386886597e-03,-1.994172576814889908e-03,-6.245521083474159241e-02,-5.600906535983085632e-02,-7.897433824837207794e-03,-4.269602894783020020e-02,3.787772729992866516e-02,4.676956310868263245e-02,-6.598506122827529907e-02,-2.159240283071994781e-02,4.886639863252639771e-02,-3.940522298216819763e-02,-7.403010502457618713e-03,-1.278807036578655243e-02,5.679259775206446648e-04,1.129567157477140427e-02,7.163897901773452759e-02,-2.334905229508876801e-02,1.188987307250499725e-02,-6.916892528533935547e-02,-2.984880842268466949e-02,2.332761324942111969e-02,7.595922052860260010e-02,-4.584852606058120728e-02,-3.445744886994361877e-02,-3.933927789330482483e-02,-3.557510673999786377e-02,4.064310633111745119e-04,5.811573192477226257e-02,-2.088533155620098114e-02,-4.036612808704376221e-02,8.629674091935157776e-03,3.708672942593693733e-03,5.890828371047973633e-02,2.864751964807510376e-02,1.459127292037010193e-02,4.147248342633247375e-02,-3.281262516975402832e-02,-7.265033572912216187e-02,-5.720318481326103210e-02,-2.496347390115261078e-02,-1.793120987713336945e-02,-1.679825782775878906e-02,5.120506137609481812e-02,-3.717775642871856689e-02,-3.772338479757308960e-02,2.580370195209980011e-02,-4.091499000787734985e-02,-2.736250124871730804e-02,-1.536450721323490143e-02,-2.973249927163124084e-02,5.189126241020858288e-04,-5.103609338402748108e-02,-6.616379320621490479e-02,-3.847942128777503967e-02,4.397639259696006775e-02,6.234785914421081543e-02,2.657101489603519440e-02,-3.166207671165466309e-02,3.009930253028869629e-02,-9.320401586592197418e-03,-2.955001778900623322e-02,-5.184710770845413208e-02,-9.889681637287139893e-02,8.229561150074005127e-02,-6.343652307987213135e-02,1.350542437285184860e-02,2.071955241262912750e-02,-7.960747927427291870e-03,-6.976221222430467606e-03,7.752487901598215103e-03,-5.003376677632331848e-02,8.973544836044311523e-02,-2.672830782830715179e-02,-3.973306715488433838e-02
-1.762569881975650787e-02,-2.335192263126373291e-02,-3.281357139348983765e-02,-4.260326549410820007e-02,2.272693812847137451e-02,-4.653744027018547058e-02,-2.990663237869739532e-02,3.205937519669532776e-02,-6.296408921480178833e-02,6.203983444720506668e-03,1.900274492800235748e-02,5.657070875167846680e-02,-2.247326774522662163e-04,-3.323879465460777283e-02,3.443533554673194885e-02,-1.036074385046958923e-02,-1.732607372105121613e-02,-5.018560960888862610e-02,5.765802692621946335e-03,-6.916426867246627808e-02,5.999562144279479980e-02,-4.499018564820289612e-02,-4.516993090510368347e-02,-7.203318178653717041e-02,-1.848141662776470184e-02,-5.852465704083442688e-02,-3.699158318340778351e-03,4.318407922983169556e-02,-4.533005505800247192e-02,-7.371658459305763245e-03,-2.731863036751747131e-02,1.623879373073577881e-02,4.303268622606992722e-03,-1.527015026658773422e-02,4.633013741113245487e-04,1.355644222348928452e-02,-3.914276510477066040e-02,-3.679738566279411316e-02,2.230148017406463623e-02,-7.843718677759170532e-02,1.650487887673079967e-03,-4.604018479585647583e-02,-6.400261074304580688e-02,-2.322710864245891571e-02,8.671729825437068939e-03,2.214562706649303436e-02,-1.994493603706359863e-02,-4.943044483661651611e-02,-4.970064386725425720e-02,7.327984273433685303e-02,-2.332744561135768890e-02,-1.163807790726423264e-02,-3.027011640369892120e-02,-2.603056468069553375e-02,1.325083896517753601e-02,-2.777548320591449738e-02,3.725688904523849487e-02,7.803542539477348328e-03,7.130529731512069702e-02,-1.872915960848331451e-02,-6.469842512160539627e-03,-4.486665502190589905e-02,-1.343683153390884399e-02,9.042705409228801727e-03,-5.899648740887641907e-02,-2.109996415674686432e-02,4.380386322736740112e-02,-5.158610269427299500e-02,-4.673386365175247192e-02,-6.663412600755691528e-02,-6.360396742820739746e-02,-7.160047441720962524e-02,5.262745916843414307e-02,-8.542679250240325928e-02,-2.112567424774169922e-02,1.101133693009614944e-02,-8.907479792833328247e-02,8.731076121330261230e-02,-6.091282889246940613e-02,-1.990476809442043304e-02,1.932591199874877930e-02,-2.766418270766735077e-02,-3.794234246015548706e-02,-2.176286466419696808e-02,-2.988238073885440826e-02,-9.363734163343906403e-03,-4.124302789568901062e-02,-6.322669982910156250e-02,-4.110433906316757202e-02,8.849984733387827873e-04,-8.037840574979782104e-02,-6.199370697140693665e-02,3.520748391747474670e-02,2.283896319568157196e-02,-6.178238987922668457e-02,-3.428522869944572449e-02,-5.959575646556913853e-04,2.243107929825782776e-02,4.322633519768714905e-02,1.583305373787879944e-02,-7.467490155249834061e-03,-7.218232750892639160e-02,-1.880373992025852203e-02,-8.213566988706588745e-02,3.312413394451141357e-02,-6.907816976308822632e-02,-7.340164482593536377e-02,-4.860802739858627319e-02,6.038492079824209213e-03,-9.071778506040573120e-02,-2.384407445788383484e-02,-1.762693747878074646e-02,-4.406523704528808594e-02,-3.036298416554927826e-02,-3.181824460625648499e-02,3.847621381282806396e-02,6.227186881005764008e-03,6.169913336634635925e-02,-7.347110658884048462e-02,-5.427835881710052490e-02,-2.304024994373321533e-02,-1.811049995012581348e-03,-4.789511673152446747e-03,-3.762089880183339119e-03,-4.072628542780876160e-02,3.882780671119689941e-02,-9.563720785081386566e-03,2.784137986600399017e-02
-4.557359218597412109e-02,-9.457962587475776672e-03,-3.877323120832443237e-02,-5.726174637675285339e-02,-5.565645173192024231e-03,-1.404904853552579880e-02,-3.191734105348587036e-02,-2.898676134645938873e-02,-1.827888749539852142e-02,5.460267886519432068e-03,-4.146881029009819031e-02,-3.097642213106155396e-02,-4.161712247878313065e-03,-4.861338529735803604e-03,-7.118763402104377747e-03,1.167024578899145126e-02,-4.870001692324876785e-03,-3.520892560482025146e-02,5.082844570279121399e-02,2.820193395018577576e-02,2.501215226948261261e-02,-2.721555158495903015e-02,-1.273491978645324707e-02,1.950560882687568665e-02,-3.843935579061508179e-02,-3.098790533840656281e-02,-1.831545308232307434e-02,-1.437710691243410110e-02,-6.824406981468200684e-02,-7.473711157217621803e-04,-1.009560972452163696e-01,2.850958378985524178e-03,-1.015812065452337265e-02,-3.982358053326606750e-02,-1.374935079365968704e-02,-3.863689303398132324e-02,-2.456217817962169647e-02,-2.271176688373088837e-02,-4.779969900846481323e-02,5.312260240316390991e-02,-2.992323413491249084e-02,-3.718441724777221680e-02,1.635799556970596313e-02,-5.105866119265556335e-02,1.763325370848178864e-02,4.883007332682609558e-02,4.743522498756647110e-03,2.422392182052135468e-02,-5.851976573467254639e-02,1.091640815138816833e-01,-1.353227905929088593e-02,1.453060470521450043e-02,-1.730755530297756195e-02,-7.249458134174346924e-02,3.006936050951480865e-03,2.422051317989826202e-02,-2.676592394709587097e-02,5.392605904489755630e-03,-1.827512681484222412e-02,-2.964582853019237518e-02,-4.786462336778640747e-02,-1.014959998428821564e-02,5.335831269621849060e-02,2.270106784999370575e-02,-5.891828238964080811e-02,-1.961122639477252960e-02,3.428371250629425049e-02,-2.977958321571350098e-02,1.688857190310955048e-02,4.664537683129310608e-02,6.275609135627746582e-02,-1.190946716815233231e-02,3.313881903886795044e-02,-8.877259679138660431e-03,-2.176515385508537292e-02,-1.162524567916989326e-03,1.523516140878200531e-02,3.319032862782478333e-02,-5.031772889196872711e-03,-2.823554910719394684e-02,-2.178182080388069153e-02,-2.325598895549774170e-02,-4.334031045436859131e-02,-4.554804041981697083e-02,-2.943371608853340149e-02,-2.183772809803485870e-02,-1.651109009981155396e-02,-9.768987074494361877e-03,-5.161031335592269897e-02,-1.298800203949213028e-02,-2.065598778426647186e-02,1.594252511858940125e-02,-1.622135750949382782e-03,-5.410498008131980896e-02,8.781290613114833832e-03,-4.691147059202194214e-02,-3.840972436591982841e-03,5.672045797109603882e-02,-1.790194190107285976e-03,-2.522037178277969360e-02,-7.271774113178253174e-02,3.080944530665874481e-02,6.258950568735599518e-03,1.093399990350008011e-02,-2.253971435129642487e-02,-4.528938233852386475e-02,-6.012880057096481323e-02,6.529701501131057739e-02,-5.251456797122955322e-02,-1.973613351583480835e-02,2.621260657906532288e-02,3.257284685969352722e-02,-3.948038816452026367e-02,-8.397756144404411316e-03,1.209276262670755386e-02,4.702082276344299316e-02,1.720660552382469177e-02,-2.299949154257774353e-02,-2.250303328037261963e-02,5.750563740730285645e-02,8.166149258613586426e-03,-4.663798585534095764e-02,-4.915392398834228516e-02,1.539198216050863266e-02,-5.491916462779045105e-02,1.145179383456707001e-02,7.880266755819320679e-03,1.732181385159492493e-02
5.453375354409217834e-02,-4.240537062287330627e-02,4.961915314197540283e-02,-1.406330242753028870e-02,5.782505869865417480e-02,-6.079332157969474792e-02,-5.025819689035415649e-02,-1.134602352976799011e-01,-5.848790332674980164e-02,-7.253609132021665573e-03,-3.326223790645599365e-02,1.537188887596130371e-02,-5.263695120811462402e-02,-4.066541045904159546e-02,-7.799788378179073334e-03,1.055753044784069061e-02,-3.253455832600593567e-02,2.038074843585491180e-02,1.882269978523254395e-02,-5.383197218179702759e-02,-6.004247814416885376e-02,-1.089907251298427582e-02,1.343127340078353882e-02,2.261178568005561829e-02,-4.237078130245208740e-02,1.662184670567512512e-02,2.977753523737192154e-03,2.117170020937919617e-02,8.090686798095703125e-02,-7.705207448452711105e-03,-1.106749251484870911e-01,2.076039789244532585e-03,3.596310317516326904e-02,3.850463777780532837e-03,-3.675213456153869629e-02,7.226046919822692871e-02,-2.853414788842201233e-02,-1.852857694029808044e-02,-9.413453191518783569e-02,-6.475998461246490479e-02,-1.903368718922138214e-02,-6.503295153379440308e-02,-4.980032518506050110e-02,2.800095081329345703e-02,-2.544439770281314850e-02,1.433875970542430878e-02,-3.442100249230861664e-03,-4.838839173316955566e-02,-1.232342422008514404e-02,-2.352385595440864563e-02,1.098001375794410706e-03,-2.454293332993984222e-02,7.673088926821947098e-03,2.420257218182086945e-02,5.103885196149349213e-04,-3.933721408247947693e-02,-5.635387822985649109e-02,2.405872009694576263e-02,-3.285879641771316528e-02,1.113182026892900467e-02,3.253940120339393616e-02,1.908878795802593231e-02,-2.359040826559066772e-02,-1.866985298693180084e-02,7.185259833931922913e-03,-3.884270042181015015e-02,-7.291178405284881592e-02,2.454351261258125305e-02,5.391316860914230347e-02,-5.320262536406517029e-02,3.305118530988693237e-03,4.889864008873701096e-03,-2.644458145368844271e-04,-4.428214859217405319e-03,1.215866953134536743e-02,2.049290761351585388e-02,3.037996217608451843e-02,5.300958640873432159e-03,-5.048387497663497925e-02,2.421092614531517029e-02,1.766120083630084991e-02,2.991552837193012238e-02,1.725463196635246277e-02,9.862956590950489044e-03,-5.978715419769287109e-02,-4.234460368752479553e-02,1.090115401893854141e-02,2.247824147343635559e-02,-6.396462768316268921e-02,-3.356441482901573181e-02,-5.511009320616722107e-02,-2.352898754179477692e-02,1.432208437472581863e-02,3.540030866861343384e-02,-2.337981015443801880e-02,4.020683094859123230e-02,3.697671368718147278e-02,3.084918670356273651e-02,-2.233408764004707336e-02,2.331486716866493225e-02,-1.044209003448486328e-01,1.215877570211887360e-02,1.989817060530185699e-02,-2.872418798506259918e-02,1.742967218160629272e-02,-1.405656989663839340e-02,-2.258054912090301514e-02,-3.539451956748962402e-02,6.203519925475120544e-02,2.592776343226432800e-02,2.543422393500804901e-03,-8.743279031477868557e-04,-4.525101929903030396e-02,-5.603193864226341248e-02,4.759916570037603378e-03,3.585171070881187916e-04,-8.197984844446182251e-02,8.372397162020206451e-03,-1.621685922145843506e-02,5.158720910549163818e-02,-1.284269243478775024e-02,-3.621444851160049438e-02,4.113956820219755173e-04,8.138810517266392708e-04,2.379603125154972076e-02,-8.673748001456260681e-03,-5.927792191505432129e-02,-6.567322462797164917e-02
-1.918128132820129395e-02,-5.013130232691764832e-02,-4.849503934383392334e-02,-3.286487609148025513e-02,1.475470419973134995e-02,-8.776394650340080261e-03,-1.789304800331592560e-02,-6.209263112396001816e-03,-7.310125511139631271e-03,-1.909971795976161957e-02,4.470377787947654724e-02,1.879737479612231255e-03,-1.751451008021831512e-02,-4.633978009223937988e-02,-2.694905549287796021e-02,8.074019104242324829e-03,-3.359405323863029480e-02,1.236652210354804993e-02,2.990581467747688293e-02,-7.942746742628514767e-04,-9.848826378583908081e-02,-2.363910153508186340e-02,3.969877958297729492e-02,-3.485824912786483765e-02,2.552215475589036942e-03,-1.855307817459106445e-02,1.346237584948539734e-02,-1.217901706695556641e-02,5.303232930600643158e-03,-4.479232057929039001e-02,-2.202209271490573883e-02,-8.668521419167518616e-03,3.934490680694580078e-02,-9.612403810024261475e-04,-2.341224625706672668e-02,-4.223119001835584641e-03,9.209129028022289276e-03,5.311290919780731201e-02,4.310033842921257019e-02,-4.152854904532432556e-02,-5.409810692071914673e-02,-1.571839489042758942e-02,2.304379642009735107e-02,-5.255834013223648071e-02,-5.721424147486686707e-02,-1.116125471889972687e-02,4.929335787892341614e-02,1.816392876207828522e-02,-3.762237727642059326e-02,-1.166314352303743362e-02,3.535990789532661438e-02,-5.974376946687698364e-02,1.406550034880638123e-02,-3.610944747924804688e-02,-4.507119208574295044e-02,-5.744684487581253052e-02,-9.321812540292739868e-03,1.950949430465698242e-02,-4.955159127712249756e-02,-3.129655495285987854e-02,-7.493680715560913086e-02,-3.262425307184457779e-03,-5.348570272326469421e-02,2.751025930047035217e-02,3.051651641726493835e-02,-1.918310113251209259e-02,2.189555764198303223e-02,-1.660619489848613739e-02,-7.292848825454711914e-02,-3.776573017239570618e-02,9.945991635322570801e-02,-1.932192780077457428e-02,2.686981670558452606e-02,-2.915356867015361786e-02,1.292256917804479599e-02,-1.992098800837993622e-02,-1.476371940225362778e-02,-2.217386104166507721e-02,-3.493818640708923340e-02,-5.526603013277053833e-02,2.044094167649745941e-02,-5.053636431694030762e-02,5.215177312493324280e-02,1.362976711243391037e-02,-6.270568072795867920e-02,-1.476911082863807678e-02,-2.579190395772457123e-02,-3.299580141901969910e-02,-5.266329273581504822e-02,-5.740629043430089951e-03,1.544015388935804367e-02,-1.467232499271631241e-02,-3.492936864495277405e-02,-5.773397162556648254e-03,3.431653603911399841e-02,-3.954188525676727295e-02,-2.159103006124496460e-02,-7.687904685735702515e-02,-7.286471128463745117e-02,-3.123862110078334808e-02,8.038960397243499756e-03,-3.669193387031555176e-02,-3.744504647329449654e-03,-1.061628852039575577e-02,-1.077155675739049911e-02,-3.663047030568122864e-02,-2.939837239682674408e-02,8.678974583745002747e-03,-2.076067589223384857e-02,-2.075299248099327087e-02,-3.804599167779088020e-03,-4.954301193356513977e-02,-7.156601548194885254e-02,-1.818081177771091461e-02,-3.740298375487327576e-02,7.370093464851379395e-02,4.676494374871253967e-02,-1.452770177274942398e-02,2.309575490653514862e-02,-6.966999173164367676e-02,-4.643875733017921448e-02,-7.653343025594949722e-03,-5.650652199983596802e-02,1.394687127321958542e-02,-6.107051298022270203e-02,2.641995670273900032e-03,-7.577593624591827393e-02,-6.926310807466506958e-02
3.113929554820060730e-02,4.106894508004188538e-02,2.671441435813903809e-02,6.166471168398857117e-03,-5.718955770134925842e-02,-5.406730249524116516e-02,5.077167972922325134e-02,-8.607195317745208740e-02,-5.119439959526062012e-02,-6.985303014516830444e-02,-1.049462822265923023e-03,1.293412758968770504e-03,-4.824176430702209473e-02,9.363809367641806602e-04,6.513231899589300156e-03,8.496266603469848633e-02,7.908513769507408142e-03,-5.092528183013200760e-03,2.801268547773361206e-02,1.636155322194099426e-02,4.789451882243156433e-02,-3.576929494738578796e-02,-4.653117805719375610e-02,2.194711705669760704e-03,-5.853425711393356323e-02,2.961437404155731201e-02,-7.050732523202896118e-02,-5.310955457389354706e-03,8.590825833380222321e-03,1.900501362979412079e-02,5.751981958746910095e-02,-3.698809072375297546e-02,-7.094559073448181152e-02,2.145666070282459259e-02,-2.861195243895053864e-02,-2.191788516938686371e-02,4.508309438824653625e-02,9.501186199486255646e-03,-1.621054299175739288e-02,1.903322758153080940e-03,-7.844933308660984039e-03,-6.323932670056819916e-03,-1.564024575054645538e-02,2.844148548319935799e-03,-3.623358905315399170e-03,-4.162317141890525818e-02,2.312924526631832123e-02,-1.519442629069089890e-02,-7.390657439827919006e-03,7.298243790864944458e-02,-4.436450824141502380e-02,-6.750680506229400635e-02,-3.701768442988395691e-02,-3.318703547120094299e-02,-4.095867276191711426e-02,-2.911991439759731293e-02,1.528580486774444580e-02,-1.709914952516555786e-02,-6.416631489992141724e-02,-3.627090901136398315e-02,5.797509569674730301e-03,-3.404000774025917053e-02,4.319388791918754578e-02,-3.659763932228088379e-02,-2.428349852561950684e-02,6.621352396905422211e-03,-7.034150417894124985e-03,-4.082235973328351974e-03,-3.910617902874946594e-03,-6.653675809502601624e-03,1.182136163115501404e-01,-6.121436879038810730e-02,4.295450821518898010e-02,-1.109572499990463257e-02,-5.255033820867538452e-02,3.642522543668746948e-02,3.270627185702323914e-02,-9.374988265335559845e-03,1.874086819589138031e-02,1.233098935335874557e-02,4.491972923278808594e-02,-7.199288904666900635e-02,-4.505936056375503540e-02,-2.548889257013797760e-02,-3.640682250261306763e-02,-4.661301523447036743e-02,1.929212361574172974e-02,-1.439438667148351669e-02,-2.094073221087455750e-02,4.376249015331268311e-02,3.324316069483757019e-02,-7.463969523087143898e-04,-3.738790750503540039e-02,-6.977350264787673950e-02,3.185662627220153809e-02,-1.911409758031368256e-02,2.163452096283435822e-02,-4.694150388240814209e-02,-2.004907839000225067e-02,-1.032421365380287170e-02,-4.856206104159355164e-02,2.276450954377651215e-02,2.819636277854442596e-02,-4.498808830976486206e-02,-2.783085964620113373e-02,3.341475501656532288e-03,3.574425354599952698e-03,-2.075818134471774101e-03,2.773612923920154572e-02,1.975600235164165497e-02,-2.012558095157146454e-02,3.377203596755862236e-03,-2.386284060776233673e-02,1.283955276012420654e-01,1.694977842271327972e-02,8.077527582645416260e-02,2.643170766532421112e-03,-5.154208838939666748e-02,8.152919821441173553e-03,7.013569027185440063e-02,6.097844615578651428e-02,-5.078025534749031067e-02,-3.864336386322975159e-02,2.323259599506855011e-03,-5.787811800837516785e-02,-1.625838503241539001e-02,-1.349448692053556442e-02,-1.771706342697143555e-02
4.628971964120864868e-02,6.272192299365997314e-02,-1.481395866721868515e-02,-3.203102201223373413e-02,7.265588268637657166e-03,-8.352163247764110565e-03,3.345312550663948059e-02,9.474213235080242157e-03,-3.072454407811164856e-02,-9.660498239099979401e-03,1.322612166404724121e-02,-5.712906643748283386e-02,-2.352902851998806000e-02,-5.549892317503690720e-03,3.649815544486045837e-02,-3.744337335228919983e-02,5.679116584360599518e-03,2.683537639677524567e-02,-6.682269158773124218e-04,-2.540817251428961754e-03,-4.470168799161911011e-02,-1.974443532526493073e-02,-1.593938283622264862e-02,1.940135657787322998e-02,-7.763626426458358765e-02,-3.545488417148590088e-02,1.892032101750373840e-02,-2.767495997250080109e-02,4.084281995892524719e-02,-1.584810763597488403e-02,3.027471899986267090e-02,-5.910653620958328247e-03,-3.433008119463920593e-02,1.807743310928344727e-02,-7.231645286083221436e-02,-2.738869935274124146e-02,8.787306025624275208e-03,-2.444522827863693237e-02,-2.730049006640911102e-02,-5.371458828449249268e-02,1.148554831743240356e-01,1.625910252332687378e-01,-1.437359489500522614e-02,2.217929624021053314e-02,-5.059189721941947937e-02,1.080754864960908890e-02,8.080530678853392601e-04,5.379261448979377747e-02,3.561381250619888306e-02,-2.133163250982761383e-02,-2.914969064295291901e-02,-6.677930243313312531e-03,-6.451578438282012939e-02,-1.254802104085683823e-02,-5.333992838859558105e-02,-5.164758861064910889e-02,1.099235378205776215e-02,4.115840420126914978e-02,-5.219516530632972717e-02,-3.749267011880874634e-02,5.418449174612760544e-03,8.453832007944583893e-03,3.622158616781234741e-02,-4.701564460992813110e-02,-5.155309662222862244e-02,-2.327792905271053314e-02,1.071447506546974182e-02,-3.677740320563316345e-02,2.758052013814449310e-02,-2.876671031117439270e-02,-1.892993692308664322e-03,1.553603261709213257e-02,3.281560540199279785e-02,3.131789714097976685e-02,6.847388576716184616e-03,-6.432378292083740234e-02,6.347285583615303040e-03,1.823017559945583344e-02,-5.988204106688499451e-02,-1.959627866744995117e-02,-3.211399540305137634e-02,4.539327695965766907e-02,-1.729156449437141418e-02,-2.834945917129516602e-02,-5.944262072443962097e-02,-1.530364807695150375e-02,2.956267260015010834e-02,-6.515310704708099365e-02,9.654470486566424370e-04,-5.128508806228637695e-02,2.651019580662250519e-02,1.694724708795547485e-02,-1.534047722816467285e-02,-1.677627325989305973e-03,-2.810219116508960724e-02,3.012092784047126770e-02,1.425315346568822861e-02,-1.181074697524309158e-02,-3.445179760456085205e-02,1.860516890883445740e-02,-3.498891741037368774e-02,4.448023810982704163e-02,-1.676215231418609619e-02,-8.454150706529617310e-02,-4.344730079174041748e-02,1.095484010875225067e-03,1.193901617079973221e-02,2.063637226819992065e-02,-1.037635188549757004e-02,6.312535703182220459e-02,-5.492659285664558411e-02,-6.284739077091217041e-02,-1.574201695621013641e-02,5.263251811265945435e-02,-3.086323104798793793e-02,-7.890157401561737061e-02,-1.952700316905975342e-02,-3.160252422094345093e-02,-2.005122229456901550e-02,2.509510330855846405e-02,-2.787684462964534760e-02,-3.794654738157987595e-03,-1.137042604386806488e-02,-3.874759748578071594e-02,3.645008429884910583e-02,2.345050498843193054e-02,6.175182294100522995e-03,2.940728701651096344e-02
2.469011768698692322e-02,7.839924097061157227e-02,-1.670559309422969818e-02,-5.276590120047330856e-03,2.465810440480709076e-02,-7.957313209772109985e-02,9.833013266324996948e-02,-2.141186269000172615e-04,2.224748767912387848e-02,-2.544445544481277466e-02,3.167110681533813477e-02,-6.308159232139587402e-02,1.376690622419118881e-02,-4.027996957302093506e-02,-7.881344296038150787e-03,1.825372874736785889e-02,3.752512484788894653e-02,3.860731376335024834e-03,1.079582236707210541e-02,1.817506179213523865e-02,-3.788704425096511841e-02,1.399442087858915329e-02,-4.040602222084999084e-02,-2.398718148469924927e-02,-3.542325645685195923e-02,1.193097978830337524e-02,-4.310667142271995544e-02,-2.832535654306411743e-03,-4.514605551958084106e-02,1.939940638840198517e-02,3.526482032611966133e-03,-1.057993806898593903e-02,-3.060817718505859375e-02,-1.042023301124572754e-02,1.566690206527709961e-02,2.548018842935562134e-02,6.785248965024948120e-02,-3.539469093084335327e-02,-1.609664969146251678e-02,-1.429595146328210831e-02,6.582530587911605835e-02,1.212247163057327271e-01,-7.472770754247903824e-03,9.466125629842281342e-03,1.293545775115489960e-02,-2.122717536985874176e-02,3.688314184546470642e-02,4.342391714453697205e-02,-5.351560562849044800e-02,-3.511159867048263550e-02,2.685276418924331665e-02,-3.741854056715965271e-02,1.635033986531198025e-03,-4.146550595760345459e-02,-9.326534718275070190e-02,6.729938834905624390e-02,-1.122984942048788071e-02,-8.058943599462509155e-02,-5.446978285908699036e-02,-6.527132540941238403e-02,-3.574561327695846558e-02,-3.968623280525207520e-02,-2.153501100838184357e-02,-6.594097614288330078e-02,2.138798497617244720e-02,4.044140223413705826e-03,-3.034168854355812073e-02,1.142226438969373703e-02,4.794011358171701431e-03,-5.393928661942481995e-02,-6.145105883479118347e-02,-3.471198678016662598e-02,-2.591573074460029602e-02,-2.952757291495800018e-02,4.967606067657470703e-02,-2.066958323121070862e-02,-2.582383342087268829e-03,2.403214201331138611e-02,5.026052147150039673e-02,-9.885072708129882812e-03,-1.590849645435810089e-02,-2.166596613824367523e-02,-3.774160146713256836e-02,-4.603386297821998596e-02,9.808384813368320465e-03,-4.902666434645652771e-02,-7.489967346191406250e-02,-2.175375353544950485e-03,4.294136539101600647e-02,3.770099580287933350e-02,6.042569503188133240e-02,-1.811506040394306183e-02,-1.406064443290233612e-02,-1.583825424313545227e-02,-1.536614913493394852e-02,-4.888667166233062744e-02,1.075522135943174362e-02,-1.505777123384177685e-03,-4.207522794604301453e-02,-5.114514380693435669e-02,-3.899952396750450134e-02,1.013366132974624634e-01,2.581967227160930634e-02,2.435547299683094025e-02,-1.105549000203609467e-02,8.282251656055450439e-02,-3.374328836798667908e-02,-1.007608603686094284e-02,4.394013434648513794e-02,4.454535897821187973e-03,3.723850473761558533e-02,-4.509533755481243134e-03,-7.212549448013305664e-02,9.695079177618026733e-03,-5.610134080052375793e-02,-4.749185591936111450e-02,1.495906058698892593e-02,-6.469325721263885498e-02,-2.319455891847610474e-02,-2.879221923649311066e-02,4.344458505511283875e-02,-2.730429731309413910e-02,-4.685998708009719849e-02,1.608237810432910919e-02,4.754881933331489563e-02,-6.128554232418537140e-03,-2.419913560152053833e-02,-1.619269698858261108e-02
2.365018427371978760e-02,9.783289581537246704e-02,-1.360140368342399597e-02,-1.229846104979515076e-02,1.912683621048927307e-02,8.959026075899600983e-03,3.802104294300079346e-02,-3.369401767849922180e-02,-4.578606784343719482e-02,-7.899771444499492645e-03,-3.764525428414344788e-02,-2.350925002247095108e-03,-5.895919748581945896e-04,-4.353492707014083862e-02,-3.702761605381965637e-02,1.538976468145847321e-02,2.980950102210044861e-02,-4.192122817039489746e-02,4.394220188260078430e-02,-4.148934781551361084e-02,2.885309047996997833e-02,-6.090507283806800842e-02,-3.685044648591428995e-04,-6.807322148233652115e-03,-2.783129736781120300e-02,-2.493660198524594307e-03,-3.615654259920120239e-02,7.029264420270919800e-02,1.950862631201744080e-02,-4.441012069582939148e-02,-6.606877595186233521e-02,2.615794166922569275e-02,1.443103048950433731e-02,8.296295069158077240e-03,1.770722866058349609e-02,-1.671313494443893433e-02,-3.234599530696868896e-02,3.964353352785110474e-02,-3.575628623366355896e-02,-3.063690150156617165e-03,8.059469610452651978e-02,-1.862364821135997772e-02,3.738928958773612976e-02,-6.233214959502220154e-02,-5.615880712866783142e-02,-3.578051924705505371e-02,-8.583509922027587891e-02,5.358001589775085449e-02,-6.820965558290481567e-02,1.671711914241313934e-02,-2.106390893459320068e-02,-2.184504456818103790e-02,-2.647331915795803070e-02,-5.756895523518323898e-03,2.175298723159357905e-04,-2.817303501069545746e-02,-3.853891044855117798e-02,-9.198284707963466644e-03,-5.197294428944587708e-02,-1.881412416696548462e-02,3.762268275022506714e-02,-6.623129546642303467e-02,7.123903837054967880e-03,5.421799607574939728e-03,-8.720223791897296906e-03,9.639296331442892551e-04,5.158829037100076675e-03,-4.153339192271232605e-02,5.269016698002815247e-02,-8.357016369700431824e-03,-7.158147543668746948e-02,4.904786497354507446e-02,4.183865711092948914e-02,-3.342970088124275208e-02,5.483365431427955627e-02,-3.486006334424018860e-02,-4.152451455593109131e-02,4.022683575749397278e-02,-3.133972734212875366e-02,9.664985537528991699e-02,-6.269811838865280151e-02,2.658608369529247284e-03,-4.873280599713325500e-02,-3.945425152778625488e-03,2.089570835232734680e-02,1.359897200018167496e-02,-1.900092512369155884e-02,-5.725249648094177246e-02,-4.739342629909515381e-02,5.672029685229063034e-03,3.986078500747680664e-02,-1.979735866189002991e-02,3.908435814082622528e-03,-2.710063708946108818e-03,1.543977204710245132e-02,-4.267542064189910889e-02,2.098013879731297493e-03,-4.037246480584144592e-02,7.074214983731508255e-03,6.527047604322433472e-02,-7.226046919822692871e-02,1.492173671722412109e-01,-5.442113056778907776e-02,5.189502611756324768e-03,-1.795792393386363983e-02,5.312855355441570282e-03,-1.492513157427310944e-02,-2.423227205872535706e-02,-2.537495223805308342e-03,9.540181607007980347e-02,3.662538528442382812e-02,-1.754217222332954407e-02,-7.392044644802808762e-03,-4.251147434115409851e-02,-2.977818250656127930e-03,-1.452694740146398544e-02,-6.678412109613418579e-02,9.677123278379440308e-03,-6.084826216101646423e-02,-6.111777573823928833e-02,-6.859970092773437500e-02,2.846743538975715637e-02,-3.207207471132278442e-02,-4.372840002179145813e-02,6.493586301803588867e-02,-4.089844226837158203e-02,8.874734863638877869e-03,-5.636404827237129211e-02
-3.606448322534561157e-02,7.088974118232727051e-02,3.474229946732521057e-02,-7.994719780981540680e-03,-8.942781714722514153e-04,-7.531134039163589478e-02,6.192985177040100098e-02,-3.102192468941211700e-02,-3.956268727779388428e-02,-1.753270998597145081e-02,-3.979300335049629211e-02,-4.718242213129997253e-02,-2.932070568203926086e-02,-1.773526892066001892e-02,-4.218687862157821655e-02,-6.040827929973602295e-02,-1.785247400403022766e-02,-4.664661735296249390e-02,-3.401212021708488464e-02,-3.751099854707717896e-02,-2.229765430092811584e-02,-2.193522267043590546e-02,-7.030678912997245789e-03,-6.174844130873680115e-02,3.259744727984070778e-03,2.480624988675117493e-02,-2.656233496963977814e-02,-1.100769266486167908e-02,-3.023573895916342735e-03,-1.395989954471588135e-02,2.566501498222351074e-03,-2.049836330115795135e-02,-2.111860923469066620e-02,4.091776907444000244e-03,-8.233383297920227051e-02,-6.867417693138122559e-02,-6.370481103658676147e-02,-5.182163044810295105e-02,-7.085566222667694092e-02,4.743419587612152100e-02,6.849472969770431519e-02,-3.068476542830467224e-02,-5.360813066363334656e-02,1.840311847627162933e-02,-3.247499093413352966e-02,-1.071546040475368500e-02,-4.149459302425384521e-02,6.601010449230670929e-03,-5.688967928290367126e-02,-2.707786299288272858e-02,-4.594681411981582642e-02,-5.009900033473968506e-02,-5.006868764758110046e-02,-7.097560912370681763e-02,-1.783769764006137848e-02,5.679318308830261230e-02,-4.245744273066520691e-02,-1.588144153356552124e-02,-1.278651412576436996e-02,4.291188716888427734e-02,-4.801751114428043365e-03,-2.870820695534348488e-03,-5.299783498048782349e-02,5.849814787507057190e-02,1.093323156237602234e-02,-1.466703880578279495e-02,-2.228541672229766846e-02,-3.963867574930191040e-02,-8.375984430313110352e-02,-2.072148770093917847e-02,1.949978992342948914e-02,-2.930046990513801575e-02,-6.458719819784164429e-02,-3.834484145045280457e-02,2.807304263114929199e-02,5.961458198726177216e-03,1.397188566625118256e-02,-6.343477964401245117e-02,-6.028621923178434372e-03,5.742983426898717880e-03,4.179919138550758362e-02,-7.606454938650131226e-02,-3.843734413385391235e-02,-1.866995543241500854e-02,-9.630169719457626343e-03,-1.018293015658855438e-02,3.148041665554046631e-02,-1.680046506226062775e-02,-5.595663562417030334e-02,2.035536803305149078e-03,9.776462614536285400e-02,-3.587417537346482277e-03,-3.060338087379932404e-02,2.532429434359073639e-02,1.852221600711345673e-02,-4.643470048904418945e-03,3.140654414892196655e-02,-5.072493106126785278e-03,-3.591134771704673767e-02,1.191950403153896332e-03,-3.995987121015787125e-03,-3.061941266059875488e-02,-2.475368231534957886e-02,8.904006332159042358e-03,-4.637233912944793701e-02,-4.753827676177024841e-02,-4.246518388390541077e-02,-1.462020445615053177e-02,-2.244922704994678497e-02,3.338447213172912598e-02,-1.526186475530266762e-03,-2.064016275107860565e-02,2.365136286243796349e-03,-6.636910606175661087e-03,-1.829546689987182617e-02,-4.540131613612174988e-02,-1.364135928452014923e-02,3.237466514110565186e-02,-7.110466808080673218e-02,1.253551337867975235e-02,9.183271974325180054e-02,-3.973928466439247131e-02,3.193292766809463501e-02,-5.543598532676696777e-02,-8.845337480306625366e-02,-2.059383317828178406e-03,2.832768112421035767e-02,-4.472799226641654968e-02
-3.183083608746528625e-02,-7.254600990563631058e-03,-7.186543941497802734e-02,2.079582307487726212e-03,-1.769272610545158386e-03,-5.277878046035766602e-02,3.064424358308315277e-02,2.923085913062095642e-02,-3.122349455952644348e-02,-8.468660525977611542e-03,-4.084442555904388428e-02,-9.410556405782699585e-03,-6.222086399793624878e-02,1.192654576152563095e-02,2.480088919401168823e-02,-6.499926745891571045e-02,-4.753952380269765854e-03,-1.627997145988047123e-03,-3.220871463418006897e-02,9.343234822154045105e-03,-3.454864397644996643e-02,-1.807296834886074066e-02,1.008837390691041946e-02,-7.394185662269592285e-02,-9.989848360419273376e-03,-4.283484071493148804e-02,-2.213225932791829109e-03,-2.775584906339645386e-02,-7.780870422720909119e-03,-2.411414496600627899e-02,-1.375334430485963821e-02,-4.822050034999847412e-02,-1.010435260832309723e-02,-3.209883719682693481e-02,-4.360432177782058716e-02,4.061742126941680908e-02,-8.871787227690219879e-03,-5.666314437985420227e-02,4.437869042158126831e-02,4.097327217459678650e-02,3.016931749880313873e-02,-8.748790621757507324e-02,-3.708074986934661865e-02,-5.709635838866233826e-02,5.433001741766929626e-02,7.592236623167991638e-03,-1.583922654390335083e-02,5.067136138677597046e-02,-4.059385135769844055e-02,2.285455539822578430e-02,2.729924954473972321e-02,3.801560774445533752e-02,-2.420984907075762749e-03,-3.091306053102016449e-02,-4.057537391781806946e-02,1.164345964789390564e-01,1.139731146395206451e-03,-4.467274621129035950e-02,3.663313388824462891e-02,-3.001244366168975830e-02,-1.177629530429840088e-01,-5.131806060671806335e-02,-2.601914107799530029e-02,2.996518649160861969e-02,1.540789566934108734e-02,-1.019335538148880005e-01,1.257652416825294495e-02,4.687038809061050415e-02,2.818726003170013428e-02,3.569317050278186798e-04,-6.089312210679054260e-02,-1.002912968397140503e-01,-2.055544219911098480e-02,-2.745235525071620941e-02,1.501939818263053894e-02,-1.033091917634010315e-02,-1.975900679826736450e-02,-1.294272672384977341e-02,2.005094848573207855e-02,-4.622288048267364502e-02,-4.162051901221275330e-02,-5.490716546773910522e-02,2.518202736973762512e-02,-2.281917072832584381e-02,-1.038168463855981827e-02,-6.949731707572937012e-02,-2.349768951535224915e-02,4.310718923807144165e-02,-5.093876272439956665e-02,-2.231338061392307281e-02,3.175032511353492737e-02,5.399515479803085327e-02,-2.882805885747075081e-03,1.985308900475502014e-02,-9.971942752599716187e-03,1.000336837023496628e-02,-8.059944957494735718e-03,8.109112270176410675e-03,-3.681908547878265381e-02,-8.732214570045471191e-02,-1.566772349178791046e-02,2.363773994147777557e-02,3.132821619510650635e-02,-7.303707301616668701e-02,3.410566598176956177e-02,1.061233691871166229e-02,-2.871836721897125244e-02,-4.327098280191421509e-02,3.284206148236989975e-03,-1.087907701730728149e-02,-2.530737407505512238e-02,1.174645218998193741e-02,2.112182229757308960e-02,-2.319718338549137115e-02,3.447136282920837402e-02,2.200089767575263977e-02,2.734800428152084351e-02,-2.896515419706702232e-03,-3.533345414325594902e-03,3.358842805027961731e-03,4.644600208848714828e-03,-2.676901174709200859e-03,-4.361337795853614807e-02,-1.809299341402947903e-03,5.424023140221834183e-03,2.646215260028839111e-02,-6.543719768524169922e-02,-1.383377984166145325e-02
1.315418537706136703e-02,-3.470521420240402222e-02,-5.125661939382553101e-02,-3.875824064016342163e-02,-3.463222458958625793e-02,3.251871839165687561e-02,6.940721720457077026e-02,4.229515418410301208e-02,-3.411321714520454407e-02,-5.700486898422241211e-02,2.500141505151987076e-03,-3.214558213949203491e-02,1.882120780646800995e-02,-9.114276617765426636e-03,1.301588024944067001e-02,-5.674264580011367798e-02,4.047883674502372742e-03,6.117397919297218323e-03,1.992529071867465973e-02,-2.585465647280216217e-02,-3.221489116549491882e-02,-4.210732877254486084e-02,-1.085759699344635010e-02,4.698789119720458984e-02,2.845664694905281067e-02,-3.945856913924217224e-02,3.491128794848918915e-03,-1.422988530248403549e-02,2.839295193552970886e-04,-5.597698315978050232e-02,-7.383724302053451538e-02,-1.350531447678804398e-02,3.186104074120521545e-02,-4.008200019598007202e-02,-5.940532311797142029e-03,-8.442242443561553955e-02,-1.488293241709470749e-02,1.444851234555244446e-02,1.434426568448543549e-02,2.714990079402923584e-02,1.231108047068119049e-02,-2.918928489089012146e-02,-6.068442389369010925e-02,8.469912223517894745e-03,7.473292946815490723e-02,3.407372534275054932e-02,-5.441650748252868652e-02,9.857862442731857300e-02,-2.831708826124668121e-02,-3.715980052947998047e-02,-7.022150792181491852e-03,-5.889031663537025452e-02,2.716827671974897385e-03,-1.876652240753173828e-02,1.493904180824756622e-02,-6.423469167202711105e-03,-2.170249819755554199e-02,-4.664367809891700745e-02,2.892992645502090454e-02,-5.247400328516960144e-02,2.246327698230743408e-02,-4.634319618344306946e-02,4.805741086602210999e-02,4.245558287948369980e-03,-4.972058348357677460e-03,3.271463140845298767e-02,2.100468054413795471e-02,3.775436431169509888e-02,-1.064279023557901382e-02,-6.322658155113458633e-03,-2.047047764062881470e-02,-4.343472048640251160e-02,-1.219572592526674271e-02,-3.634276613593101501e-02,-4.825709387660026550e-02,-1.344787050038576126e-02,-4.751743376255035400e-02,1.991620846092700958e-02,-1.839403249323368073e-02,-1.562533341348171234e-02,-4.800251871347427368e-02,2.739658951759338379e-02,-6.711176782846450806e-02,-1.950287260115146637e-02,4.621240776032209396e-03,1.423171721398830414e-02,-4.985676333308219910e-02,1.593828201293945312e-02,-7.001657038927078247e-02,3.293531760573387146e-02,6.128823012113571167e-02,-1.757520064711570740e-02,3.380786627531051636e-02,3.487953916192054749e-02,-6.012484431266784668e-02,2.879292704164981842e-02,2.636329643428325653e-02,-4.672392457723617554e-02,-4.618503525853157043e-02,-3.144961548969149590e-03,-1.742881909012794495e-02,-6.174641475081443787e-02,2.298291400074958801e-02,-7.349886745214462280e-02,-4.243193194270133972e-02,1.166000310331583023e-02,1.067686825990676880e-02,-1.966101117432117462e-02,-6.982097029685974121e-02,9.797157719731330872e-03,-8.900630287826061249e-03,-7.072573155164718628e-02,-1.724168285727500916e-02,-1.003438793122768402e-02,-1.787164248526096344e-02,1.787909679114818573e-02,3.008821792900562286e-02,1.029386557638645172e-02,-3.601782023906707764e-02,-5.279491096735000610e-02,-3.615945205092430115e-02,-4.066827520728111267e-02,1.388696860522031784e-02,-2.943695522844791412e-02,-2.193253021687269211e-03,2.148251608014106750e-02,-5.319523438811302185e-02,-3.011352196335792542e-02
1.672665774822235107e-02,-5.461134482175111771e-03,2.498818933963775635e-02,-9.333582222461700439e-02,5.360238254070281982e-03,-1.334667019546031952e-02,1.553952042013406754e-02,-4.351702705025672913e-02,-1.966885477304458618e-02,-1.606180681847035885e-03,5.566327366977930069e-03,-3.675323724746704102e-02,-1.938905753195285797e-02,-2.916830824688076973e-03,1.107659563422203064e-02,9.961114265024662018e-03,-6.363228429108858109e-03,-5.227737128734588623e-03,-3.814471419900655746e-03,6.826196797192096710e-03,8.979906886816024780e-02,6.773113459348678589e-02,9.024725295603275299e-03,-3.509392589330673218e-02,4.147501289844512939e-02,-3.537974506616592407e-02,5.589134618639945984e-02,3.131779376417398453e-03,3.112741373479366302e-02,1.041997876018285751e-02,3.072221297770738602e-03,-3.458148613572120667e-02,6.062767654657363892e-02,-2.717681787908077240e-02,-7.621986418962478638e-02,-2.372299879789352417e-02,-2.608955837786197662e-02,-9.133921004831790924e-03,-6.905597448348999023e-02,6.617220491170883179e-02,2.417910145595669746e-03,-4.679539054632186890e-02,-5.581273138523101807e-02,5.017141345888376236e-03,-6.240980699658393860e-02,-3.244576044380664825e-03,-6.053875666111707687e-03,-6.964048743247985840e-02,-1.888543926179409027e-02,-1.994307711720466614e-02,-5.307893827557563782e-02,-1.227430533617734909e-02,-1.566910929977893829e-02,-5.303652584552764893e-02,-3.508023545145988464e-02,2.767564170062541962e-02,9.019218385219573975e-03,-1.290546543896198273e-02,-4.041805863380432129e-03,3.063749708235263824e-02,-2.923771739006042480e-02,2.853815816342830658e-02,-9.631674038246273994e-04,9.349672496318817139e-02,-3.734269365668296814e-02,2.022542245686054230e-02,-5.258981604129076004e-03,-2.249305509030818939e-02,6.745170056819915771e-02,-1.514919288456439972e-02,-3.053983673453330994e-02,9.600460529327392578e-03,-1.725366152822971344e-02,-4.959296062588691711e-02,1.873557083308696747e-02,4.367779940366744995e-02,6.372427940368652344e-02,-5.443088337779045105e-02,-3.296301141381263733e-02,2.055587712675333023e-03,-5.815983936190605164e-02,-1.475349254906177521e-02,-1.856942474842071533e-02,3.242351487278938293e-02,1.374060520902276039e-03,2.807578258216381073e-02,-4.754183813929557800e-02,-5.260542407631874084e-02,1.807807385921478271e-02,1.755695790052413940e-01,-2.201694808900356293e-02,9.665995836257934570e-03,-6.589318066835403442e-02,-4.259194247424602509e-03,1.000540610402822495e-02,-8.426670730113983154e-02,-4.481168463826179504e-03,3.271528752520680428e-03,8.601165376603603363e-03,-3.779258951544761658e-02,-7.540682703256607056e-02,-1.334975566715002060e-02,1.867199130356311798e-02,-7.966545969247817993e-02,-3.776803612709045410e-03,-2.002799510955810547e-02,2.936864085495471954e-02,-2.510895207524299622e-02,-4.984299093484878540e-02,-1.557774282991886139e-02,6.266237795352935791e-02,1.402585394680500031e-02,-1.451740507036447525e-02,-6.243183091282844543e-02,-4.046901315450668335e-02,1.178799313493072987e-03,7.427459210157394409e-02,4.013604484498500824e-03,4.055745527148246765e-02,-2.678196690976619720e-02,1.033180877566337585e-01,3.663758561015129089e-02,-9.093510918319225311e-03,-1.348485425114631653e-02,6.016358733177185059e-02,-1.417727954685688019e-02,4.993535950779914856e-02,-8.370882831513881683e-03
-6.622676271945238113e-03,3.437703941017389297e-03,-7.499863952398300171e-02,-5.833763629198074341e-02,-1.794674247503280640e-02,-6.083711236715316772e-02,2.391671016812324524e-02,-3.913704305887222290e-02,-1.544199511408805847e-02,2.473375201225280762e-02,2.902577258646488190e-02,1.322330441325902939e-02,-4.075442627072334290e-02,-2.999490872025489807e-02,-2.413978427648544312e-02,-3.694856166839599609e-02,-5.054463073611259460e-02,1.345860119909048080e-02,2.917859517037868500e-02,-2.040744200348854065e-02,5.807886645197868347e-02,4.923431575298309326e-02,2.787723392248153687e-02,-1.506396220065653324e-03,2.747769467532634735e-02,-5.382880568504333496e-02,3.068725019693374634e-02,-7.736664265394210815e-03,1.562661305069923401e-02,-2.636717446148395538e-02,2.128625847399234772e-02,-2.231476642191410065e-02,4.854991659522056580e-02,-7.678387314081192017e-02,-4.818624630570411682e-02,3.638124093413352966e-02,-3.899504244327545166e-02,8.705827407538890839e-03,-8.235384523868560791e-02,4.616035148501396179e-02,-2.823943039402365685e-03,3.168488666415214539e-02,-7.337389141321182251e-02,6.323023699223995209e-03,-9.674632921814918518e-03,8.083248510956764221e-03,-9.659928269684314728e-03,7.305691018700599670e-03,-1.994092389941215515e-02,-1.229295413941144943e-02,-1.677984744310379028e-02,-7.621761877089738846e-03,-6.327550113201141357e-02,-7.164593040943145752e-02,-2.515374682843685150e-02,3.703709691762924194e-02,-1.176123227924108505e-02,3.241039812564849854e-02,-1.757252030074596405e-02,-4.696087446063756943e-03,-1.028092652559280396e-01,-7.744887378066778183e-03,1.128383632749319077e-02,4.644889757037162781e-02,-3.128289803862571716e-02,-4.087886214256286621e-02,1.919643953442573547e-03,-2.005936764180660248e-02,1.008278429508209229e-01,-4.663612321019172668e-02,-6.515827775001525879e-02,1.717081875540316105e-03,-4.369854554533958435e-02,2.303049899637699127e-02,-2.997563965618610382e-02,2.801484242081642151e-02,-4.699712735600769520e-04,-3.077454864978790283e-02,2.919674292206764221e-02,-4.353106021881103516e-02,1.911815255880355835e-02,-1.279069483280181885e-02,3.049608878791332245e-02,-2.651708899065852165e-03,-3.437420353293418884e-02,-3.489172458648681641e-02,-6.840606778860092163e-02,-3.854414820671081543e-02,-7.836720906198024750e-03,4.377798363566398621e-02,3.095649369060993195e-02,-4.445111379027366638e-02,5.545868538320064545e-03,-3.658537194132804871e-02,-5.424970760941505432e-02,-2.571866661310195923e-02,-1.644987612962722778e-02,-1.750526949763298035e-02,-3.990017250180244446e-02,-3.669422864913940430e-02,-7.399473339319229126e-02,1.253479439765214920e-02,-5.615653097629547119e-02,-4.854669421911239624e-02,-3.135820478200912476e-02,-3.496805205941200256e-02,4.229440912604331970e-02,-7.720158994197845459e-02,-3.012827970087528229e-02,3.457066789269447327e-02,-3.235411271452903748e-02,-4.690151661634445190e-03,-2.848274540156126022e-03,-2.820075675845146179e-02,-6.815007422119379044e-03,-2.126042731106281281e-02,-1.242757961153984070e-02,-4.003527574241161346e-03,-4.323779791593551636e-02,-3.698872774839401245e-02,-3.321615746244788170e-03,-2.374637313187122345e-02,3.255562111735343933e-02,4.167413339018821716e-02,-1.598816551268100739e-02,-2.221389114856719971e-02,-1.309795305132865906e-02,-2.045318298041820526e-02
-8.101090788841247559e-04,-3.366643190383911133e-02,-7.003495097160339355e-02,1.333884662017226219e-03,-6.837370246648788452e-02,-1.026031151413917542e-01,-6.187424995005130768e-03,-2.332325652241706848e-02,-1.118467282503843307e-02,2.302566543221473694e-02,-2.197683416306972504e-02,-2.984343469142913818e-02,-2.384894154965877533e-02,-8.355103433132171631e-03,2.186196669936180115e-02,2.439975971356034279e-03,-5.104886740446090698e-02,-2.847010083496570587e-02,-4.607994109392166138e-03,-5.226255860179662704e-03,1.750910133123397827e-01,3.226473554968833923e-02,5.803676322102546692e-02,-3.661480918526649475e-02,2.978897187858819962e-03,3.252043202519416809e-02,-1.691190712153911591e-02,2.437550574541091919e-02,-5.780376121401786804e-02,2.785318344831466675e-02,-5.979383736848831177e-02,4.928778111934661865e-02,3.071422688663005829e-02,2.118972316384315491e-02,5.068090930581092834e-02,4.895590245723724365e-04,2.980701811611652374e-02,-5.063508823513984680e-02,-7.063032686710357666e-02,1.281559914350509644e-01,2.652832493185997009e-02,-4.153142124414443970e-02,-9.784063696861267090e-02,-2.234697714447975159e-02,-4.047537595033645630e-02,3.115765750408172607e-02,3.302677720785140991e-02,-6.112892553210258484e-02,-1.341092493385076523e-02,-1.736728660762310028e-02,-3.415885940194129944e-02,-4.077840596437454224e-02,3.847445128485560417e-03,-3.930484876036643982e-02,5.356887122616171837e-04,1.354283839464187622e-02,-1.894747279584407806e-02,1.638318412005901337e-02,2.443617675453424454e-03,-4.193500615656375885e-03,-4.714114591479301453e-02,3.021510131657123566e-02,3.963618353009223938e-02,1.024082452058792114e-01,-2.787175588309764862e-02,-2.839964628219604492e-02,1.067701261490583420e-02,-8.973280899226665497e-03,4.215421527624130249e-02,-1.100559011101722717e-01,-5.148591473698616028e-03,-4.066192358732223511e-02,-3.152583539485931396e-02,4.730390850454568863e-03,-3.818026185035705566e-02,9.559221565723419189e-03,-2.314365468919277191e-02,4.668088164180517197e-03,-2.796512329950928688e-03,1.243056729435920715e-02,4.043853655457496643e-02,-1.648711413145065308e-02,-2.914331108331680298e-02,-5.667009577155113220e-02,1.828001253306865692e-02,-2.026019245386123657e-02,-2.596216835081577301e-02,-7.056641578674316406e-02,2.820445410907268524e-02,9.822512976825237274e-03,6.990451831370592117e-03,1.160567812621593475e-02,1.141953095793724060e-02,-2.948004752397537231e-02,1.064448431134223938e-02,-1.592893898487091064e-02,4.049806669354438782e-02,-3.321638330817222595e-02,-1.959612034261226654e-02,-6.205667182803153992e-02,-5.786990001797676086e-02,8.918179199099540710e-03,-1.907673291862010956e-02,-4.484715312719345093e-02,-3.010050952434539795e-02,3.177394717931747437e-02,-3.463513031601905823e-02,3.564760088920593262e-03,-4.129989445209503174e-02,2.309013344347476959e-02,3.519108891487121582e-02,-2.644107304513454437e-02,-3.673740476369857788e-02,-4.026363044977188110e-02,2.488400600850582123e-02,-1.536366716027259827e-02,-2.730313129723072052e-02,-3.661937639117240906e-02,1.604372262954711914e-02,-8.445894345641136169e-03,1.365379337221384048e-02,-5.670263897627592087e-03,3.792337700724601746e-02,1.716004125773906708e-02,-3.042384609580039978e-02,1.400520280003547668e-02,1.249792892485857010e-02,1.191665045917034149e-02
4.838702082633972168e-02,-1.398098282516002655e-02,2.897076494991779327e-02,-2.773878723382949829e-02,6.501561030745506287e-03,-2.702812477946281433e-02,-3.066799230873584747e-02,-3.688286244869232178e-02,-8.973148465156555176e-02,1.367128570564091206e-03,-1.574973016977310181e-02,-5.048951134085655212e-02,-9.972066618502140045e-03,-7.449701428413391113e-02,2.005682699382305145e-02,1.382423844188451767e-02,-3.198504820466041565e-02,1.447407621890306473e-02,3.725241124629974365e-02,-7.066380977630615234e-02,-4.109442979097366333e-02,2.313630841672420502e-02,1.080419402569532394e-02,-2.746838517487049103e-02,1.363837346434593201e-02,-5.037055537104606628e-02,3.425939008593559265e-02,-1.193208526819944382e-02,2.222014032304286957e-02,-4.876052215695381165e-02,-2.997014485299587250e-02,-2.990729361772537231e-02,-3.815383836627006531e-02,2.078562602400779724e-02,-1.855793595314025879e-02,-4.526030644774436951e-02,-8.681333810091018677e-02,-6.137842312455177307e-03,-4.874635196756571531e-04,3.764116764068603516e-02,-2.065393887460231781e-02,8.563191629946231842e-03,-3.340629488229751587e-02,-2.459905296564102173e-02,-1.336720585823059082e-02,9.736396372318267822e-03,-2.642240934073925018e-02,-1.114115025848150253e-02,-2.069489285349845886e-02,1.648369431495666504e-02,-4.894471168518066406e-02,9.747356176376342773e-02,-3.958175703883171082e-02,-5.156407132744789124e-02,4.944515600800514221e-02,-3.874218463897705078e-02,-1.845359988510608673e-02,-3.268889337778091431e-02,-2.678218856453895569e-02,7.742732763290405273e-02,-3.766110911965370178e-02,1.242835726588964462e-02,-4.547718912363052368e-03,-1.299059484153985977e-02,-6.589691340923309326e-02,1.335793267935514450e-02,2.311319485306739807e-02,1.352054066956043243e-02,-2.334163524210453033e-02,-5.707684531807899475e-02,-3.427349403500556946e-02,3.470851806923747063e-03,-1.401515305042266846e-02,2.217017486691474915e-02,-1.109928265213966370e-02,-4.732484370470046997e-02,2.809487096965312958e-02,3.060991317033767700e-02,-2.895953133702278137e-02,-4.470612481236457825e-02,-3.210696578025817871e-02,-4.300145804882049561e-02,1.051398552954196930e-02,-2.235128358006477356e-02,-1.524052117019891739e-02,-5.039307475090026855e-02,-2.303465269505977631e-02,3.720492497086524963e-02,-3.326058015227317810e-02,-8.368961513042449951e-03,2.672961167991161346e-02,3.078090399503707886e-02,-2.426887862384319305e-02,2.110916748642921448e-02,-4.263920336961746216e-02,-4.193815216422080994e-02,-3.629708662629127502e-02,3.860314562916755676e-02,-5.200907588005065918e-02,-2.048365585505962372e-02,3.166083479300141335e-03,-2.152111381292343140e-02,-1.835142262279987335e-02,-6.187550723552703857e-02,-5.898305773735046387e-02,8.688543736934661865e-02,-5.493288859724998474e-03,3.905387595295906067e-03,-2.963847108185291290e-02,3.452115878462791443e-02,2.076636627316474915e-02,2.815941162407398224e-02,6.041888892650604248e-02,-3.403278440237045288e-02,-3.405546396970748901e-02,6.097495555877685547e-02,-5.093553662300109863e-02,-1.410055626183748245e-02,7.155039347708225250e-03,-5.067169293761253357e-02,-4.455472528934478760e-02,-3.455360606312751770e-02,2.810862846672534943e-02,3.349060565233230591e-02,-9.500159882009029388e-03,3.321509808301925659e-02,-2.574435807764530182e-02,-1.663801074028015137e-02
2.828226611018180847e-02,-1.038847118616104126e-02,-4.583921656012535095e-02,-1.018185075372457504e-02,-2.515201270580291748e-02,-2.744696103036403656e-02,3.296761959791183472e-02,-4.174932464957237244e-02,-5.290973559021949768e-02,1.401450578123331070e-02,5.270584300160408020e-02,-2.807860635221004486e-02,2.323293685913085938e-02,1.091700978577136993e-02,2.097137644886970520e-02,-1.583735831081867218e-02,1.643946208059787750e-02,-3.616799414157867432e-02,5.480731371790170670e-03,-1.002932526171207428e-02,-2.668119035661220551e-02,-2.637209370732307434e-02,-5.629412829875946045e-03,-1.562065444886684418e-02,-5.979217588901519775e-02,-4.118710383772850037e-02,3.349770233035087585e-02,-3.871206566691398621e-02,-3.242439031600952148e-02,3.571480512619018555e-02,-3.020951896905899048e-02,1.664411462843418121e-02,-9.154269471764564514e-03,3.649360686540603638e-02,5.258990451693534851e-03,5.002928432077169418e-03,-4.857840389013290405e-02,-4.177381843328475952e-02,-1.171369943767786026e-02,-7.492123986594378948e-04,-6.688287854194641113e-02,-4.772411659359931946e-02,-4.115318879485130310e-02,-2.826589532196521759e-02,-2.698298916220664978e-02,-2.162963896989822388e-02,5.576838552951812744e-02,2.545802481472492218e-02,9.235722012817859650e-03,1.403957139700651169e-03,-2.544568106532096863e-02,8.548188954591751099e-02,4.518916457891464233e-02,-4.650991410017013550e-02,-3.030115738511085510e-03,-2.983402460813522339e-02,5.239508580416440964e-03,1.592477783560752869e-02,3.908492159098386765e-03,-6.800910923629999161e-03,-6.161900237202644348e-02,-4.016454890370368958e-02,2.363684214651584625e-02,5.749106407165527344e-03,3.415445564314723015e-03,-3.432873263955116272e-02,-4.801544826477766037e-03,4.881596565246582031e-02,-9.920437820255756378e-03,-9.867764078080654144e-03,-1.475275587290525436e-02,-1.295722555369138718e-02,1.799598708748817444e-02,1.623990572988986969e-02,-7.456889003515243530e-02,-5.802053492516279221e-03,-4.675897583365440369e-02,1.675640419125556946e-02,2.865962684154510498e-02,1.391843892633914948e-02,2.969096787273883820e-02,7.484419643878936768e-02,-1.489833183586597443e-02,-5.080425739288330078e-02,-1.910064485855400562e-03,1.267201639711856842e-02,3.978169988840818405e-03,-3.344948962330818176e-02,-1.627398096024990082e-02,-3.418924659490585327e-02,-4.016324505209922791e-02,6.040940992534160614e-03,-4.214115068316459656e-02,-3.620100766420364380e-02,1.324787735939025879e-02,1.773525588214397430e-02,-1.826946809887886047e-02,7.856218144297599792e-03,9.046862833201885223e-03,-4.650592058897018433e-02,-3.159742802381515503e-02,-2.382854744791984558e-02,-1.273096725344657898e-02,-5.434131622314453125e-02,-1.744831539690494537e-02,4.439842887222766876e-03,4.416058212518692017e-02,1.450905855745077133e-02,5.399134010076522827e-03,2.669552154839038849e-02,-2.669127471745014191e-02,-2.359272539615631104e-02,3.347264602780342102e-02,-7.199085783213376999e-03,8.445502817630767822e-02,7.194133102893829346e-02,-4.922137036919593811e-02,5.797529127448797226e-03,-4.699214175343513489e-02,-5.419012531638145447e-02,-2.555614337325096130e-02,-1.114611048251390457e-02,-5.756330490112304688e-02,-5.643499270081520081e-02,-5.409421026706695557e-02,8.405427448451519012e-03,3.865925222635269165e-02,3.058553859591484070e-02
-2.463397011160850525e-02,-5.538614839315414429e-02,-2.447734028100967407e-02,3.973904624581336975e-02,-4.069012776017189026e-02,3.176470473408699036e-02,1.735609583556652069e-02,1.265329215675592422e-02,5.233325064182281494e-03,3.565144166350364685e-02,-4.518758133053779602e-02,4.883891716599464417e-02,-1.161389797925949097e-02,-1.145608630031347275e-02,-4.240905400365591049e-03,-2.554518543183803558e-02,-1.911577396094799042e-02,-3.878970444202423096e-02,-2.547732554376125336e-02,-3.119624592363834381e-02,5.424409639090299606e-03,-2.093251049518585205e-02,2.830497920513153076e-02,9.625649545341730118e-04,8.039623498916625977e-03,-3.660457953810691833e-02,1.647705771028995514e-02,2.130173705518245697e-02,-5.194064602255821228e-02,-3.152501583099365234e-02,-1.658448018133640289e-02,1.321307290345430374e-02,-3.327151015400886536e-02,-1.525605283677577972e-02,-3.755416348576545715e-02,1.793939247727394104e-02,-4.441608861088752747e-02,2.167795971035957336e-02,-2.321301773190498352e-02,-2.909074723720550537e-02,-1.869010739028453827e-02,5.137053504586219788e-02,-1.989077404141426086e-02,6.856332533061504364e-03,-1.702035195194184780e-03,-1.739325746893882751e-02,5.705126374959945679e-02,-1.270115375518798828e-02,2.333299443125724792e-02,-1.121381856501102448e-02,4.273910820484161377e-02,-2.409590221941471100e-02,7.075425982475280762e-02,-3.755489736795425415e-02,3.280731663107872009e-02,1.356813404709100723e-02,3.551949560642242432e-02,8.557450026273727417e-03,-2.151425555348396301e-02,3.933570906519889832e-02,7.943413220345973969e-03,-4.266240820288658142e-02,2.101261168718338013e-02,4.314734041690826416e-02,-3.583984076976776123e-02,3.999125678092241287e-03,-7.863542996346950531e-03,2.745348587632179260e-02,-1.405033003538846970e-02,-2.129126898944377899e-02,-1.429669465869665146e-02,-6.386886537075042725e-02,-3.209715476259589195e-03,-8.093005418777465820e-02,-4.570474475622177124e-02,-2.634450234472751617e-02,-4.454011563211679459e-03,1.468278188258409500e-02,6.555972993373870850e-02,-3.562810271978378296e-02,7.612718641757965088e-02,1.037751585245132446e-01,1.811055652797222137e-02,-3.917339723557233810e-03,-9.095858782529830933e-03,-8.444312959909439087e-02,-8.615440875291824341e-02,-1.522332546301186085e-03,-4.194061085581779480e-02,6.611157674342393875e-03,-2.259966358542442322e-02,-5.535437539219856262e-02,1.258222293108701706e-02,1.765355281531810760e-02,2.292722463607788086e-02,-1.588326692581176758e-02,-4.353062435984611511e-02,-5.151811987161636353e-03,-4.207307472825050354e-02,-3.042920678853988647e-02,2.631316334009170532e-02,2.511676959693431854e-02,-5.105927214026451111e-02,-4.969819635152816772e-02,-6.852979958057403564e-02,-1.867513358592987061e-02,3.832726553082466125e-02,1.736880652606487274e-02,-3.006879426538944244e-02,9.223649650812149048e-02,-4.209539294242858887e-02,3.338215500116348267e-02,7.326854765415191650e-02,2.224683202803134918e-02,-3.498829156160354614e-02,3.647973760962486267e-02,-7.169743627309799194e-02,-4.813143983483314514e-02,2.502031624317169189e-02,-3.145717829465866089e-02,2.194756641983985901e-02,-1.591714564710855484e-03,-1.849246025085449219e-02,-5.861246585845947266e-02,-5.001809820532798767e-02,-3.523629903793334961e-02,-1.091959234327077866e-02,-3.884768858551979065e-02
-1.726709865033626556e-02,1.224448904395103455e-02,7.825150154531002045e-03,6.439954042434692383e-03,-1.136136986315250397e-02,-2.572681382298469543e-02,-3.002877905964851379e-02,-3.815712034702301025e-02,3.645332902669906616e-02,-3.201344981789588928e-03,-1.163623668253421783e-02,1.027225237339735031e-02,-4.950885195285081863e-03,1.970838382840156555e-02,-3.501136973500251770e-02,-1.073706336319446564e-02,-1.065640226006507874e-01,-5.028477311134338379e-02,-1.305955555289983749e-02,-6.511451303958892822e-02,1.506261620670557022e-02,-2.812229469418525696e-02,-2.115371450781822205e-02,-3.051823005080223083e-02,-1.375490240752696991e-02,-5.947061628103256226e-02,-7.452805060893297195e-03,-3.098204731941223145e-02,-6.955107301473617554e-02,-2.113589271903038025e-02,2.986615151166915894e-02,-4.322185367345809937e-02,4.304046556353569031e-02,-1.857456006109714508e-02,-2.944563142955303192e-02,1.247222721576690674e-02,-4.587220773100852966e-02,-4.095155745744705200e-02,-4.108733963221311569e-03,-2.492232248187065125e-03,-2.085565775632858276e-02,9.781478345394134521e-02,-8.053342998027801514e-02,-4.125732462853193283e-03,2.977944444864988327e-03,-9.227706468664109707e-04,3.508701920509338379e-02,-8.151376619935035706e-03,7.487750798463821411e-02,-2.250422164797782898e-02,1.473858673125505447e-02,1.201766729354858398e-01,-5.146938934922218323e-02,7.423920929431915283e-02,-1.170357875525951385e-02,-4.937340319156646729e-02,-3.846572712063789368e-02,-9.299304336309432983e-03,4.803770687431097031e-03,-1.579621434211730957e-02,-3.364194184541702271e-02,-5.407060962170362473e-03,-2.390583977103233337e-02,-2.268790081143379211e-02,1.277780439704656601e-02,-2.032098732888698578e-02,3.562203794717788696e-02,-2.705359272658824921e-02,4.778163880109786987e-02,-4.094490781426429749e-02,4.826600663363933563e-03,-8.894596248865127563e-03,5.599695816636085510e-02,4.098451510071754456e-02,7.812126423232257366e-04,-7.402084767818450928e-02,9.423512892681173980e-06,-1.500627677887678146e-02,-3.568238113075494766e-03,-3.034738264977931976e-02,-7.185508310794830322e-02,6.062016356736421585e-03,1.046458780765533447e-01,-1.977281831204891205e-02,-2.928059548139572144e-02,6.530452519655227661e-03,8.480766788125038147e-03,1.203812658786773682e-02,-7.133890688419342041e-02,-4.916438832879066467e-03,-1.903025060892105103e-02,3.772119805216789246e-02,-1.776652596890926361e-02,-3.693499788641929626e-02,2.078899927437305450e-02,-6.006509810686111450e-02,-4.030152410268783569e-02,2.586452849209308624e-02,-2.099568583071231842e-02,1.879563741385936737e-02,1.543333404697477818e-03,-1.926591806113719940e-02,1.964916102588176727e-02,-7.122788578271865845e-02,2.277155593037605286e-02,-3.134075785055756569e-03,-1.621792465448379517e-02,-3.541206941008567810e-02,-3.548634424805641174e-02,3.472591191530227661e-02,4.130376130342483521e-02,2.602264867164194584e-04,1.150283310562372208e-02,-1.292252726852893829e-02,-5.729565769433975220e-02,1.264091022312641144e-02,4.022727906703948975e-02,-1.713629439473152161e-02,-1.216544862836599350e-02,-5.108954757452011108e-02,-3.445876389741897583e-02,6.876166909933090210e-03,-4.000758286565542221e-03,3.103275038301944733e-02,5.948311090469360352e-02,-1.084131305105984211e-03,-3.316458687186241150e-02,2.264249883592128754e-02
-5.491247400641441345e-02,6.950020790100097656e-02,-2.309989556670188904e-02,-2.434779331088066101e-02,6.933577358722686768e-02,-5.035232752561569214e-02,-4.851952567696571350e-02,2.747960761189460754e-02,-7.430752366781234741e-02,-3.740834817290306091e-02,7.291532307863235474e-02,-1.988829858601093292e-02,-4.150376189500093460e-03,2.854599151760339737e-03,2.091934718191623688e-02,1.372416783124208450e-02,-9.803721308708190918e-02,1.221131347119808197e-02,2.120590023696422577e-02,-1.948965154588222504e-02,-2.133021503686904907e-02,-4.928239807486534119e-02,1.126758102327585220e-02,3.172127902507781982e-02,-2.722524106502532959e-02,-7.193151861429214478e-02,-6.580788176506757736e-03,8.280279114842414856e-03,1.397214550524950027e-02,-9.925917722284793854e-03,4.535611078608781099e-04,-2.692055329680442810e-02,-4.888775944709777832e-02,6.195347756147384644e-03,-8.845739066600799561e-03,-3.771946206688880920e-02,-6.916649639606475830e-02,-3.730894997715950012e-02,2.266336604952812195e-02,2.283112891018390656e-02,4.406985826790332794e-04,9.738278575241565704e-03,4.813981242477893829e-03,-6.563985347747802734e-02,4.803057014942169189e-02,3.832131624221801758e-02,5.241640657186508179e-02,-4.980693571269512177e-03,8.939726650714874268e-02,-1.070358604192733765e-02,-5.454654246568679810e-02,1.567697338759899139e-02,-6.500564049929380417e-03,5.944958701729774475e-02,1.220709364861249924e-02,4.867025185376405716e-03,6.395227741450071335e-03,4.073937423527240753e-03,-2.556239068508148193e-02,2.723946794867515564e-02,-3.783206641674041748e-02,6.739311665296554565e-02,-4.325333517044782639e-03,-3.988684713840484619e-02,-3.736757859587669373e-02,8.885179646313190460e-03,2.237543649971485138e-02,4.015327244997024536e-02,7.052171975374221802e-03,7.787542883306741714e-03,-3.041269443929195404e-02,-1.595457643270492554e-02,2.604077383875846863e-02,1.458608661778271198e-03,-1.269050594419240952e-02,-6.442853063344955444e-02,-5.499010905623435974e-02,-6.051101908087730408e-02,-3.528681397438049316e-02,-3.199959918856620789e-02,1.902357488870620728e-02,-1.970506645739078522e-02,2.550861425697803497e-02,-6.487718969583511353e-02,-6.439940538257360458e-03,4.877490922808647156e-02,-1.902562938630580902e-02,4.702477529644966125e-02,-6.379416584968566895e-02,-9.736634790897369385e-03,1.308294106274843216e-02,1.868437975645065308e-02,-2.339589037001132965e-02,-1.514760777354240417e-02,6.865998357534408569e-02,-1.620027795433998108e-02,9.577171877026557922e-03,1.964253745973110199e-02,-1.406066305935382843e-02,-1.105346344411373138e-02,8.316474966704845428e-03,6.825519353151321411e-02,-1.708288118243217468e-02,-4.600519314408302307e-02,-3.016117587685585022e-02,6.639685481786727905e-02,-5.767929553985595703e-02,-6.261492520570755005e-02,-4.245883971452713013e-02,-3.456618264317512512e-02,3.545900806784629822e-02,6.428956985473632812e-02,-6.959132850170135498e-02,-3.911641612648963928e-02,4.344388842582702637e-02,-3.977809846401214600e-02,5.942771676927804947e-03,-2.344023436307907104e-02,-1.776854507625102997e-02,-1.714627258479595184e-03,-2.282236516475677490e-02,-4.114188719540834427e-03,6.901189219206571579e-03,-2.985277771949768066e-02,-1.543578319251537323e-02,5.647345911711454391e-03,-3.182732313871383667e-02,-4.559608548879623413e-02
-2.037448436021804810e-02,7.386235147714614868e-02,-7.677150517702102661e-02,4.968784749507904053e-02,3.161648288369178772e-02,-1.210771314799785614e-02,2.124868892133235931e-02,-6.855527311563491821e-02,-1.713535748422145844e-02,-4.790229257196187973e-03,7.473193109035491943e-02,2.030619606375694275e-02,9.051973000168800354e-03,-2.980215102434158325e-02,-2.757898904383182526e-02,2.577841468155384064e-02,-6.518644839525222778e-02,3.058002330362796783e-02,-4.258200526237487793e-02,-7.362082600593566895e-02,-2.169113047420978546e-02,3.951829671859741211e-02,4.178760573267936707e-02,2.700226753950119019e-02,-3.639813885092735291e-02,3.786994609981775284e-03,-3.033330850303173065e-02,2.031930536031723022e-02,-6.859418936073780060e-03,1.119120139628648758e-02,-3.757213801145553589e-02,2.721773646771907806e-02,1.119679957628250122e-02,1.084253471344709396e-02,-3.956558555364608765e-02,8.052980899810791016e-02,-6.887188553810119629e-02,-7.164299488067626953e-02,-1.003357209265232086e-02,2.306415140628814697e-02,2.000664360821247101e-02,-1.004381338134407997e-03,-3.691102191805839539e-02,-3.522645309567451477e-02,-3.479231894016265869e-02,4.593223799020051956e-03,-3.873265814036130905e-03,-5.622795969247817993e-02,-3.700916096568107605e-02,4.145354405045509338e-02,-2.525513991713523865e-02,4.978022770956158638e-04,5.970731750130653381e-02,-1.458408497273921967e-02,-9.338752366602420807e-03,-2.197905443608760834e-02,3.689782321453094482e-02,3.344922140240669250e-02,-1.038648094981908798e-02,-6.647542864084243774e-02,1.886409334838390350e-02,-1.654603146016597748e-02,9.562923805788159370e-04,1.117118867114186287e-03,4.408894572407007217e-03,-4.310596734285354614e-02,4.072334989905357361e-02,1.790337450802326202e-02,-2.091060392558574677e-02,-9.364737197756767273e-03,-2.090677432715892792e-02,-3.320625051856040955e-02,4.610788077116012573e-02,-6.718755513429641724e-02,2.953766658902168274e-02,-5.636763572692871094e-02,-7.421687990427017212e-02,-4.413193091750144958e-02,4.493698477745056152e-02,-8.413831237703561783e-04,3.063982352614402771e-02,2.015355415642261505e-02,-6.383166462182998657e-02,-7.727468851953744888e-03,-4.911468923091888428e-02,2.231900580227375031e-02,-4.521804302930831909e-02,-1.580313220620155334e-02,-4.156830534338951111e-02,-4.723008256405591965e-03,-6.232771091163158417e-03,2.348594740033149719e-02,-4.527132213115692139e-02,-4.062364622950553894e-02,-5.466785654425621033e-02,-2.497535431757569313e-03,-4.333929717540740967e-02,6.635534111410379410e-03,-7.914306595921516418e-03,4.469063133001327515e-02,-2.269272506237030029e-02,1.353710796684026718e-02,-5.264683812856674194e-02,-3.880286589264869690e-02,-7.514663040637969971e-02,6.929399678483605385e-04,4.110421985387802124e-02,-4.235916212201118469e-02,-2.819157391786575317e-02,3.658400848507881165e-02,-2.545103989541530609e-02,1.644973084330558777e-02,-6.988149136304855347e-02,2.957097440958023071e-02,-5.360434576869010925e-02,-3.386245667934417725e-02,2.198972925543785095e-02,6.701720412820577621e-03,-1.197566837072372437e-02,4.455692134797573090e-03,-2.234687469899654388e-02,-3.065259382128715515e-02,-4.859501868486404419e-02,-3.176618739962577820e-02,7.703097164630889893e-02,-5.289232358336448669e-02,2.939598262310028076e-02,1.523036975413560867e-02
-2.935306355357170105e-02,3.131563216447830200e-02,-5.746349319815635681e-02,1.079765483736991882e-01,-6.550905108451843262e-02,-5.630544945597648621e-02,1.127209514379501343e-01,-2.541742473840713501e-02,-3.804981708526611328e-02,-2.836360037326812744e-02,2.570077776908874512e-02,3.246875107288360596e-02,-2.611750178039073944e-02,-8.028636872768402100e-02,-4.309385642409324646e-02,-2.460535429418087006e-02,-2.214202657341957092e-02,-5.157703533768653870e-03,2.264274097979068756e-02,-2.724324911832809448e-02,-1.236893795430660248e-02,-2.980930544435977936e-02,-1.822201721370220184e-02,-1.620802097022533417e-02,3.467527031898498535e-02,-5.642971023917198181e-02,2.228999324142932892e-02,3.212789818644523621e-02,-1.244495715945959091e-02,-6.688522547483444214e-02,4.570428654551506042e-02,-3.486469388008117676e-02,-8.201961405575275421e-03,-6.496550142765045166e-02,-7.208056747913360596e-02,-1.187830045819282532e-02,-3.946074098348617554e-02,-1.025327593088150024e-01,-3.127447888255119324e-02,5.706133693456649780e-02,-5.365494638681411743e-02,4.188699647784233093e-02,-5.325574055314064026e-02,2.532465383410453796e-02,2.395637705922126770e-02,-1.356331910938024521e-02,2.981531433761119843e-02,1.091220602393150330e-01,4.872879385948181152e-02,-9.411347098648548126e-03,-4.482532665133476257e-02,7.899996638298034668e-02,-3.719617053866386414e-02,-5.638372898101806641e-02,-2.322879433631896973e-02,5.404844135046005249e-02,3.963971138000488281e-02,-1.208542566746473312e-02,-3.998444974422454834e-02,8.810794912278652191e-03,-2.208207175135612488e-02,-5.709517747163772583e-02,2.805425040423870087e-02,-1.737084239721298218e-02,4.350573197007179260e-02,4.878773819655179977e-03,-4.906568303704261780e-02,9.013620764017105103e-02,-1.506432704627513885e-02,5.539288395084440708e-04,-6.350777298212051392e-02,1.913970336318016052e-02,-3.752071037888526917e-02,3.753058239817619324e-02,-1.314220204949378967e-02,4.057523980736732483e-02,2.395572140812873840e-02,1.364763174206018448e-02,-3.282622899860143661e-03,-5.074003711342811584e-02,-8.389032445847988129e-03,5.489384755492210388e-02,4.265965893864631653e-02,2.233071438968181610e-02,-3.191959112882614136e-02,-2.607243508100509644e-02,-1.277265045791864395e-02,-6.354980170726776123e-02,-1.776833459734916687e-02,3.486416861414909363e-02,1.717874407768249512e-01,-3.348014876246452332e-02,-1.801070943474769592e-02,-3.007116913795471191e-02,-1.807044446468353271e-02,-2.291500195860862732e-02,-2.852438390254974365e-02,-5.904503539204597473e-02,-5.044227093458175659e-02,-2.614556998014450073e-02,-3.800497576594352722e-02,1.321642994880676270e-01,2.916996832937002182e-03,-9.470184892416000366e-02,-2.251626923680305481e-03,7.155913859605789185e-02,-1.907065883278846741e-02,5.833205301314592361e-03,3.014337271451950073e-02,-1.988851837813854218e-02,-3.544087707996368408e-02,4.602055530995130539e-03,-1.745352894067764282e-02,1.900825765915215015e-03,-1.639588735997676849e-02,7.672651112079620361e-02,2.223487943410873413e-02,-4.360151663422584534e-02,-9.294559247791767120e-03,-2.191651426255702972e-02,-3.215727582573890686e-02,-4.785444587469100952e-03,1.725335605442523956e-02,-2.576444111764431000e-02,-2.297201938927173615e-02,3.465733677148818970e-02,-6.380058079957962036e-02,9.197705425322055817e-03
-2.810064144432544708e-02,7.617837190628051758e-02,-5.431722849607467651e-03,3.694787994027137756e-02,5.302837491035461426e-02,-4.284295439720153809e-02,5.347195640206336975e-02,2.872306481003761292e-02,1.031213905662298203e-02,-1.749555580317974091e-02,-4.232927225530147552e-03,-7.196501642465591431e-02,-6.856588181108236313e-03,-9.849452413618564606e-03,9.123127907514572144e-03,6.743428856134414673e-02,-3.724199952557682991e-03,1.615156233310699463e-02,7.709387689828872681e-02,-6.414587795734405518e-02,-5.713881552219390869e-02,-4.705644771456718445e-02,3.236974775791168213e-02,-8.682815730571746826e-02,-6.874158978462219238e-02,-2.103469707071781158e-02,-4.894050583243370056e-02,2.575949579477310181e-02,-3.214141726493835449e-02,7.763442583382129669e-03,-2.587397210299968719e-02,2.713622525334358215e-03,-1.721251383423805237e-02,-5.517647136002779007e-03,2.467732131481170654e-02,6.091843359172344208e-03,-5.556872580200433731e-03,-2.730286121368408203e-02,-4.548317939043045044e-02,-1.623387634754180908e-02,4.054182209074497223e-03,-5.984786432236433029e-03,-7.756767421960830688e-02,2.411176823079586029e-02,-2.097210288047790527e-02,-3.316533938050270081e-02,-7.515067700296640396e-03,1.011739969253540039e-01,-2.623767592012882233e-03,1.833987049758434296e-02,6.969351321458816528e-03,-3.107176348567008972e-02,-3.493224084377288818e-02,-5.399767681956291199e-02,7.085155695676803589e-03,-1.201864797621965408e-02,-3.786118701100349426e-02,-5.235931021161377430e-04,-7.067374885082244873e-02,-2.197546325623989105e-02,-1.220313739031553268e-02,9.675291366875171661e-03,6.005188822746276855e-02,-5.693139880895614624e-02,-2.906698733568191528e-02,-2.487536333501338959e-02,3.673652932047843933e-02,5.513229407370090485e-03,-1.708392373984679580e-04,2.136802673339843750e-02,-3.119328059256076813e-02,1.769001036882400513e-02,-3.614380955696105957e-03,-1.414003130048513412e-02,1.609912142157554626e-02,-5.900634080171585083e-02,-6.124911364167928696e-03,-9.528017602860927582e-03,-5.367576703429222107e-02,1.310495939105749130e-02,-8.478497155010700226e-03,-4.100739583373069763e-02,-7.691625505685806274e-03,-4.403044655919075012e-02,1.424690335988998413e-02,-2.702726237475872040e-02,-7.042017299681901932e-03,3.872522711753845215e-02,-6.904052942991256714e-02,-1.591799408197402954e-02,2.218226157128810883e-02,1.427286397665739059e-02,-1.888835802674293518e-02,-3.015409409999847412e-02,-4.908860474824905396e-02,4.302024096250534058e-02,-4.802032187581062317e-02,-4.172836244106292725e-02,1.401991490274667740e-02,-2.753640711307525635e-02,-4.238112643361091614e-02,5.996026098728179932e-02,-2.016028622165322304e-03,1.718552224338054657e-02,-2.670145034790039062e-02,6.989433616399765015e-02,-3.213237971067428589e-02,1.767847873270511627e-02,1.813420931284781545e-05,-3.436949849128723145e-02,-5.129474215209484100e-03,5.121907219290733337e-02,4.622174799442291260e-02,-1.105936318635940552e-01,-2.698750048875808716e-02,1.911757700145244598e-02,6.963471882045269012e-03,-2.122619934380054474e-02,1.718805916607379913e-02,5.458932369947433472e-02,-2.912192977964878082e-02,-3.085323981940746307e-02,-3.602057695388793945e-02,2.242353372275829315e-02,-1.820290088653564453e-02,-4.574116319417953491e-02,1.643151603639125824e-02,-6.660370156168937683e-03
-2.183126099407672882e-02,6.122959032654762268e-02,-1.006115321069955826e-02,-1.341404300183057785e-02,4.477349296212196350e-02,4.665602929890155792e-03,9.140907786786556244e-03,5.394250154495239258e-02,1.469666138291358948e-02,3.877151384949684143e-02,-1.088193710893392563e-02,4.992210865020751953e-02,-4.375357180833816528e-03,-3.750248253345489502e-02,6.285621318966150284e-03,1.156953424215316772e-01,-8.002519607543945312e-02,-2.349720336496829987e-02,-7.588256150484085083e-02,-1.665150560438632965e-02,-2.265657484531402588e-02,-4.386239871382713318e-02,-1.424405351281166077e-02,2.299367822706699371e-02,3.158121835440397263e-03,-4.847348853945732117e-02,-3.529779985547065735e-02,-1.625486277043819427e-02,-2.859223075211048126e-02,3.488063439726829529e-02,-2.348816581070423126e-02,-1.895032078027725220e-02,2.858742699027061462e-02,-2.770268172025680542e-02,-1.604653894901275635e-02,-1.795092038810253143e-02,-4.153970628976821899e-02,2.430714480578899384e-02,-1.800947636365890503e-02,-4.454589262604713440e-02,-5.681383609771728516e-02,1.134137585759162903e-01,-8.239398151636123657e-02,3.191917389631271362e-02,-8.182859420776367188e-02,-1.539789885282516479e-02,2.451649680733680725e-02,-1.618400961160659790e-02,1.729120314121246338e-02,-3.105293773114681244e-02,-5.119614675641059875e-02,6.370915565639734268e-03,4.308145120739936829e-02,-2.158635295927524567e-02,-3.564908728003501892e-02,-5.267220735549926758e-02,1.508052088320255280e-02,3.271296992897987366e-02,2.490418963134288788e-02,-1.228773593902587891e-02,4.779908061027526855e-02,9.926685597747564316e-04,1.963717304170131683e-02,-5.037368834018707275e-02,-6.339043378829956055e-03,-1.613200642168521881e-02,2.118146792054176331e-02,6.818751245737075806e-02,3.446788468863815069e-04,3.286048304289579391e-04,8.731965906918048859e-03,-3.535041213035583496e-02,-6.516408920288085938e-02,3.025054931640625000e-03,-1.979832351207733154e-02,-2.598453499376773834e-02,-7.958623021841049194e-02,-4.404563456773757935e-02,-9.565543383359909058e-02,-5.282450467348098755e-02,4.887942969799041748e-02,5.999470129609107971e-03,-7.385037606582045555e-04,1.616873405873775482e-02,-2.377525903284549713e-02,-4.540113359689712524e-02,-2.026735059916973114e-02,6.913509964942932129e-02,2.770058624446392059e-02,3.456874191761016846e-02,2.372655458748340607e-02,2.741192467510700226e-03,-2.144106663763523102e-02,-1.366594526916742325e-02,-3.877024352550506592e-02,7.094533741474151611e-02,-4.511578008532524109e-02,1.126100867986679077e-02,3.861337667331099510e-03,7.855663448572158813e-02,-5.830116197466850281e-02,2.270724251866340637e-02,9.979739785194396973e-03,-3.538769483566284180e-02,-7.062878459692001343e-02,-3.792253881692886353e-02,-5.536779388785362244e-02,4.105200991034507751e-02,2.217550761997699738e-02,-5.439770966768264771e-02,-6.032672524452209473e-02,-1.918854378163814545e-02,3.950976207852363586e-02,-9.904230013489723206e-03,3.680133726447820663e-03,-3.350079432129859924e-02,-4.669478535652160645e-02,-1.916234032250940800e-03,4.000796005129814148e-02,1.323203742504119873e-02,-5.424096435308456421e-02,-2.939230948686599731e-02,-4.551340267062187195e-02,3.310744836926460266e-02,4.716473445296287537e-02,-2.449453063309192657e-02,-1.477056927978992462e-02,-5.692173144780099392e-04
6.425502710044384003e-03,-2.657041326165199280e-02,6.665790826082229614e-02,-7.025045342743396759e-04,-2.104768296703696251e-03,9.516146965324878693e-03,-3.907768987119197845e-03,-2.544072456657886505e-02,4.047822579741477966e-02,3.279451979324221611e-03,-3.332629799842834473e-02,1.578329829499125481e-03,-4.183049499988555908e-02,-1.692409068346023560e-02,-1.773506589233875275e-02,-5.046541243791580200e-02,1.410188246518373489e-02,-3.006863407790660858e-02,4.475368931889533997e-02,3.328915312886238098e-02,-1.526666618883609772e-02,-2.141741290688514709e-02,6.890326738357543945e-02,1.241040416061878204e-02,-3.571313247084617615e-02,-3.065231023356318474e-03,4.542263690382242203e-03,-1.088918279856443405e-02,4.806700162589550018e-04,-4.567722231149673462e-02,3.928295802325010300e-03,-4.181946162134408951e-03,6.765032187104225159e-03,-3.459515050053596497e-02,-3.920292947441339493e-03,1.321361027657985687e-02,-7.351628504693508148e-03,3.797034174203872681e-02,-1.956960186362266541e-02,-3.913249820470809937e-02,-3.046936169266700745e-02,-3.235320001840591431e-02,-9.236930869519710541e-03,-3.768957033753395081e-02,-3.359619528055191040e-03,4.141222685575485229e-02,3.817834425717592239e-03,-3.373279795050621033e-02,1.374595705419778824e-02,-2.084742672741413116e-02,-2.538965828716754913e-02,-1.380911376327276230e-02,-4.818115383386611938e-03,4.016964230686426163e-03,1.308645587414503098e-02,7.943434640765190125e-03,2.787064062431454659e-03,6.982495076954364777e-03,-5.305293481796979904e-03,-2.656983584165573120e-02,4.380114376544952393e-02,-5.678068473935127258e-02,-6.927754293428733945e-05,7.630448788404464722e-03,1.220465078949928284e-02,2.899459563195705414e-03,-2.610455080866813660e-02,-5.171198770403862000e-02,2.077466808259487152e-02,-1.336119696497917175e-02,8.882357738912105560e-03,4.234952852129936218e-02,-5.991078214719891548e-04,-1.058936398476362228e-02,-1.424561440944671631e-02,3.253142535686492920e-02,6.664601713418960571e-02,9.257771074771881104e-02,7.400903850793838501e-03,-2.815623953938484192e-02,2.276928164064884186e-02,-2.085530571639537811e-02,2.655718848109245300e-02,-1.919754408299922943e-02,-3.565170988440513611e-02,-5.447158962488174438e-02,2.588384598493576050e-02,8.359353058040142059e-03,3.730122232809662819e-03,9.142917580902576447e-03,7.191737648099660873e-03,-6.207828596234321594e-02,-3.105817735195159912e-02,-3.056360781192779541e-02,1.404343266040086746e-02,-1.999579602852463722e-03,4.092435166239738464e-02,-6.445514969527721405e-03,4.765925928950309753e-02,-8.064282126724720001e-03,6.476747803390026093e-03,1.903186365962028503e-02,-1.172539591789245605e-02,-1.189915277063846588e-02,4.755157046020030975e-03,-5.159468576312065125e-02,6.459874566644430161e-04,4.040453583002090454e-02,-1.144124381244182587e-02,1.597864180803298950e-02,-2.663858607411384583e-02,-1.058897469192743301e-02,-5.391082540154457092e-02,-3.517837077379226685e-02,-5.075205489993095398e-02,3.158573806285858154e-02,-3.949663415551185608e-02,1.144785527139902115e-02,-3.776135668158531189e-02,-3.249527513980865479e-02,-1.889193430542945862e-02,1.878511905670166016e-02,1.837502047419548035e-02,-3.194315731525421143e-02,2.751364745199680328e-02,-3.037729999050498009e-03,-2.747793681919574738e-02,-3.989195451140403748e-02
-2.795704454183578491e-02,1.227336656302213669e-02,3.739801421761512756e-02,5.099756526760756969e-04,2.324123680591583252e-02,-2.640150487422943115e-02,-7.333748787641525269e-02,-9.489174000918865204e-03,4.182496294379234314e-02,-4.666975885629653931e-02,-2.655434422194957733e-02,3.754576668143272400e-02,3.673641383647918701e-02,2.416192740201950073e-02,-5.032392218708992004e-02,-3.361986251547932625e-03,-5.577620491385459900e-02,-4.850260913372039795e-02,-5.797561258077621460e-02,-6.494185328483581543e-02,-5.263282451778650284e-03,-3.147127851843833923e-02,-2.854425692930817604e-03,4.602725151926279068e-03,1.631116867065429688e-02,-1.117040985263884068e-03,2.837404422461986542e-02,-5.087183415889739990e-02,-3.781646490097045898e-02,-4.792189970612525940e-02,-1.327508874237537384e-02,-3.739212080836296082e-02,1.878283172845840454e-02,8.056820370256900787e-03,4.064377024769783020e-02,6.845891941338777542e-03,4.197975993156433105e-02,1.150973699986934662e-02,-5.434280261397361755e-02,-6.737150251865386963e-03,-1.064998377114534378e-02,-1.869631558656692505e-02,-1.331441290676593781e-02,-5.235405266284942627e-02,-4.721709713339805603e-02,3.041814081370830536e-02,-4.257031530141830444e-02,3.757850825786590576e-02,3.138423711061477661e-02,-4.200456663966178894e-02,8.808128535747528076e-03,-4.006246104836463928e-02,-1.851180195808410645e-02,2.337084442842751741e-04,-3.588496521115303040e-02,-3.369294106960296631e-02,-2.810071036219596863e-02,-4.169470444321632385e-02,-3.357460349798202515e-02,-2.515242993831634521e-02,-1.151616126298904419e-02,1.528644748032093048e-02,-5.190622061491012573e-03,3.524044528603553772e-02,1.799358054995536804e-02,1.681656949222087860e-02,1.125852484256029129e-02,4.879547283053398132e-02,2.855688799172639847e-03,-5.123660340905189514e-02,-1.286879740655422211e-02,4.475635662674903870e-02,-3.526759520173072815e-02,-1.395771931856870651e-02,1.305819256231188774e-03,5.489507224410772324e-03,4.729452729225158691e-02,3.492646291851997375e-02,-3.016189113259315491e-02,-4.882357642054557800e-02,1.203755196183919907e-02,-2.510900050401687622e-02,-6.569190323352813721e-02,-2.083177119493484497e-02,-4.221859201788902283e-02,3.388033062219619751e-02,-4.438466951251029968e-02,-1.776475645601749420e-02,-5.979594588279724121e-02,2.426383085548877716e-03,-3.410153836011886597e-02,6.696877535432577133e-03,1.032636780291795731e-02,2.510061860084533691e-02,5.096241459250450134e-02,-3.847846761345863342e-02,-6.221256777644157410e-02,-2.778895571827888489e-02,1.403593271970748901e-02,9.220262616872787476e-02,-1.654708199203014374e-02,-1.564869470894336700e-02,2.805507183074951172e-02,3.346888720989227295e-02,-6.802551914006471634e-03,-1.846874132752418518e-02,-3.771952167153358459e-02,4.099920019507408142e-02,1.621606177650392056e-03,-2.435622178018093109e-02,4.170920699834823608e-03,-4.001808539032936096e-02,-3.813900798559188843e-02,1.546017173677682877e-02,1.088296528905630112e-02,-2.094114758074283600e-02,-8.869932033121585846e-03,4.157720506191253662e-02,-3.736327169463038445e-03,9.873899817466735840e-02,-1.877574250102043152e-02,-6.727485358715057373e-02,-2.493265084922313690e-02,-4.852569103240966797e-02,-2.784935198724269867e-02,-7.739298511296510696e-03,1.616112329065799713e-02,-8.233472704887390137e-03
-8.141363970935344696e-03,5.713350698351860046e-02,4.077120125293731689e-02,-1.447509881108999252e-02,-2.257144823670387268e-02,-1.475478243082761765e-02,-8.065605536103248596e-03,-2.023907192051410675e-02,3.297069808468222618e-03,3.404937684535980225e-02,3.736772632692009211e-04,-5.880913883447647095e-02,4.630394652485847473e-02,-3.329434664919972420e-03,-2.425883524119853973e-02,-1.135123521089553833e-02,1.606915704905986786e-02,-1.323496550321578979e-02,-1.173470914363861084e-02,4.449952766299247742e-02,8.641116321086883545e-03,-2.754012495279312134e-02,5.960561707615852356e-02,-2.258951216936111450e-02,-6.033953279256820679e-02,1.871850900352001190e-02,2.387024089694023132e-02,2.326705725863575935e-03,2.744386158883571625e-02,2.933988906443119049e-02,-1.790248975157737732e-02,-6.007147603668272495e-04,4.978381562978029251e-03,9.755681268870830536e-03,1.634599827229976654e-02,-2.949365414679050446e-02,1.417767163366079330e-02,2.918160706758499146e-02,1.507315319031476974e-02,-4.143254458904266357e-02,-9.501212276518344879e-03,1.731763780117034912e-02,1.904920302331447601e-02,-1.709288358688354492e-02,-4.701921716332435608e-02,7.972228527069091797e-02,4.325976595282554626e-02,4.373189061880111694e-02,1.639731228351593018e-02,-4.876147210597991943e-02,1.977025717496871948e-02,9.806866757571697235e-03,-7.407342083752155304e-03,-5.423937365412712097e-02,-6.996673345565795898e-02,2.489860542118549347e-02,-1.676786318421363831e-02,-1.573008019477128983e-03,4.429840017110109329e-03,-1.253245305269956589e-02,-2.777477726340293884e-02,-1.491863559931516647e-02,1.766999438405036926e-02,1.079454366117715836e-02,-7.235526572912931442e-03,3.200661018490791321e-02,-1.755698956549167633e-02,5.148781463503837585e-02,-3.638956695795059204e-02,-9.716094471514225006e-03,-4.141838755458593369e-03,5.342204123735427856e-02,4.819114133715629578e-02,8.185904473066329956e-03,-1.040980778634548187e-02,-9.440492838621139526e-03,7.472687866538763046e-03,1.242140959948301315e-02,2.586135268211364746e-02,-8.568226359784603119e-03,-5.073478072881698608e-02,-2.787227742373943329e-03,1.246513612568378448e-02,1.167473196983337402e-02,-2.579055540263652802e-02,-1.579786650836467743e-02,-4.796696081757545471e-02,-2.526055090129375458e-02,5.063977092504501343e-03,-4.466141015291213989e-02,-2.059481106698513031e-03,-1.156509853899478912e-02,5.449312925338745117e-02,-2.270651236176490784e-02,4.326214268803596497e-02,-3.853551298379898071e-02,-4.576196894049644470e-02,-6.017098203301429749e-02,-4.111262038350105286e-02,6.072079390287399292e-02,-3.659395501017570496e-02,-1.244194339960813522e-02,-1.027820352464914322e-02,-7.016590982675552368e-02,1.578674837946891785e-02,-2.236634027212858200e-03,5.895417556166648865e-02,4.828868806362152100e-02,-5.409925058484077454e-02,-8.596499450504779816e-03,-1.320461276918649673e-02,2.735230885446071625e-02,1.122300513088703156e-02,2.749466896057128906e-02,-2.382782101631164551e-02,1.316217426210641861e-02,8.664748072624206543e-02,1.450225710868835449e-02,-5.623387545347213745e-02,3.780031949281692505e-02,1.341688795946538448e-03,5.203502997756004333e-02,3.483374044299125671e-02,1.362459827214479446e-02,2.042768895626068115e-02,1.556535810232162476e-02,7.272285223007202148e-02,-4.783210530877113342e-02
