2.800128236413002014e-02,-4.465430229902267456e-02,4.560361057519912720e-02,-7.147470861673355103e-02,-4.252634942531585693e-02,1.285955607891082764e-01,2.386252582073211670e-02,7.340693846344947815e-03,3.538774698972702026e-02,4.871659446507692337e-03,1.574342548847198486e-01,-4.342280700802803040e-02,-3.040393255650997162e-02,1.078889444470405579e-01,1.068444363772869110e-02,1.795200444757938385e-02,-7.104261964559555054e-02,-4.042444750666618347e-02,-4.628419876098632812e-02,3.735538944602012634e-02,-1.342028379440307617e-01,-6.823208928108215332e-02,5.907538812607526779e-03,2.740307524800300598e-02,-5.497676506638526917e-02,1.819360069930553436e-02,1.302694436162710190e-02,3.600213443860411644e-03,-6.540055572986602783e-02,6.476260721683502197e-03,1.147278845310211182e-01,5.302650481462478638e-02,-3.074959293007850647e-02,-3.561354428529739380e-02,2.111233212053775787e-02,-6.325073540210723877e-03,-1.438571605831384659e-03,-3.245223686099052429e-02,9.344769269227981567e-02,-3.439009934663772583e-02,6.170716881752014160e-02,2.525804750621318817e-02,3.430751711130142212e-02,5.700188223272562027e-03,1.531134843826293945e-01,-2.721461281180381775e-02,-7.526414096355438232e-02,-3.137725219130516052e-02,2.537307888269424438e-02,3.076247312128543854e-02,-2.507508546113967896e-02,4.957630857825279236e-02,-5.927360430359840393e-02,2.140231244266033173e-02,1.812971755862236023e-02,3.787826746702194214e-02,-2.445337362587451935e-02,-2.268410846590995789e-02,1.054646540433168411e-02,-5.729744210839271545e-02,5.154769495129585266e-02,7.041848450899124146e-02,-2.658439055085182190e-02,2.060961164534091949e-02,-6.090204417705535889e-02,9.262771345674991608e-03,-4.687303304672241211e-02,6.197019014507532120e-03,8.757483214139938354e-02,-5.890659615397453308e-02,3.283667564392089844e-02,6.480678170919418335e-02,-1.911995932459831238e-03,5.317061673849821091e-03,-3.748705983161926270e-02,-2.383179403841495514e-02,1.558416802436113358e-02,7.987070828676223755e-02,-8.593923598527908325e-02,-9.302820265293121338e-02,-6.578657776117324829e-02,-8.368470706045627594e-03,-6.141412537544965744e-03,3.434920310974121094e-02,7.833871990442276001e-03,-2.312985435128211975e-02,-6.927885115146636963e-02,-3.418774157762527466e-02,-1.341525651514530182e-02,1.111964359879493713e-01,-9.563001245260238647e-02,4.373523220419883728e-02,2.448882348835468292e-02,-9.297294914722442627e-02,-1.171160712838172913e-01,-5.182227492332458496e-02,3.146898746490478516e-02,4.049583896994590759e-02,1.771356724202632904e-02,9.291040152311325073e-02,-8.743793703615665436e-03,4.979618638753890991e-02,-3.472863137722015381e-02,-6.736517534591257572e-04,3.014536388218402863e-02,-1.508426293730735779e-02,-4.380759317427873611e-03,-9.590339660644531250e-02,-3.464705497026443481e-02,-8.786692470312118530e-02,8.713310956954956055e-02,-1.150252483785152435e-02,-3.079163096845149994e-02,-2.005782350897789001e-02,-5.747089162468910217e-02,-5.561762303113937378e-02,-5.322486907243728638e-02,6.819916516542434692e-02,1.859428733587265015e-02,-1.700447313487529755e-02,4.108110442757606506e-02,-8.811693638563156128e-02,-5.017219111323356628e-02,-3.361733257770538330e-02,9.591883048415184021e-03,-6.617725640535354614e-02,-3.321527317166328430e-02,1.022201105952262878e-01
7.122087478637695312e-02,-3.623547405004501343e-02,4.078414756804704666e-03,-8.653887547552585602e-03,-7.190226763486862183e-02,1.865292526781558990e-02,8.390127681195735931e-03,5.814612284302711487e-02,-2.045614458620548248e-02,2.172950655221939087e-03,5.895213037729263306e-02,-3.928534314036369324e-02,2.797619812190532684e-02,-4.004320129752159119e-02,-5.229865666478872299e-03,-1.837904192507266998e-02,-1.052363067865371704e-01,-8.544952422380447388e-02,-2.705738414078950882e-03,1.952627114951610565e-02,-6.955882534384727478e-03,2.074233815073966980e-02,1.079313643276691437e-02,-2.716125547885894775e-02,-4.547524452209472656e-02,6.210849620401859283e-03,4.800123162567615509e-03,3.449304774403572083e-02,-2.779144048690795898e-02,-5.765337962657213211e-03,6.990224868059158325e-02,-2.563490159809589386e-02,-5.213089659810066223e-02,5.454020574688911438e-03,-1.738585904240608215e-02,-5.173055920749902725e-03,3.603873774409294128e-02,4.721324890851974487e-02,-4.342493135482072830e-03,-1.153022143989801407e-02,-2.181001007556915283e-02,-5.216021463274955750e-02,1.095758937299251556e-02,-1.747611165046691895e-02,-1.036401838064193726e-02,-1.307874917984008789e-01,-9.220185875892639160e-02,2.583909407258033752e-02,4.090972244739532471e-02,-4.083297029137611389e-02,-3.046508692204952240e-02,1.003118231892585754e-02,4.253159463405609131e-02,4.349607229232788086e-02,-8.344934880733489990e-02,-7.828519679605960846e-03,2.137846127152442932e-02,-2.560680732131004333e-02,1.826578378677368164e-02,-3.886333480477333069e-02,-1.786605082452297211e-02,-4.935099929571151733e-02,-6.347350031137466431e-02,-2.417236939072608948e-02,5.021584406495094299e-02,3.392215073108673096e-02,9.095332585275173187e-03,-5.200623720884323120e-02,2.396856993436813354e-02,-6.927344948053359985e-02,-5.759570375084877014e-02,1.452086865901947021e-01,-2.434141747653484344e-02,-9.220315841957926750e-04,-4.133028909564018250e-02,5.806140229105949402e-02,3.279279544949531555e-02,5.683787167072296143e-02,-6.902133673429489136e-02,1.219096966087818146e-02,-5.641032010316848755e-02,5.598604306578636169e-02,-1.172610931098461151e-02,-1.847995631396770477e-02,7.447928935289382935e-02,1.560631673783063889e-02,-5.004433915019035339e-02,-5.314560979604721069e-02,-1.736864820122718811e-02,3.988144453614950180e-03,-8.989557623863220215e-02,1.974664628505706787e-03,2.316245809197425842e-02,-5.745709314942359924e-02,-1.351741403341293335e-01,3.894946724176406860e-02,5.813016742467880249e-02,-2.647481672465801239e-02,1.082428824156522751e-02,8.749232441186904907e-02,-8.025951683521270752e-03,-2.690668217837810516e-02,-3.425716236233711243e-02,-2.300858497619628906e-02,1.377163082361221313e-02,1.613071374595165253e-02,4.933752352371811867e-04,-9.600687772035598755e-02,-4.334914311766624451e-02,5.975900962948799133e-02,2.579617500305175781e-02,-3.352894214913249016e-03,-1.038651019334793091e-01,-1.978260092437267303e-02,-3.619460016489028931e-02,-1.282620616257190704e-02,1.551658939570188522e-02,-6.988521665334701538e-03,-6.117992848157882690e-02,-6.750176101922988892e-02,-6.392520666122436523e-02,-5.397759005427360535e-02,-2.744095399975776672e-02,-1.029066741466522217e-02,3.511359170079231262e-02,4.378534387797117233e-03,-1.376560982316732407e-02,-1.428496465086936951e-02
3.314149379730224609e-02,-2.263368666172027588e-02,-2.684478275477886200e-02,-4.462454840540885925e-02,-4.059660434722900391e-02,1.293425410985946655e-01,1.086551696062088013e-02,2.269708551466464996e-02,-1.428877562284469604e-02,-7.057398557662963867e-02,2.628076821565628052e-03,-7.941240072250366211e-02,2.926437184214591980e-02,-6.405916996300220490e-03,1.367211574688553810e-03,1.432885508984327316e-02,5.714037641882896423e-02,1.870706118643283844e-02,-4.516153410077095032e-02,3.424580022692680359e-02,9.564814716577529907e-02,1.981098018586635590e-02,-5.402379669249057770e-03,-5.454609915614128113e-02,5.031028389930725098e-02,-6.802278757095336914e-02,-2.923362143337726593e-02,2.729534544050693512e-02,3.982926532626152039e-02,-4.755697399377822876e-02,-3.325903415679931641e-02,-5.397877842187881470e-02,-2.734034135937690735e-02,-5.120471119880676270e-02,1.942682825028896332e-02,-4.488390311598777771e-02,-6.081736832857131958e-02,3.654836863279342651e-02,-2.494702488183975220e-02,-2.626979723572731018e-02,-3.074185550212860107e-02,-6.498894095420837402e-02,-4.256467893719673157e-02,7.847391068935394287e-02,1.909939758479595184e-02,-3.520053625106811523e-02,-5.119063332676887512e-02,-1.126401498913764954e-02,7.472069002687931061e-03,-3.191011026501655579e-02,2.748868241906166077e-02,5.501762777566909790e-02,6.354211270809173584e-02,1.349554955959320068e-02,-2.799797244369983673e-02,1.098206546157598495e-02,-7.482854276895523071e-02,8.150546252727508545e-02,-2.401323802769184113e-02,-6.350544840097427368e-02,4.527859389781951904e-03,1.138088759034872055e-03,5.747282132506370544e-02,2.283008769154548645e-02,2.974069677293300629e-03,3.986423835158348083e-02,5.123107880353927612e-02,1.559485495090484619e-02,3.443228825926780701e-02,-7.255525141954421997e-02,3.286530449986457825e-02,6.594385951757431030e-02,-5.687568336725234985e-02,-6.857550889253616333e-02,-4.291709512472152710e-02,5.238307639956474304e-03,-5.161195620894432068e-02,9.476846456527709961e-02,-4.465159773826599121e-02,-5.805562809109687805e-02,-2.813701890408992767e-02,4.964375868439674377e-03,-8.864451199769973755e-03,-1.716636866331100464e-02,-1.177564915269613266e-02,-2.377152815461158752e-02,4.975797235965728760e-02,7.340243086218833923e-03,-5.096275359392166138e-02,-2.437818050384521484e-02,-5.501694232225418091e-02,1.195341814309358597e-02,5.506447702646255493e-02,-5.625277757644653320e-03,-1.574576497077941895e-01,1.297642663121223450e-02,4.069190472364425659e-02,-7.821496576070785522e-03,-2.927845716476440430e-02,1.622134819626808167e-02,-7.660280913114547729e-02,-1.038496941328048706e-02,4.556735605001449585e-02,-4.061824828386306763e-02,-5.666260421276092529e-02,-3.755339607596397400e-02,-5.576768890023231506e-02,-4.610975831747055054e-02,-1.120468135923147202e-02,6.690610945224761963e-02,-2.718257345259189606e-02,-7.747503928840160370e-03,-9.145892411470413208e-02,4.683729261159896851e-02,-5.355796590447425842e-02,-5.677122622728347778e-02,-5.501987785100936890e-02,2.564846351742744446e-02,-5.068792030215263367e-02,-8.372617512941360474e-02,1.621392183005809784e-02,-8.364657312631607056e-02,-1.132064126431941986e-02,-3.703774139285087585e-02,-5.168874934315681458e-02,-1.446149591356515884e-02,-1.426186878234148026e-02,5.419665947556495667e-02
3.232541307806968689e-02,-4.954962059855461121e-02,-1.684131100773811340e-02,-8.300533890724182129e-02,3.892123932018876076e-03,4.637939482927322388e-02,4.243678972125053406e-02,-1.531579624861478806e-02,-8.153104037046432495e-02,8.328591473400592804e-03,-6.583786755800247192e-02,-9.165257960557937622e-02,-7.965902984142303467e-02,7.270701974630355835e-02,2.870947308838367462e-02,-1.917219907045364380e-02,-3.503034636378288269e-02,-1.477200724184513092e-02,2.263535046949982643e-03,-1.700993627309799194e-02,-6.669747829437255859e-02,-4.147854074835777283e-02,-3.715413436293601990e-02,-4.474901407957077026e-02,5.852080509066581726e-02,1.035021897405385971e-02,-1.608869992196559906e-02,7.460292428731918335e-02,6.035912781953811646e-02,-4.619962349534034729e-02,1.135301589965820312e-01,-2.832135371863842010e-02,-5.308378487825393677e-02,-5.880638957023620605e-02,5.734491162002086639e-03,5.083065479993820190e-02,1.490955799818038940e-02,-3.305165842175483704e-02,6.110673025250434875e-02,3.318741917610168457e-02,5.467651039361953735e-02,-6.256586313247680664e-02,-6.182296946644783020e-02,5.341206211596727371e-03,3.027587197721004486e-02,6.510973721742630005e-02,-7.488240953534841537e-03,5.473572015762329102e-02,-9.269901551306247711e-03,-2.103415317833423615e-02,-1.890831440687179565e-02,7.962279021739959717e-03,5.289256200194358826e-02,-3.864233568310737610e-02,9.724375791847705841e-03,8.663734793663024902e-02,1.167392451316118240e-02,4.687367007136344910e-03,-2.148642390966415405e-02,-1.965976506471633911e-02,2.245592512190341949e-02,3.438119590282440186e-02,1.241058669984340668e-02,-5.694447457790374756e-02,-2.218165993690490723e-02,-2.281706035137176514e-02,-3.360091894865036011e-02,-8.906977251172065735e-03,-3.096847608685493469e-02,-6.155289593152701855e-04,5.988496169447898865e-02,8.563888818025588989e-02,-5.393056198954582214e-03,-4.896619357168674469e-03,1.278474554419517517e-02,-3.733572363853454590e-02,-3.724800422787666321e-02,7.975057512521743774e-02,-7.594227045774459839e-02,2.224047482013702393e-02,4.428307712078094482e-02,-2.692964486777782440e-02,3.142280131578445435e-02,-3.396378457546234131e-02,-2.264391817152500153e-02,3.465281333774328232e-03,7.702279090881347656e-02,-3.312913468107581139e-03,-5.858571734279394150e-03,8.336699008941650391e-02,-1.015324704349040985e-02,-7.389477104879915714e-04,4.368530586361885071e-02,-6.537233293056488037e-02,-4.070451110601425171e-02,-1.006216779351234436e-01,-4.888857156038284302e-02,-1.502365339547395706e-02,5.809992551803588867e-02,-6.336887925863265991e-02,-3.478475287556648254e-02,5.877845361828804016e-02,7.742872927337884903e-03,-2.651195414364337921e-02,-1.629635319113731384e-02,-2.178564853966236115e-02,-8.679279685020446777e-02,-6.141745299100875854e-02,7.599465548992156982e-03,-6.091174110770225525e-02,2.463717572391033173e-02,-3.087393008172512054e-02,-4.703711345791816711e-02,-5.093580484390258789e-02,8.186447434127330780e-03,1.252021547406911850e-02,-6.640340387821197510e-02,-1.938751898705959320e-02,7.950859516859054565e-02,1.439206115901470184e-02,3.032237105071544647e-02,-3.203627467155456543e-02,-6.668881326913833618e-02,-2.288886345922946930e-02,-2.766745910048484802e-02,-5.167030543088912964e-02,1.752000115811824799e-02,-1.192629523575305939e-02
1.315934583544731140e-02,-2.779643796384334564e-02,1.004818268120288849e-02,-3.899633651599287987e-03,-1.651844754815101624e-02,-6.583276391029357910e-02,-5.305458232760429382e-02,2.495534485206007957e-03,2.248141169548034668e-02,-3.567308187484741211e-02,-5.520966835319995880e-03,-1.247885525226593018e-01,-1.408079545944929123e-02,-3.483133390545845032e-02,3.588230162858963013e-02,7.137611508369445801e-03,-2.771626226603984833e-02,-1.691485382616519928e-02,-3.819189220666885376e-02,2.531971409916877747e-02,-4.788363352417945862e-02,-5.544881895184516907e-02,6.674830801784992218e-03,-4.946051537990570068e-02,7.843269268050789833e-04,5.008802562952041626e-02,-5.238649994134902954e-02,-1.766430772840976715e-02,1.068403571844100952e-01,-8.631387352943420410e-02,4.869181662797927856e-02,2.869244664907455444e-03,6.700742244720458984e-02,-4.510089382529258728e-02,-2.279270999133586884e-02,-1.432913728058338165e-02,5.581896752119064331e-02,-5.444205552339553833e-02,8.118779212236404419e-02,-8.449382334947586060e-02,5.196928232908248901e-02,-5.403888970613479614e-02,-3.919228166341781616e-02,-3.182968869805335999e-02,-5.184014514088630676e-02,-1.070537697523832321e-02,2.519020810723304749e-02,4.488194361329078674e-02,3.218611702322959900e-02,6.734110414981842041e-02,-5.983746424317359924e-02,-4.481167718768119812e-02,-4.880564287304878235e-02,6.577087938785552979e-02,1.897356286644935608e-02,4.867136478424072266e-02,-2.876454405486583710e-02,-2.633645758032798767e-02,4.978519305586814880e-02,1.247024070471525192e-02,2.462831884622573853e-02,4.513859748840332031e-02,-1.823086407966911793e-03,-1.691070199012756348e-02,-6.693410128355026245e-02,-1.098349341191351414e-03,-2.460753172636032104e-02,-3.306199237704277039e-02,-1.045090053230524063e-02,4.187866579741239548e-03,5.512282624840736389e-02,7.887758314609527588e-02,3.605022281408309937e-02,1.335257757455110550e-02,-4.409179463982582092e-02,-1.103717684745788574e-01,-2.651758491992950439e-02,-9.531471878290176392e-04,-3.689973056316375732e-02,6.397377699613571167e-02,3.954663872718811035e-02,2.640094794332981110e-02,-6.949681788682937622e-02,-8.573398739099502563e-02,-6.693556904792785645e-02,-1.144024636596441269e-02,-4.822328314185142517e-02,-5.195371061563491821e-02,1.501395180821418762e-02,-5.947351828217506409e-02,-7.382781058549880981e-02,-4.264356195926666260e-02,-2.277797553688287735e-03,-2.773468755185604095e-02,-4.377137869596481323e-02,-6.765193492174148560e-02,3.740365058183670044e-02,-5.683329328894615173e-02,2.425352856516838074e-02,-1.052086725831031799e-01,-7.134953886270523071e-02,-1.930319331586360931e-02,1.392334327101707458e-02,-2.010589698329567909e-03,2.694196812808513641e-02,2.868294157087802887e-02,-3.284267708659172058e-02,-3.239769488573074341e-02,1.605841703712940216e-02,-2.234650589525699615e-02,-2.890569344162940979e-02,5.291516426950693130e-03,2.755929529666900635e-02,-2.546075498685240746e-03,3.542106226086616516e-02,-4.068847000598907471e-02,5.709133576601743698e-03,7.771839591441676021e-05,-2.817911282181739807e-02,-3.212755545973777771e-02,-6.711436901241540909e-03,-3.525696322321891785e-02,5.179644748568534851e-02,-4.418737813830375671e-02,-8.253216743469238281e-03,-6.741129606962203979e-02,-5.031253024935722351e-02,2.084454149007797241e-02
-6.764135509729385376e-02,-1.155285630375146866e-02,1.037773042917251587e-01,5.107514932751655579e-02,-2.186033688485622406e-02,1.517786365002393723e-02,7.781168445944786072e-03,-3.822278603911399841e-02,-3.955114632844924927e-03,3.658860223367810249e-03,3.259364515542984009e-02,-9.900157898664474487e-02,-3.128610551357269287e-02,-2.860021218657493591e-02,-8.648088574409484863e-02,3.297443734481930733e-03,-5.021858215332031250e-02,-1.799364574253559113e-02,-1.579396985471248627e-02,3.831673040986061096e-02,8.403243869543075562e-02,-3.029365837574005127e-02,8.464050292968750000e-02,-1.966468431055545807e-02,-2.368124946951866150e-02,-2.348302491009235382e-02,-1.627810485661029816e-02,3.841217979788780212e-02,1.600634902715682983e-01,1.345128635875880718e-03,3.244597092270851135e-02,1.300299633294343948e-02,5.310671869665384293e-03,-6.984969973564147949e-02,1.297053880989551544e-02,-6.494571268558502197e-02,9.600596874952316284e-02,-2.474050410091876984e-02,6.420720368623733521e-02,-3.464224562048912048e-02,1.745838671922683716e-02,-5.700898915529251099e-02,-1.370730157941579819e-02,5.255930870771408081e-02,-1.491763722151517868e-02,-7.480147480964660645e-02,5.641661956906318665e-02,-5.806992575526237488e-02,-1.508542709052562714e-02,-2.079077763482928276e-03,2.906518988311290741e-02,4.430649057030677795e-02,4.755629599094390869e-02,-1.754683442413806915e-02,-6.784347444772720337e-02,-3.622349724173545837e-02,-6.123861297965049744e-02,-4.843016713857650757e-02,-5.074505135416984558e-02,-2.695075049996376038e-02,-7.335984706878662109e-02,2.419206500053405762e-02,-5.165598820894956589e-03,-4.961755126714706421e-02,2.691991627216339111e-02,1.640286669135093689e-02,-1.386218518018722534e-01,-4.928441485390067101e-04,5.980929732322692871e-02,-4.144619032740592957e-02,-9.251665323972702026e-03,-1.861855387687683105e-02,-6.027480959892272949e-02,-1.086316909641027451e-02,-3.742557018995285034e-02,-1.210532896220684052e-02,-9.294324368238449097e-02,-1.640902645885944366e-02,-5.965696647763252258e-02,-1.409665215760469437e-03,1.053136028349399567e-02,-4.794058203697204590e-02,-5.787669122219085693e-02,-4.623685777187347412e-02,-2.118407748639583588e-02,-8.572399616241455078e-03,1.327419467270374298e-02,-3.721325099468231201e-02,1.950028538703918457e-02,5.634690169245004654e-03,-1.725667901337146759e-02,-7.979213446378707886e-02,2.798321656882762909e-02,5.618139356374740601e-02,-3.188592195510864258e-02,1.910627819597721100e-02,5.677009932696819305e-03,-8.851475082337856293e-03,-1.422640401870012283e-02,3.418380022048950195e-02,-6.291325390338897705e-02,2.484665066003799438e-02,2.602470666170120239e-02,-6.525699049234390259e-02,-8.612567931413650513e-02,-1.950071007013320923e-02,2.098852396011352539e-02,-5.836199969053268433e-02,-9.366628527641296387e-02,-1.875064685009419918e-03,2.628660388290882111e-02,-1.953651010990142822e-02,5.419896915555000305e-02,-2.716646157205104828e-02,-8.853748440742492676e-03,-5.479684472084045410e-02,1.012937724590301514e-02,4.062782973051071167e-03,-4.019157588481903076e-02,3.733246121555566788e-03,2.148000709712505341e-02,3.312045335769653320e-02,2.649630047380924225e-02,-6.292624026536941528e-02,6.101636681705713272e-04,-1.221050545573234558e-01,-5.136338621377944946e-02,-4.766272753477096558e-02
-8.888652920722961426e-02,7.896316796541213989e-02,6.281663477420806885e-02,-7.440188899636268616e-03,-6.898358464241027832e-02,9.353695809841156006e-02,2.060615830123424530e-02,8.616720885038375854e-02,1.914355158805847168e-02,-2.974862931296229362e-03,-7.679016329348087311e-03,-1.315900869667530060e-02,4.286652803421020508e-02,3.149359952658414841e-03,-4.213248193264007568e-02,-3.535478608682751656e-03,1.742012612521648407e-02,5.121276527643203735e-02,2.802507765591144562e-02,-8.254440128803253174e-02,-6.739734113216400146e-02,3.486736491322517395e-02,-8.360825479030609131e-02,1.364322472363710403e-02,2.139407396316528320e-02,1.693634688854217529e-02,-9.135770797729492188e-02,3.865916654467582703e-02,2.543021179735660553e-02,2.581815421581268311e-02,-8.889421820640563965e-02,-6.272371858358383179e-02,-8.444751799106597900e-02,-5.900139361619949341e-02,-6.212028488516807556e-02,3.331505693495273590e-03,2.095196954905986786e-02,9.772001765668392181e-03,1.187547519803047180e-01,7.129304111003875732e-02,1.011626329272985458e-03,-3.586603328585624695e-02,4.963733721524477005e-03,5.773751065135002136e-03,-2.707418054342269897e-02,-9.864838793873786926e-03,1.195689067244529724e-01,3.157511586323380470e-03,-6.418873555958271027e-03,-3.543650382198393345e-04,-2.338378503918647766e-02,-4.041781276464462280e-02,-1.386859687045216560e-03,-5.341668426990509033e-02,1.404506415128707886e-01,2.004200359806418419e-03,4.348029568791389465e-02,-7.329305261373519897e-02,-7.407183200120925903e-02,-1.265370380133390427e-02,1.347654964774847031e-02,-2.152226120233535767e-02,1.276607532054185867e-02,3.135954961180686951e-02,3.583848103880882263e-02,-4.384968429803848267e-02,-2.368963556364178658e-03,4.552700091153383255e-03,6.783299148082733154e-03,1.549070421606302261e-02,-1.257576048374176025e-01,-5.418320372700691223e-02,-4.240463674068450928e-02,-7.072114944458007812e-02,-5.032733827829360962e-02,6.590668857097625732e-02,-3.072450868785381317e-02,2.710266597568988800e-02,2.461989969015121460e-02,2.142810449004173279e-02,8.970949798822402954e-02,-4.211496561765670776e-02,-8.666716516017913818e-03,-7.165867835283279419e-02,2.370823919773101807e-02,2.810343913733959198e-02,6.748886406421661377e-02,9.713157266378402710e-02,-4.883057251572608948e-02,3.488962829578667879e-04,-7.559394929558038712e-03,3.177444264292716980e-02,8.314921520650386810e-03,8.880148828029632568e-02,3.207207471132278442e-02,1.039438787847757339e-02,4.250997444614768028e-04,2.570470049977302551e-02,5.365064367651939392e-02,-1.670752093195915222e-02,-6.301546096801757812e-02,3.510152176022529602e-02,4.286680370569229126e-02,4.659160599112510681e-02,1.378993093967437744e-01,-9.772909106686711311e-04,-4.594644159078598022e-02,-2.797106280922889709e-02,6.819603592157363892e-02,-7.870198786258697510e-02,5.648352578282356262e-02,-2.355626225471496582e-02,2.237588167190551758e-02,-9.942309930920600891e-03,7.587375584989786148e-03,9.969874471426010132e-02,-1.900925301015377045e-02,-2.488898858428001404e-02,9.730893187224864960e-03,1.388939004391431808e-02,1.172127202153205872e-01,-4.497062787413597107e-02,8.241608738899230957e-03,-3.356051445007324219e-02,5.531926173716783524e-03,6.502017378807067871e-02,-5.406704265624284744e-03,3.768272697925567627e-02
-7.613646239042282104e-02,1.073797419667243958e-02,2.874030545353889465e-02,-2.305135875940322876e-02,2.255038358271121979e-02,8.919373154640197754e-02,-2.356416359543800354e-02,4.019383713603019714e-02,1.897154375910758972e-02,-1.284433994442224503e-02,-2.323400601744651794e-02,-8.755937218666076660e-02,2.351045235991477966e-02,4.939791746437549591e-03,-5.219697207212448120e-02,4.102327302098274231e-02,1.111542619764804840e-02,8.392813801765441895e-02,-3.425376862287521362e-02,-9.036692976951599121e-02,-3.919958695769309998e-02,-2.441861107945442200e-02,-6.849491596221923828e-02,-6.540528684854507446e-02,-4.021901264786720276e-02,4.417433962225914001e-02,-7.561160624027252197e-02,-6.390815228223800659e-02,2.018415182828903198e-02,-4.049925506114959717e-02,-9.900826960802078247e-03,-7.050613313913345337e-02,-4.651991650462150574e-02,3.805547952651977539e-02,-8.694824576377868652e-02,3.994002006947994232e-03,5.782548710703849792e-02,-6.075544748455286026e-03,6.780274957418441772e-02,-2.005695179104804993e-02,-3.557246923446655273e-02,-2.273150347173213959e-02,-8.312709629535675049e-03,-6.153346970677375793e-02,-6.440427899360656738e-02,-1.227531302720308304e-02,1.154124289751052856e-01,1.349715166725218296e-03,-4.141384735703468323e-02,1.043267082422971725e-02,-1.585501246154308319e-02,-6.574978679418563843e-02,-6.263210903853178024e-03,-7.040315866470336914e-02,-8.660227060317993164e-03,9.318553656339645386e-02,4.875908792018890381e-02,-5.120761692523956299e-02,9.460450382903218269e-04,4.536110442131757736e-03,-6.205131486058235168e-02,-6.979309022426605225e-02,2.213394083082675934e-02,-4.560811445116996765e-02,-2.514193952083587646e-02,9.957681410014629364e-03,-6.126154679805040359e-03,-2.134502399712800980e-03,-4.234874248504638672e-02,6.113138515502214432e-03,-9.507175534963607788e-02,-5.188697203993797302e-02,-2.615137398242950439e-02,8.293911814689636230e-02,-9.901347756385803223e-02,5.156548228114843369e-03,3.083162382245063782e-02,-4.383174329996109009e-02,2.077478542923927307e-02,-9.724512696266174316e-03,3.119558654725551605e-02,-6.644514203071594238e-02,2.380323223769664764e-02,2.276878058910369873e-02,3.810014948248863220e-02,-3.379277512431144714e-02,8.395481854677200317e-02,1.081784255802631378e-02,2.914598211646080017e-02,-1.528034452348947525e-02,4.509137570858001709e-02,-9.214381687343120575e-03,1.083094161003828049e-02,-2.592403069138526917e-02,2.263414440676569939e-03,-4.348688200116157532e-02,2.531506679952144623e-02,-5.170965567231178284e-03,1.024712529033422470e-02,9.159382432699203491e-02,-3.320112882647663355e-04,-1.177463773638010025e-02,3.289877437055110931e-03,-2.277731336653232574e-02,8.480862714350223541e-03,4.611733555793762207e-02,2.677877992391586304e-02,-2.937915362417697906e-02,-2.118978649377822876e-02,-9.811475127935409546e-02,1.290801167488098145e-02,4.363730922341346741e-02,-2.179301809519529343e-03,3.379493579268455505e-02,-3.245906159281730652e-02,3.724006563425064087e-02,-2.396011166274547577e-02,-6.704007089138031006e-02,8.639733493328094482e-02,-5.356740206480026245e-02,6.993431597948074341e-02,6.061473488807678223e-02,-9.430589154362678528e-03,-4.986677318811416626e-02,-5.019424110651016235e-02,5.539171397686004639e-02,-3.969173133373260498e-02,-4.818839952349662781e-02
-4.859913885593414307e-02,-4.563614353537559509e-02,-7.036854326725006104e-02,8.381414413452148438e-02,6.926929950714111328e-02,1.523342449218034744e-02,-4.023455455899238586e-02,-2.051813155412673950e-02,7.927394472062587738e-03,-5.998812988400459290e-02,5.864552035927772522e-02,-1.144398823380470276e-01,2.361639589071273804e-02,3.340229019522666931e-02,-5.969155207276344299e-02,5.318570882081985474e-03,-7.783231791108846664e-03,-4.610694944858551025e-02,2.524723671376705170e-02,-1.006947234272956848e-01,2.529768971726298332e-03,-3.534688428044319153e-02,-2.561377733945846558e-02,-2.844828367233276367e-02,1.054798066616058350e-02,-8.373944461345672607e-02,-2.169011160731315613e-02,-5.856879428029060364e-02,4.079806804656982422e-02,5.230929329991340637e-02,-1.690593548119068146e-02,-7.490840554237365723e-02,-1.914290769491344690e-04,3.080334886908531189e-02,-3.624963387846946716e-02,-3.597426787018775940e-02,3.263152763247489929e-02,-4.471379518508911133e-02,4.949319735169410706e-02,-2.926543913781642914e-02,1.786390133202075958e-02,-1.651557534933090210e-02,7.578426506370306015e-03,-3.641617298126220703e-02,-8.986704796552658081e-02,-5.280864611268043518e-02,2.547737769782543182e-02,-2.310593845322728157e-03,-2.929663471877574921e-02,9.432063670828938484e-04,-1.984637230634689331e-02,-1.159777864813804626e-01,-3.083587065339088440e-02,-9.282518923282623291e-02,-8.525712415575981140e-03,6.544289737939834595e-02,-1.292924117296934128e-02,-8.338008821010589600e-02,-2.559585124254226685e-02,1.006094515323638916e-01,-2.642890065908432007e-02,-3.367375582456588745e-02,-4.678454995155334473e-02,-2.226664125919342041e-02,-4.023980349302291870e-03,3.074965626001358032e-02,1.019412577152252197e-01,1.274459250271320343e-02,1.458360534161329269e-02,6.431251298636198044e-03,-4.745708778500556946e-02,-3.059252165257930756e-02,-3.318367525935173035e-02,-1.296988315880298615e-02,5.707439780235290527e-02,-6.929663568735122681e-02,4.260676726698875427e-02,-6.417358666658401489e-02,-7.539568096399307251e-02,-3.516015037894248962e-02,-3.028802201151847839e-02,-5.447896942496299744e-02,3.892283514142036438e-02,1.861076056957244873e-02,4.503223672509193420e-02,-1.389167271554470062e-02,1.185985952615737915e-01,-3.068786300718784332e-02,2.284163609147071838e-02,5.181766673922538757e-02,9.957093745470046997e-03,4.244922846555709839e-02,2.488975413143634796e-02,-6.464347243309020996e-03,-1.398134510964155197e-02,2.123012579977512360e-02,3.059945628046989441e-02,1.525089610368013382e-02,-4.811898246407508850e-02,1.524122953414916992e-01,-5.942559242248535156e-02,-7.080087810754776001e-02,1.786129362881183624e-02,-2.545795869082212448e-03,-5.947986245155334473e-02,1.489464100450277328e-02,-4.963294137269258499e-03,-1.864845305681228638e-02,2.467107959091663361e-02,-3.877450898289680481e-02,3.719754889607429504e-02,2.831481210887432098e-02,7.606837898492813110e-03,-3.425506129860877991e-02,-3.391024470329284668e-02,4.754040017724037170e-02,-5.513636395335197449e-02,-9.002688527107238770e-02,4.519073292613029480e-02,-2.992928773164749146e-02,-4.498510062694549561e-02,6.296628713607788086e-02,-2.995275892317295074e-02,-5.385334044694900513e-02,-2.257852256298065186e-02,5.463408306241035461e-03,-9.557282179594039917e-02,-6.749419867992401123e-02
-9.836118668317794800e-03,-5.928070470690727234e-02,-4.880222678184509277e-02,-6.152803078293800354e-03,1.142904162406921387e-02,-9.814906865358352661e-02,-1.847662776708602905e-02,-3.340334817767143250e-02,-9.439606219530105591e-02,-4.112613573670387268e-02,5.290542729198932648e-03,-4.162561893463134766e-02,-1.753617636859416962e-02,-2.433951757848262787e-02,-3.588447719812393188e-02,5.119150876998901367e-02,9.360437095165252686e-02,-4.918685927987098694e-02,-9.315159171819686890e-03,3.671539574861526489e-02,4.839121177792549133e-02,1.571056619286537170e-02,8.250973187386989594e-04,1.384860370308160782e-02,-1.819544471800327301e-02,6.306157261133193970e-02,-7.306675612926483154e-02,-4.954024218022823334e-03,1.064961180090904236e-01,1.367551274597644806e-02,-8.532642573118209839e-02,3.174303844571113586e-02,1.015665382146835327e-01,3.134877234697341919e-02,1.454476267099380493e-02,2.679640054702758789e-02,5.873303487896919250e-02,1.618521064519882202e-01,8.838050812482833862e-02,-7.559984922409057617e-02,2.811537310481071472e-02,-9.645177423954010010e-02,-4.991925880312919617e-02,3.103937394917011261e-02,7.049553096294403076e-02,-2.666239812970161438e-02,-1.325872726738452911e-02,-2.956587821245193481e-02,2.906684391200542450e-02,-2.378665655851364136e-02,2.403240464627742767e-02,-8.269165456295013428e-02,-5.166815593838691711e-02,9.567611664533615112e-02,2.522086724638938904e-02,-5.101101845502853394e-02,8.341243863105773926e-02,5.876674130558967590e-02,1.488514710217714310e-02,2.700941823422908783e-02,1.014626957476139069e-02,-1.304496731609106064e-02,1.727805845439434052e-02,2.572773955762386322e-03,3.222139179706573486e-02,-3.744613006711006165e-02,3.556776093319058418e-03,1.690394803881645203e-02,-1.939807645976543427e-02,-2.960465475916862488e-02,-4.758314415812492371e-02,-8.397467434406280518e-02,-4.939625971019268036e-03,-3.832349553704261780e-02,-6.171463802456855774e-02,-5.937538575381040573e-03,-1.842303201556205750e-02,1.318591833114624023e-02,-8.166556060314178467e-02,2.645682357251644135e-02,-4.214692860841751099e-02,4.992184042930603027e-02,-1.443477533757686615e-02,6.045317649841308594e-02,7.625547051429748535e-02,-1.455304399132728577e-02,-3.516277298331260681e-02,-4.032495990395545959e-02,2.753875963389873505e-02,-2.895154757425189018e-03,-6.121584214270114899e-03,4.943899330100975931e-05,-9.406423196196556091e-03,-6.071811541914939880e-02,-3.033388406038284302e-02,6.502541154623031616e-02,-1.699160225689411163e-02,1.807064749300479889e-02,-3.913720697164535522e-02,-1.385749503970146179e-02,-1.869416236877441406e-02,-3.044133447110652924e-02,1.652500964701175690e-02,4.579543322324752808e-02,4.349573701620101929e-02,4.864420369267463684e-02,-9.432557225227355957e-02,1.603030040860176086e-02,5.475116521120071411e-02,-4.175969958305358887e-02,-2.668707631528377533e-02,-1.998304389417171478e-03,-3.650351241230964661e-02,-5.085304379463195801e-02,1.459486596286296844e-02,5.206754803657531738e-02,3.291364759206771851e-02,6.343083083629608154e-02,-5.452833697199821472e-02,-2.243607863783836365e-02,4.367917776107788086e-02,6.087988987565040588e-02,-2.900299802422523499e-02,-5.962421186268329620e-03,3.478292003273963928e-02,-5.365549772977828979e-02,-8.941427618265151978e-02,3.468498587608337402e-02
6.389899551868438721e-02,-1.412032270309282467e-05,-4.167701676487922668e-02,-5.790400132536888123e-02,6.023967638611793518e-03,-5.389815941452980042e-02,-1.112948521040380001e-03,-3.344836458563804626e-02,-2.368776313960552216e-02,2.575850300490856171e-02,2.082297019660472870e-02,-2.492279373109340668e-02,8.730138838291168213e-02,-2.028395608067512512e-02,1.394505053758621216e-02,2.534066885709762573e-02,1.757871732115745544e-02,-2.670486830174922943e-02,-1.208366733044385910e-02,-1.068259682506322861e-02,1.092532463371753693e-02,6.302389316260814667e-03,-5.383611191064119339e-03,-2.438147366046905518e-02,2.679608762264251709e-02,-2.029755339026451111e-02,3.115757182240486145e-02,8.868417143821716309e-02,6.839682906866073608e-02,-3.300924226641654968e-02,-4.040338471531867981e-02,-9.291332215070724487e-02,2.371594682335853577e-02,-3.273147344589233398e-02,2.649115398526191711e-02,2.131732925772666931e-02,-1.549999415874481201e-02,5.640883371233940125e-02,-2.277769893407821655e-02,-3.400400653481483459e-02,-3.564979135990142822e-02,-8.838733285665512085e-02,-1.265169307589530945e-02,1.392624527215957642e-02,-5.006166175007820129e-02,7.081545889377593994e-02,-1.662043109536170959e-02,-2.419950999319553375e-02,9.237944334745407104e-02,-6.166515499353408813e-02,2.202471904456615448e-02,-2.073660306632518768e-02,-5.143915303051471710e-03,2.547048218548297882e-02,5.877725034952163696e-02,-6.408914178609848022e-02,-4.247372038662433624e-03,-8.335687220096588135e-02,-5.132995173335075378e-02,-2.193205244839191437e-02,5.599788576364517212e-02,-4.794690385460853577e-02,-5.580455530434846878e-03,5.943161994218826294e-02,2.464040182530879974e-02,-5.752456188201904297e-02,-2.469891682267189026e-03,-4.072051867842674255e-02,-1.131847035139799118e-02,-2.153492346405982971e-02,-1.549641974270343781e-02,-3.619186207652091980e-02,-1.180888339877128601e-02,-4.386503249406814575e-02,-2.215055748820304871e-02,-6.865397095680236816e-02,-4.613628983497619629e-02,-7.884385064244270325e-03,-4.595062881708145142e-02,6.886221468448638916e-02,2.682838356122374535e-03,5.044573172926902771e-02,1.202862802892923355e-02,-5.979483202099800110e-02,8.982042968273162842e-02,-1.306293718516826630e-02,-3.054695203900337219e-02,-2.066732011735439301e-02,-4.391017556190490723e-02,-1.022676452994346619e-01,-5.968391895294189453e-02,-8.288316428661346436e-02,3.851829096674919128e-02,-5.323672667145729065e-03,-3.676802664995193481e-02,-5.559246987104415894e-02,-9.983340278267860413e-03,6.369732320308685303e-02,-2.701407670974731445e-02,-1.268278062343597412e-02,1.993538253009319305e-02,-1.202461309731006622e-02,4.740517958998680115e-02,-4.096084274351596832e-03,-7.204475253820419312e-02,2.752514556050300598e-02,-5.836609378457069397e-02,-3.638630360364913940e-02,-3.564265789464116096e-03,-6.701285392045974731e-02,4.769891127943992615e-02,1.955851912498474121e-02,-1.771617680788040161e-02,-4.047905653715133667e-02,-5.160153657197952271e-02,1.263009477406740189e-02,-3.043998964130878448e-02,5.200197920203208923e-02,2.483925223350524902e-02,-6.200379505753517151e-02,1.089853420853614807e-01,1.322516649961471558e-01,3.747598454356193542e-02,-5.592026561498641968e-02,-5.829882575199007988e-04,-1.523070968687534332e-02,-4.015571624040603638e-02,-2.009810321033000946e-02
1.021229848265647888e-02,4.367219284176826477e-03,-1.237653102725744247e-02,-9.261621534824371338e-02,-6.125372601673007011e-04,-3.011899627745151520e-02,3.355939313769340515e-02,-3.696548566222190857e-02,4.789072088897228241e-03,8.117402903735637665e-03,4.024068638682365417e-02,3.218530490994453430e-02,1.054976284503936768e-01,5.035527050495147705e-03,3.186073526740074158e-02,-2.411963790655136108e-02,6.432914733886718750e-02,4.161576181650161743e-02,1.428961940109729767e-02,1.760465092957019806e-02,-3.924325108528137207e-02,1.550648361444473267e-02,-2.462030947208404541e-02,-8.446399867534637451e-02,3.080834075808525085e-02,-4.298053681850433350e-02,3.129072114825248718e-02,-3.231601044535636902e-02,1.325331442058086395e-02,2.089260378852486610e-03,-3.444072231650352478e-02,-8.347415924072265625e-02,7.333970069885253906e-02,-1.026243716478347778e-01,2.889465168118476868e-02,4.129933565855026245e-02,-2.460386417806148529e-02,-7.689414173364639282e-02,-2.603790163993835449e-02,2.738649956881999969e-02,6.787387188524007797e-03,-3.416607156395912170e-02,-3.304776176810264587e-02,8.942606300115585327e-02,7.837526500225067139e-03,8.894336223602294922e-02,2.169154770672321320e-02,-5.168659612536430359e-02,6.785231083631515503e-02,3.940018359571695328e-03,3.384477167855948210e-05,-1.662212982773780823e-02,-4.909048601984977722e-02,-2.271673455834388733e-02,-1.967605575919151306e-02,-3.125631064176559448e-02,-4.420498013496398926e-02,-6.260184943675994873e-02,9.980799630284309387e-03,-6.765245646238327026e-02,-9.142167866230010986e-03,2.470357529819011688e-02,-3.455164656043052673e-02,-2.686456590890884399e-02,3.397357091307640076e-02,-4.890736564993858337e-02,-2.785400114953517914e-02,-1.242916099727153778e-02,3.981906548142433167e-02,-3.800918161869049072e-02,1.006622463464736938e-01,-5.902792513370513916e-02,-3.442332148551940918e-02,3.790658339858055115e-02,1.429872820153832436e-03,-4.856379330158233643e-02,9.694387763738632202e-02,4.009672254323959351e-02,2.395515143871307373e-02,-2.188130095601081848e-02,-6.861347705125808716e-03,-5.679409950971603394e-03,2.810474298894405365e-02,-2.778257057070732117e-02,1.105918176472187042e-02,-1.751202903687953949e-02,-5.759035795927047729e-02,-2.358057163655757904e-02,2.034010924398899078e-02,-3.840485587716102600e-02,-3.601523861289024353e-02,-5.686188861727714539e-02,-1.400850364007055759e-03,-4.272963851690292358e-02,-3.035308234393596649e-02,-9.738283604383468628e-02,5.266007967293262482e-03,-5.680965259671211243e-04,6.478677503764629364e-03,2.159096486866474152e-02,4.662206768989562988e-02,-9.015204757452011108e-02,-8.718028664588928223e-03,-3.837307915091514587e-02,-4.011007025837898254e-02,-3.528728336095809937e-02,-6.858567707240581512e-03,7.176418602466583252e-02,1.448290888220071793e-02,2.366410382091999054e-02,8.753188699483871460e-02,1.896853325888514519e-03,-1.008655056357383728e-01,-3.578713163733482361e-02,-6.076281890273094177e-02,-7.077809423208236694e-02,-1.233922597020864487e-02,3.508088365197181702e-02,-1.086196526885032654e-01,1.990743167698383331e-02,5.405074730515480042e-02,7.534124702215194702e-02,-2.125420793890953064e-02,-3.442646190524101257e-02,-6.669394671916961670e-03,-1.213845238089561462e-02,5.199072416871786118e-03,-3.614241629838943481e-02
-5.278851464390754700e-02,2.616562135517597198e-02,-2.768062986433506012e-02,-4.669694975018501282e-02,2.341212891042232513e-02,2.857926115393638611e-02,-3.585918992757797241e-02,-7.540144026279449463e-03,-1.008318644016981125e-02,-5.763420462608337402e-02,1.638810336589813232e-02,-1.341451518237590790e-02,-2.212358172982931137e-03,1.586965845490340143e-05,5.290795117616653442e-02,-4.793670028448104858e-02,1.032675132155418396e-01,-4.118378087878227234e-02,-1.304421108216047287e-02,-7.861626148223876953e-02,-3.218514844775199890e-02,5.563962832093238831e-02,-1.794891315512359142e-03,4.699077084660530090e-02,-1.432231627404689789e-02,-1.518726255744695663e-02,-7.966444827616214752e-03,-1.526597701013088226e-02,3.757086768746376038e-02,-1.521184225566685200e-03,7.176901213824748993e-03,4.193064570426940918e-02,7.468534633517265320e-03,-5.542435124516487122e-02,4.382017254829406738e-02,3.030116483569145203e-02,-3.150286525487899780e-02,5.705186724662780762e-02,3.075489401817321777e-02,-3.267896920442581177e-02,-5.079853907227516174e-02,-5.913408100605010986e-02,-3.984294459223747253e-02,-2.518973313271999359e-02,-7.589208893477916718e-03,2.660612389445304871e-02,3.828100487589836121e-02,6.228147447109222412e-02,3.435923159122467041e-02,-5.165749788284301758e-02,-3.195514157414436340e-02,-1.356855183839797974e-01,3.306442126631736755e-02,9.052626043558120728e-02,-1.980889588594436646e-02,-9.353554248809814453e-02,-4.735012189485132694e-04,5.926556885242462158e-03,5.785169079899787903e-02,-6.152330711483955383e-02,-6.483886390924453735e-03,-3.472694382071495056e-02,2.735601365566253662e-02,-5.939235165715217590e-02,-6.747047603130340576e-02,-5.488146841526031494e-02,3.855721326544880867e-03,-4.854077473282814026e-02,3.401412861421704292e-03,-1.913215965032577515e-03,5.846179649233818054e-02,7.038898766040802002e-04,-5.354434251785278320e-02,8.970323018729686737e-03,3.723448514938354492e-02,-6.716970354318618774e-02,-1.980885304510593414e-02,1.865122094750404358e-02,-2.930655516684055328e-02,-4.282812122255563736e-03,-1.364800427109003067e-02,-7.584327366203069687e-03,-2.945513464510440826e-03,4.178762435913085938e-02,5.784007161855697632e-02,-5.109877511858940125e-02,-5.697707086801528931e-02,-3.547146171331405640e-02,1.683451049029827118e-02,-2.529093436896800995e-02,4.430928081274032593e-02,-5.051719769835472107e-02,3.895792411640286446e-03,-1.840497739613056183e-02,3.216678649187088013e-02,-1.679554581642150879e-02,6.037763133645057678e-02,-1.087511051446199417e-02,2.507122466340661049e-03,-6.605838239192962646e-02,1.004154235124588013e-02,4.174162447452545166e-02,-1.330154575407505035e-02,-6.758740544319152832e-02,-1.830311864614486694e-02,6.462353467941284180e-02,-5.871124565601348877e-02,-5.888950452208518982e-02,-1.270858384668827057e-02,-1.098852884024381638e-02,-3.882213309407234192e-02,4.404747486114501953e-02,3.994321450591087341e-03,-4.543290287256240845e-02,4.957680776715278625e-02,1.537214126437902451e-02,4.627542570233345032e-02,2.841182053089141846e-02,-4.083824530243873596e-02,1.371174026280641556e-02,1.230714693665504456e-01,8.070201426744461060e-02,-5.725457519292831421e-02,-9.502343088388442993e-02,2.943439409136772156e-02,1.607471331954002380e-02,-1.807335019111633301e-02,1.455451175570487976e-02
3.697934793308377266e-03,1.186671480536460876e-02,-5.174516513943672180e-02,-5.655826255679130554e-02,-6.893874704837799072e-02,7.596455398015677929e-04,-4.968876764178276062e-02,-5.650083348155021667e-02,6.334311515092849731e-02,-2.593896817415952682e-03,4.019889980554580688e-02,2.662952989339828491e-03,-3.786711767315864563e-02,-2.659552358090877533e-02,-5.918459501117467880e-03,5.322239547967910767e-02,-1.245402917265892029e-02,-3.948537167161703110e-03,-9.345578029751777649e-03,1.808314770460128784e-02,-4.301871173083782196e-03,4.144913330674171448e-02,5.158262699842453003e-02,-9.619547054171562195e-04,3.380641341209411621e-03,5.850579217076301575e-02,-1.738291350193321705e-03,-2.494954736903309822e-03,1.436613034456968307e-02,-1.461988687515258789e-02,1.264054514467716217e-02,4.377149790525436401e-02,-7.627586368471384048e-03,2.473680488765239716e-02,6.896825134754180908e-02,-2.839785069227218628e-02,-4.533491283655166626e-02,5.356766656041145325e-02,-3.941420000046491623e-03,-4.889299161732196808e-03,-5.257335491478443146e-03,-9.204791486263275146e-02,-6.386826187372207642e-02,1.557122915983200073e-02,-3.962063416838645935e-02,4.098459705710411072e-02,4.806709010154008865e-03,-1.827764883637428284e-02,-5.241085588932037354e-02,-2.960416721180081367e-03,8.570439182221889496e-03,-1.484747976064682007e-03,4.423880204558372498e-02,7.221935689449310303e-02,5.498646572232246399e-02,-5.289082229137420654e-02,5.663770809769630432e-02,-4.803202580660581589e-03,-4.004650190472602844e-02,-6.425248831510543823e-02,4.923264309763908386e-02,-5.290491040796041489e-03,7.458875328302383423e-02,-4.866947233676910400e-02,-2.142023527994751930e-03,-2.069462090730667114e-02,-2.981288172304630280e-02,-8.938577957451343536e-03,-5.090035498142242432e-02,1.195707172155380249e-02,1.013430533930659294e-03,6.940557062625885010e-02,5.976350605487823486e-02,1.514319516718387604e-02,-4.667935892939567566e-02,-2.590134739875793457e-02,-6.501715630292892456e-02,-6.311451643705368042e-02,-4.617752134799957275e-02,-5.561340600252151489e-02,3.560118377208709717e-02,-4.901280999183654785e-02,-1.704074256122112274e-02,2.311868220567703247e-02,-2.151704207062721252e-02,-6.111037451773881912e-03,-6.237570196390151978e-02,1.933180354535579681e-02,-1.559809222817420959e-02,-7.050067186355590820e-02,-4.698461294174194336e-02,-5.957766622304916382e-02,-8.488351479172706604e-03,-3.336318302899599075e-03,-5.875573307275772095e-02,8.712548762559890747e-03,-4.007646813988685608e-02,2.120062895119190216e-02,6.214515306055545807e-03,-4.997335001826286316e-02,1.901576481759548187e-02,5.858610942959785461e-02,3.850652649998664856e-02,1.580965705215930939e-02,-1.015563961118459702e-02,-2.819509431719779968e-02,6.605178862810134888e-02,-3.533253446221351624e-02,3.052560426294803619e-02,-9.995955042541027069e-03,-1.431861054152250290e-02,1.734483242034912109e-02,-6.273557245731353760e-02,3.115647472441196442e-02,2.666249312460422516e-02,4.242775961756706238e-02,1.582996337674558163e-03,4.344835877418518066e-02,-2.232467196881771088e-02,-8.068655431270599365e-02,1.045527383685112000e-01,5.685426667332649231e-02,4.597959667444229126e-02,-3.319954127073287964e-02,-9.214914403855800629e-03,1.448552217334508896e-02,-1.671913079917430878e-02,-8.874817192554473877e-02
2.477705292403697968e-02,4.688309878110885620e-02,-1.452438905835151672e-02,-7.219936698675155640e-02,3.822511993348598480e-03,-1.645025052130222321e-02,-9.129912592470645905e-03,-4.229248315095901489e-02,2.855546399950981140e-02,2.298125438392162323e-02,-2.287633158266544342e-02,-8.364698290824890137e-02,-2.703375369310379028e-02,-7.630216330289840698e-02,3.454307094216346741e-02,-5.229078233242034912e-02,1.769706420600414276e-02,-4.348742589354515076e-02,2.031638473272323608e-02,7.639335840940475464e-02,-4.911642521619796753e-02,6.557089835405349731e-02,2.614243514835834503e-02,-1.011213958263397217e-01,-5.641007050871849060e-02,2.462953794747591019e-03,-4.339707642793655396e-02,-9.845454245805740356e-02,3.194024413824081421e-02,1.061510480940341949e-02,-4.338306188583374023e-02,2.770334854722023010e-02,3.383320197463035583e-02,-3.041868470609188080e-02,5.171647761017084122e-03,-5.756947025656700134e-02,-3.378715738654136658e-02,-5.306784436106681824e-02,-8.148387819528579712e-02,-2.314004115760326385e-02,-1.407790463417768478e-02,4.245917871594429016e-02,-7.706676423549652100e-02,-1.167446281760931015e-02,-7.895805686712265015e-02,1.811745390295982361e-02,6.818945705890655518e-02,8.673972450196743011e-03,-9.864113479852676392e-02,1.146993041038513184e-02,-4.556253552436828613e-03,3.916384279727935791e-02,-7.601469010114669800e-02,3.594988211989402771e-02,-9.266675263643264771e-02,-4.404441267251968384e-02,-8.145252615213394165e-02,-3.562187030911445618e-02,-1.960277557373046875e-02,-8.385526388883590698e-02,1.939955353736877441e-02,1.454909611493349075e-02,-3.356219455599784851e-02,5.192587897181510925e-02,-2.658623456954956055e-02,1.846012845635414124e-02,1.541060116142034531e-02,-4.794110730290412903e-02,-7.803129963576793671e-03,-3.523541614413261414e-02,9.556012600660324097e-02,-6.008299067616462708e-03,-5.695312097668647766e-02,-1.864997670054435730e-02,-9.486728161573410034e-02,-8.048637211322784424e-02,1.308235991746187210e-02,-2.664091624319553375e-02,1.771092973649501801e-02,-4.676145687699317932e-02,5.990549549460411072e-02,-9.009257890284061432e-03,-8.423929102718830109e-03,2.107475697994232178e-02,1.913464162498712540e-03,1.578902266919612885e-02,-4.775847494602203369e-02,-2.749018743634223938e-02,1.515519688837230206e-03,-3.088133595883846283e-02,3.319446370005607605e-02,-4.823923856019973755e-02,1.779707265086472034e-03,4.357449337840080261e-02,-9.973223507404327393e-02,4.074848070740699768e-02,-2.634291164577007294e-02,-2.279392816126346588e-02,-9.167878329753875732e-02,-4.562139883637428284e-02,4.922333732247352600e-02,3.861551638692617416e-03,-8.157977834343910217e-03,-2.270896732807159424e-02,-1.441949047148227692e-02,9.200551547110080719e-03,6.858623772859573364e-02,3.715734928846359253e-02,-5.805736035108566284e-02,-1.043327245861291885e-02,8.065903931856155396e-02,5.684262514114379883e-02,-2.166530862450599670e-02,-2.464004978537559509e-02,1.401352323591709137e-02,-2.133621461689472198e-02,-2.159657143056392670e-02,4.216023534536361694e-02,-5.452131479978561401e-02,5.068685859441757202e-02,-1.515333307906985283e-03,-9.023793041706085205e-03,-4.129922762513160706e-02,-6.030687689781188965e-02,-4.301413521170616150e-02,-3.643600642681121826e-02,-2.571773156523704529e-02,-8.054381608963012695e-02
1.170065253973007202e-03,1.252640411257743835e-02,3.582228720188140869e-02,1.994772814214229584e-02,1.674791425466537476e-02,1.964277029037475586e-02,1.660926849581301212e-03,-3.541464358568191528e-02,1.244588382542133331e-02,-4.157676175236701965e-02,7.520280778408050537e-02,9.709943830966949463e-02,-5.811676383018493652e-02,7.034082710742950439e-02,3.909637406468391418e-02,5.828857794404029846e-02,8.223469369113445282e-03,3.021901473402976990e-02,6.336685270071029663e-03,-6.832510977983474731e-02,3.262339625507593155e-03,2.604184299707412720e-02,2.795651182532310486e-02,4.648386687040328979e-02,-5.031428299844264984e-03,-1.579243317246437073e-02,-7.832066714763641357e-02,-5.174911767244338989e-02,-8.423622697591781616e-03,4.766010865569114685e-02,3.254026547074317932e-02,2.988306246697902679e-02,9.767325222492218018e-02,8.713620714843273163e-03,-1.992148719727993011e-02,6.546920165419578552e-03,-3.455716371536254883e-02,-3.546086698770523071e-02,-9.055222570896148682e-02,1.020179167389869690e-01,1.782677695155143738e-02,-2.310228161513805389e-02,-2.061579376459121704e-02,2.692061662673950195e-02,-5.238161981105804443e-02,-2.495561912655830383e-02,3.791645541787147522e-02,-5.142047256231307983e-02,9.264917112886905670e-03,-4.531897604465484619e-02,-2.295890077948570251e-02,-3.323138132691383362e-02,1.050443015992641449e-02,-7.346145063638687134e-02,4.093912616372108459e-02,1.987989805638790131e-02,3.958358615636825562e-02,-2.662959508597850800e-02,-1.365686953067779541e-02,-3.388162702322006226e-02,-7.001270353794097900e-02,-2.018937282264232635e-02,-2.567861974239349365e-02,7.015495747327804565e-02,-1.522528659552335739e-02,-1.178338844329118729e-02,-6.503137946128845215e-02,2.479669637978076935e-02,2.164652384817600250e-02,-3.208607435226440430e-02,7.488658279180526733e-02,4.577321559190750122e-02,-3.630011528730392456e-02,6.554838269948959351e-02,-3.206503391265869141e-02,-2.997678518295288086e-02,-3.100498765707015991e-02,-5.444256588816642761e-03,-7.387750595808029175e-02,-4.490249976515769958e-02,1.734725199639797211e-02,-2.647676877677440643e-02,9.876105934381484985e-03,-2.333893999457359314e-02,5.838445201516151428e-02,3.856347873806953430e-02,1.800736226141452789e-02,-5.768980458378791809e-02,-4.551836848258972168e-02,2.721920982003211975e-02,1.810260303318500519e-02,-4.494516924023628235e-02,-3.205372765660285950e-02,-5.972850695252418518e-02,-2.794082090258598328e-02,-7.309756474569439888e-04,1.102498080581426620e-02,6.482569873332977295e-02,-1.121823117136955261e-02,-2.911901334300637245e-03,2.560899779200553894e-02,-1.370053924620151520e-02,-2.865378186106681824e-02,-1.329252216964960098e-02,-1.527576800435781479e-02,9.105149656534194946e-02,4.568277671933174133e-02,-5.992368236184120178e-02,-4.543951153755187988e-02,6.465024501085281372e-02,-1.369351986795663834e-02,-2.655391290318220854e-05,-6.984402984380722046e-02,-4.931755736470222473e-02,-1.746870949864387512e-02,-2.340386807918548584e-02,4.774102196097373962e-02,-2.557813376188278198e-02,-8.463762700557708740e-03,2.208026126027107239e-02,-2.028049901127815247e-02,-2.144762128591537476e-02,-2.826343290507793427e-02,-2.147742733359336853e-02,-1.085407473146915436e-02,-7.365936040878295898e-02,-3.620470687747001648e-02,-4.549077898263931274e-02
8.792792446911334991e-03,4.727453924715518951e-04,-4.204270243644714355e-02,-9.216846525669097900e-02,-2.997829392552375793e-02,7.142057269811630249e-02,1.464014966040849686e-02,-3.407391905784606934e-02,2.476486377418041229e-02,1.245209109038114548e-02,6.757551431655883789e-02,9.872556664049625397e-03,-1.190560087561607361e-01,2.215679362416267395e-02,7.766354829072952271e-02,3.526620334014296532e-03,-1.485062483698129654e-02,-5.104387179017066956e-02,-3.469602018594741821e-02,-4.596862569451332092e-02,-8.430440723896026611e-02,3.693502768874168396e-02,-2.661712281405925751e-02,2.411293424665927887e-02,-3.794102743268013000e-02,-2.240582369267940521e-03,-2.353915572166442871e-02,-3.396299853920936584e-02,-3.214113414287567139e-02,-2.373305335640907288e-02,-6.132102757692337036e-02,1.554684340953826904e-02,5.413953959941864014e-02,-2.519027329981327057e-02,-3.166861832141876221e-02,-5.034827627241611481e-03,-3.567048162221908569e-02,-3.441034257411956787e-02,-7.461304962635040283e-02,-2.153167873620986938e-02,2.459810487926006317e-02,-2.860627137124538422e-02,-1.083737239241600037e-02,-1.700151339173316956e-02,-3.551157191395759583e-02,8.229398372350260615e-05,2.138903550803661346e-02,-1.288871373981237411e-02,9.670737199485301971e-03,5.092754727229475975e-04,-3.995261713862419128e-02,3.264187648892402649e-02,-2.906953729689121246e-02,-9.038480930030345917e-03,3.798937425017356873e-02,5.326776579022407532e-02,4.457426071166992188e-02,3.310092724859714508e-03,-6.935288757085800171e-02,-4.612840339541435242e-02,-4.822515696287155151e-02,-2.736060321331024170e-02,-1.968041062355041504e-02,-1.055526360869407654e-02,-4.633585922420024872e-03,6.340254843235015869e-02,1.772064156830310822e-02,-9.985236451029777527e-03,5.557326949201524258e-04,-2.029230073094367981e-02,3.193008247762918472e-03,6.847515702247619629e-02,4.724056273698806763e-02,-2.105058357119560242e-02,-3.185967355966567993e-02,-3.637342154979705811e-02,7.275748997926712036e-03,8.115752600133419037e-03,-4.272332042455673218e-02,-2.082858607172966003e-02,6.089340429753065109e-03,-4.474575072526931763e-02,-5.999518185853958130e-02,-2.548513561487197876e-02,-2.616777084767818451e-02,-4.152262583374977112e-02,-2.149923518300056458e-02,-8.541168645024299622e-03,-2.387303300201892853e-02,-8.401338756084442139e-02,3.380363434553146362e-02,3.987932950258255005e-02,-2.950377203524112701e-02,-7.449946366250514984e-03,-3.695844113826751709e-02,-1.034200936555862427e-02,-6.736112385988235474e-02,5.764900706708431244e-03,4.104997497051954269e-03,4.785018973052501678e-03,3.957813605666160583e-03,-1.670861057937145233e-02,-9.932130342349410057e-04,6.561190634965896606e-02,1.588962785899639130e-02,-3.340987488627433777e-03,1.263428330421447754e-01,-1.430550683289766312e-02,9.513556025922298431e-03,-7.923915050923824310e-03,-8.744594641029834747e-03,-5.940058454871177673e-02,-9.893883951008319855e-03,-4.706271737813949585e-02,6.864768266677856445e-02,-2.062564343214035034e-02,-1.757177338004112244e-02,-5.252730101346969604e-03,1.568696647882461548e-02,-1.635636016726493835e-02,-9.856393188238143921e-02,-2.873034588992595673e-02,-8.019095286726951599e-03,1.518396660685539246e-02,5.509088933467864990e-02,-1.607337594032287598e-02,-3.801419585943222046e-02,-7.666411995887756348e-02
2.642199210822582245e-02,-4.176812991499900818e-02,-2.737019769847393036e-02,-8.749666810035705566e-02,-2.775861509144306183e-02,6.452461332082748413e-02,-3.947557508945465088e-02,-2.283872663974761963e-02,4.312410578131675720e-02,-3.407814353704452515e-02,-2.961517078801989555e-03,-8.209703862667083740e-02,1.105145737528800964e-02,-2.889543026685714722e-02,7.303927093744277954e-02,3.962492197751998901e-02,-2.936075069010257721e-02,-5.998468026518821716e-02,-3.034845925867557526e-02,1.139641478657722473e-01,-8.349631726741790771e-02,-3.190265595912933350e-02,-2.022421546280384064e-02,2.675477648153901100e-03,-5.014067515730857849e-02,-2.571249566972255707e-02,-4.439430683851242065e-02,6.658808793872594833e-03,9.681423008441925049e-02,-5.130369588732719421e-02,3.967947140336036682e-02,-7.586813997477293015e-03,7.116576284170150757e-02,6.602655164897441864e-03,2.514450624585151672e-02,-2.598327584564685822e-03,-3.032394684851169586e-02,-7.906348258256912231e-02,-2.216750942170619965e-02,-2.713191322982311249e-02,1.082065887749195099e-02,-1.092175487428903580e-02,-7.277520000934600830e-02,-1.174354646354913712e-02,1.016112230718135834e-02,-5.078795179724693298e-02,1.068100631237030029e-01,-5.391619354486465454e-02,-6.555116735398769379e-03,-4.865899309515953064e-02,-5.582312867045402527e-02,2.996712923049926758e-02,-4.018635302782058716e-02,3.504374250769615173e-02,-1.016019731760025024e-01,1.822143793106079102e-02,2.174315974116325378e-02,-1.365227071801200509e-04,-8.052836172282695770e-03,-4.772241413593292236e-02,5.972927436232566833e-03,1.435467507690191269e-03,2.211315184831619263e-02,5.493810400366783142e-02,3.539824485778808594e-02,9.926261752843856812e-02,2.559563145041465759e-02,-2.546868659555912018e-02,1.762855984270572662e-02,-1.304899156093597412e-02,1.517676096409559250e-02,4.673656076192855835e-02,-8.689852431416511536e-03,-2.825130149722099304e-02,-3.899182379245758057e-02,1.092351693660020828e-02,2.755870670080184937e-02,9.794587641954421997e-02,2.319914288818836212e-02,2.442263811826705933e-02,5.443548411130905151e-02,2.346923388540744781e-02,-4.023504629731178284e-02,-1.985009014606475830e-02,-3.503916412591934204e-02,-4.321350157260894775e-02,-1.847440004348754883e-02,-3.255805745720863342e-02,2.787694800645112991e-03,8.238984644412994385e-02,4.483347013592720032e-02,-4.560040682554244995e-02,6.681427359580993652e-02,1.019819825887680054e-02,-1.744680851697921753e-02,2.551673352718353271e-02,-4.835956171154975891e-02,-3.346954658627510071e-02,1.140139531344175339e-02,4.520825669169425964e-02,-1.091879326850175858e-02,9.743394330143928528e-03,-3.364078328013420105e-02,8.740810304880142212e-02,-4.376393742859363556e-03,7.419473677873611450e-02,2.920062839984893799e-02,5.352135747671127319e-02,5.575439892709255219e-03,5.862053483724594116e-02,-6.235627084970474243e-02,1.210628356784582138e-02,1.175267994403839111e-02,3.187722712755203247e-02,7.555136829614639282e-02,6.098143290728330612e-03,-6.230982765555381775e-02,-6.929588317871093750e-02,-4.191122204065322876e-02,9.805894643068313599e-02,-4.969694837927818298e-02,-2.508942037820816040e-02,-1.587732136249542236e-02,-1.799196749925613403e-02,-1.205255184322595596e-02,-3.493035212159156799e-02,3.597227483987808228e-02,4.143212921917438507e-03
-5.176664888858795166e-02,4.988745786249637604e-03,-2.449405752122402191e-02,-8.927777409553527832e-03,-6.511818151921033859e-03,3.146376833319664001e-02,3.265459090471267700e-02,-2.507473155856132507e-02,-1.748074544593691826e-03,-1.256319135427474976e-02,-4.471250623464584351e-02,-8.081846870481967926e-03,-3.495964780449867249e-02,1.010103803128004074e-02,3.119884803891181946e-02,2.806242182850837708e-02,7.757428288459777832e-02,7.924146205186843872e-02,-4.928136616945266724e-02,-4.242407158017158508e-02,2.695352397859096527e-02,5.260144174098968506e-02,2.332696318626403809e-02,-2.491297200322151184e-02,5.997580662369728088e-02,1.210675574839115143e-02,-3.724534064531326294e-02,-6.702683866024017334e-02,-2.612243406474590302e-02,-3.118542209267616272e-02,-5.175473541021347046e-02,-4.779556766152381897e-02,-1.649726741015911102e-02,7.926341891288757324e-02,-2.339943312108516693e-02,1.944933459162712097e-02,3.586167097091674805e-02,-2.445602789521217346e-02,-3.787935152649879456e-02,-5.421547219157218933e-02,8.624110370874404907e-02,4.788750037550926208e-02,-5.767477676272392273e-02,9.552907198667526245e-02,3.933985158801078796e-02,-3.391184657812118530e-02,-2.581711672246456146e-02,4.078263789415359497e-02,-6.540670990943908691e-02,7.272469997406005859e-02,-2.787323854863643646e-02,-8.804535493254661560e-03,7.068756036460399628e-03,-3.287838539108633995e-03,2.074156701564788818e-02,-2.754000201821327209e-02,-2.410599961876869202e-03,-1.550547126680612564e-02,2.451022528111934662e-02,3.894867375493049622e-03,3.919156640768051147e-02,-6.057932972908020020e-03,-6.097054108977317810e-02,-4.591034725308418274e-02,1.483452972024679184e-03,1.652229763567447662e-02,-3.285030648112297058e-02,-3.289461135864257812e-02,8.637138456106185913e-02,-3.454993665218353271e-02,1.264769025146961212e-02,-3.421740978956222534e-02,7.566645741462707520e-02,1.531268004328012466e-02,-4.821854177862405777e-03,-7.204606384038925171e-02,1.151091232895851135e-02,3.047062782570719719e-03,-3.710756450891494751e-02,-1.484179217368364334e-02,-4.014811944216489792e-03,-5.920749902725219727e-02,3.335430845618247986e-02,-3.396658226847648621e-03,-5.605621263384819031e-02,3.127582371234893799e-02,-2.473615109920501709e-02,-1.964890211820602417e-02,-1.064156461507081985e-02,-6.005309149622917175e-02,-6.782802194356918335e-02,-4.273019358515739441e-02,-2.259844727814197540e-02,-6.472603231668472290e-02,8.573499321937561035e-02,1.498369092587381601e-04,-2.476921305060386658e-02,-2.501921355724334717e-02,-2.919214591383934021e-02,1.458259522914886475e-01,2.741506695747375488e-02,-1.327833905816078186e-02,-6.889383774250745773e-03,-1.886665262281894684e-02,6.877384334802627563e-02,-7.153805345296859741e-03,-1.773381256498396397e-03,-4.634589422494173050e-03,-4.158078134059906006e-02,-7.826436311006546021e-02,-1.045509614050388336e-02,-5.282198637723922729e-02,4.395294561982154846e-02,-3.812601789832115173e-02,-3.304695338010787964e-02,1.239957194775342941e-02,1.929637975990772247e-03,-3.572482150048017502e-03,-1.982859708368778229e-02,2.630487829446792603e-02,6.772443186491727829e-03,-1.147907786071300507e-02,-5.362441763281822205e-02,1.816648244857788086e-02,1.052700728178024292e-02,-6.567534804344177246e-02,-4.550698772072792053e-02,-3.962570801377296448e-02
4.439628496766090393e-02,5.515833199024200439e-02,-2.176501788198947906e-03,1.031384151428937912e-02,-2.000456675887107849e-03,1.435378659516572952e-02,3.952741622924804688e-02,1.201405376195907593e-02,-3.618393093347549438e-02,-1.513002999126911163e-02,-5.429516360163688660e-02,-1.036044210195541382e-01,-5.348569899797439575e-02,-3.515137359499931335e-02,3.801472252234816551e-03,-1.198913529515266418e-02,8.121387660503387451e-02,7.027450948953628540e-02,4.271400347352027893e-02,-2.196923643350601196e-02,-3.342559933662414551e-02,6.437839567661285400e-02,-4.577460139989852905e-02,-2.406462468206882477e-02,-1.925544813275337219e-02,3.243262320756912231e-02,-6.954424828290939331e-02,-3.136708959937095642e-02,-2.557706274092197418e-02,-4.623468220233917236e-02,-3.935432061553001404e-02,2.054066956043243408e-02,-2.153009548783302307e-02,2.635683864355087280e-02,7.424224633723497391e-03,9.132344275712966919e-02,-1.102162804454565048e-02,-1.895735599100589752e-02,6.730639189481735229e-02,-3.995113540440797806e-03,1.070335507392883301e-01,-7.498561590909957886e-02,-3.011985123157501221e-02,1.544342003762722015e-02,-4.495943337678909302e-02,-1.095348000526428223e-01,4.079801496118307114e-03,3.539666905999183655e-02,-6.659733131527900696e-03,1.896801777184009552e-02,-1.123499940149486065e-03,2.912839176133275032e-03,-1.214561238884925842e-02,5.385435372591018677e-02,-7.210816442966461182e-02,3.495799750089645386e-02,9.979304671287536621e-02,-5.222731456160545349e-02,3.512958064675331116e-02,-1.348147727549076080e-02,-9.523537009954452515e-02,2.529987320303916931e-02,-2.180724777281284332e-02,-7.642772793769836426e-02,3.747558966279029846e-02,-5.372140556573867798e-02,2.204270660877227783e-02,-4.590540751814842224e-02,6.817627698183059692e-02,3.105382062494754791e-02,9.613937884569168091e-02,-1.741923391819000244e-02,-3.051737882196903229e-02,-5.438341945409774780e-02,-3.952079638838768005e-02,-1.320959161967039108e-02,1.402927562594413757e-02,-8.789686113595962524e-02,1.339693460613489151e-02,-2.165235579013824463e-02,-7.076920568943023682e-02,-6.831209361553192139e-02,8.402071893215179443e-02,5.958758667111396790e-02,5.329892784357070923e-02,1.767894136719405651e-03,1.294622081331908703e-03,-5.268118157982826233e-02,-4.966679960489273071e-02,3.951459005475044250e-02,-1.320650149136781693e-02,-4.564251005649566650e-02,-5.589968338608741760e-02,5.856603756546974182e-02,-5.109887570142745972e-02,-6.318965461105108261e-03,5.275187268853187561e-02,-4.347952455282211304e-02,-7.365742325782775879e-02,-1.353765185922384262e-02,-1.978338696062564850e-02,-1.066736057400703430e-01,-4.816022515296936035e-02,6.895180046558380127e-02,9.158477932214736938e-02,-2.951087988913059235e-02,4.248115792870521545e-02,6.689476314932107925e-03,-2.565183863043785095e-02,-5.546354874968528748e-02,4.339240491390228271e-03,-2.838280238211154938e-02,-2.422850957373157144e-04,3.808803483843803406e-02,5.834187194705009460e-02,5.475300177931785583e-02,-2.355551160871982574e-02,-1.039892882108688354e-01,-1.760220155119895935e-02,-3.583435202017426491e-03,1.418617460876703262e-02,7.362699601799249649e-03,6.191024184226989746e-02,-5.646812543272972107e-02,-3.560924902558326721e-02,2.529062516987323761e-02,2.926841378211975098e-02,-5.432028789073228836e-03
3.804890811443328857e-02,9.218348190188407898e-03,-8.255986124277114868e-02,4.342058300971984863e-02,-8.302860707044601440e-02,-5.003437772393226624e-02,-3.670319169759750366e-02,-2.942056022584438324e-02,-1.432172581553459167e-02,2.178091555833816528e-02,1.628460921347141266e-02,-8.744227141141891479e-02,2.940125763416290283e-02,2.080468274652957916e-02,-9.605115279555320740e-03,5.008068308234214783e-02,5.042243748903274536e-02,2.799301408231258392e-02,-2.528845518827438354e-02,-6.063862890005111694e-02,1.127199232578277588e-01,-2.292122459039092064e-03,-3.287952765822410583e-02,-7.262319326400756836e-02,-2.362310513854026794e-02,-1.483969762921333313e-02,-1.025823205709457397e-01,9.854060411453247070e-02,1.146905031055212021e-02,1.319144479930400848e-02,-2.863581292331218719e-02,-9.934057015925645828e-04,1.385295763611793518e-02,3.505131229758262634e-03,-5.988737568259239197e-02,4.955408722162246704e-02,1.791778393089771271e-02,1.316456645727157593e-01,5.468505248427391052e-02,-6.454828381538391113e-02,6.492092460393905640e-02,-4.257272183895111084e-02,5.826875101774930954e-03,-8.389254659414291382e-02,-1.568337902426719666e-02,1.526387315243482590e-02,-3.827621042728424072e-02,-2.180091291666030884e-02,-2.372643351554870605e-02,6.721979379653930664e-02,-3.749720752239227295e-02,1.392630487680435181e-02,1.053262408822774887e-02,-5.747123621404170990e-03,-7.071217149496078491e-02,3.445879789069294930e-03,4.273956269025802612e-02,3.140733763575553894e-02,3.897442715242505074e-03,-7.904490455985069275e-03,-8.877350389957427979e-02,-8.054768666625022888e-03,-5.948351323604583740e-02,-3.875576704740524292e-02,-4.372977837920188904e-02,7.460218854248523712e-03,7.851724326610565186e-02,3.269795700907707214e-02,1.458727009594440460e-02,1.778462203219532967e-03,1.299248822033405304e-02,-3.748646751046180725e-02,-2.702552266418933868e-02,8.524368517100811005e-03,-1.353751309216022491e-02,3.171106800436973572e-02,8.444900065660476685e-02,1.004458125680685043e-02,4.819062014576047659e-04,5.826828256249427795e-02,2.009114017710089684e-03,-1.552324462682008743e-02,-2.535365149378776550e-02,1.877901889383792877e-02,2.486578933894634247e-02,-4.623809084296226501e-02,3.202492371201515198e-02,-6.933453679084777832e-02,-2.280863001942634583e-02,7.192257791757583618e-02,-1.551288831979036331e-02,-3.129667136818170547e-03,1.864781416952610016e-02,4.205026105046272278e-02,-5.829565227031707764e-03,2.874633483588695526e-02,1.546542067080736160e-02,-8.731019683182239532e-03,-6.623519957065582275e-02,-6.027781590819358826e-02,2.635279111564159393e-02,8.595494925975799561e-02,-5.448474735021591187e-02,-1.608346588909626007e-02,-6.618361454457044601e-03,-6.912762671709060669e-02,1.867284066975116730e-02,-7.425591349601745605e-02,-1.060508284717798233e-02,6.022450979799032211e-04,9.425017051398754120e-03,-6.656622141599655151e-02,-9.174484759569168091e-02,-2.444880455732345581e-02,8.864473551511764526e-02,2.551128715276718140e-02,-4.435947909951210022e-02,-6.175351887941360474e-02,3.162014856934547424e-02,-6.931116338819265366e-03,-5.708834156394004822e-02,5.586491152644157410e-02,2.206554263830184937e-02,1.187243983149528503e-01,-6.388147175312042236e-02,-4.453754052519798279e-02,6.190002337098121643e-02,-5.277041718363761902e-02
-7.400311529636383057e-02,7.393513619899749756e-02,-2.433725260198116302e-02,-6.907422095537185669e-02,9.230554103851318359e-03,-1.203456521034240723e-02,3.472616150975227356e-02,-4.509377852082252502e-02,3.754501696676015854e-03,-6.714462488889694214e-02,4.257248714566230774e-02,2.739652432501316071e-02,-6.923652719706296921e-03,-1.169800572097301483e-02,-1.137908641248941422e-02,-3.310261294245719910e-02,5.728364363312721252e-02,-4.643884021788835526e-03,-3.242481127381324768e-02,-3.118321485817432404e-02,1.855506096035242081e-03,2.901723841205239296e-03,3.186182817444205284e-03,-3.292660042643547058e-02,6.587295234203338623e-02,-8.920256048440933228e-02,-6.052577868103981018e-02,-2.299070358276367188e-02,1.734645292162895203e-02,7.330745924264192581e-03,-1.665912754833698273e-02,-2.041562460362911224e-02,2.138801617547869682e-03,8.760124444961547852e-02,-5.607710406184196472e-02,-5.913621746003627777e-03,-3.001858852803707123e-02,-4.276663437485694885e-02,-5.890179425477981567e-02,3.198236972093582153e-02,4.737128689885139465e-02,6.370576471090316772e-02,-2.330352365970611572e-02,5.522652342915534973e-02,2.527637965977191925e-02,4.135780967772006989e-03,4.821464046835899353e-02,-4.585358873009681702e-02,1.131269522011280060e-02,1.683043874800205231e-02,-3.473963961005210876e-02,1.532178372144699097e-02,-1.567220315337181091e-02,-2.329633198678493500e-02,2.116190455853939056e-02,1.755777001380920410e-02,1.205377839505672455e-02,1.863788068294525146e-02,3.588467137888073921e-03,3.504761308431625366e-02,2.069754712283611298e-02,6.576754618436098099e-03,6.190167739987373352e-03,-2.599284343887120485e-04,5.045786499977111816e-02,-1.815793849527835846e-02,-1.039753705263137817e-01,1.409235689789056778e-02,5.138517543673515320e-02,1.310350373387336731e-03,-7.155578583478927612e-02,4.608380794525146484e-02,2.006674744188785553e-02,9.347606450319290161e-03,-5.873850733041763306e-02,3.079161606729030609e-02,3.933883830904960632e-02,1.540768146514892578e-02,4.629028588533401489e-02,1.592822372913360596e-02,-2.003774419426918030e-02,3.129874169826507568e-02,-4.418338462710380554e-02,-3.235332295298576355e-02,-2.078013680875301361e-02,7.576310541480779648e-03,-1.511138956993818283e-02,-9.808659553527832031e-02,4.800972528755664825e-03,4.042048752307891846e-02,-4.143757373094558716e-02,3.552273660898208618e-02,-3.220963850617408752e-02,2.398814819753170013e-02,5.800032988190650940e-02,2.438864111900329590e-02,-9.850585833191871643e-03,-3.016715683043003082e-02,5.707059055566787720e-03,1.664827167987823486e-01,-2.116379514336585999e-02,-1.005795001983642578e-01,-3.932747244834899902e-02,-7.772039156407117844e-03,-5.091204866766929626e-02,-4.808572679758071899e-02,-8.094226941466331482e-03,6.881246343255043030e-03,-1.944602839648723602e-02,-7.199917733669281006e-02,-1.619145460426807404e-02,5.133318156003952026e-02,1.379798054695129395e-01,-3.380762040615081787e-02,-2.978169545531272888e-02,3.839778900146484375e-02,-3.057154268026351929e-02,-4.249627515673637390e-02,-4.916066676378250122e-02,5.440678447484970093e-02,3.479817137122154236e-02,2.335071749985218048e-02,6.076396442949771881e-03,-7.868213951587677002e-02,-1.845446974039077759e-02,9.371303953230381012e-03,-4.319149255752563477e-02,-7.515585422515869141e-02
-3.534726053476333618e-02,2.690827101469039917e-02,1.664494909346103668e-02,4.806475341320037842e-02,1.160403713583946228e-02,-5.065001547336578369e-02,-4.446115344762802124e-02,5.884025990962982178e-02,-4.605581238865852356e-02,-3.586328029632568359e-02,-6.217758730053901672e-02,3.988358750939369202e-02,-5.416098982095718384e-02,1.628467068076133728e-02,1.045834925025701523e-02,-6.466112565249204636e-03,-2.062015468254685402e-03,5.551444366574287415e-03,8.926474303007125854e-02,-6.912255287170410156e-02,9.037389606237411499e-02,2.686703950166702271e-02,-4.068545997142791748e-02,-6.124785915017127991e-02,1.676266454160213470e-02,-6.610779464244842529e-02,-3.085478581488132477e-02,-4.602218046784400940e-03,-1.832263544201850891e-02,5.195546150207519531e-02,-3.754365490749478340e-03,1.188411656767129898e-02,3.152060136198997498e-02,-5.241669132374227047e-04,-6.192885711789131165e-02,7.541603595018386841e-02,2.561747096478939056e-02,-1.885890145786106586e-03,-1.656886935234069824e-02,3.653053194284439087e-02,5.689313262701034546e-02,-4.769474640488624573e-02,-4.401442781090736389e-02,-3.743664361536502838e-03,1.188639458268880844e-02,-6.116687133908271790e-02,-7.136918604373931885e-02,1.351637579500675201e-02,-5.178038030862808228e-02,-3.751980885863304138e-02,-1.772506721317768097e-02,3.975809738039970398e-02,1.026249751448631287e-01,-1.453541126102209091e-02,-5.450544506311416626e-02,-3.136281296610832214e-02,-1.560181844979524612e-04,3.149373829364776611e-02,-1.752766035497188568e-02,2.524839527904987335e-02,2.183609269559383392e-02,5.573644861578941345e-02,1.452379580587148666e-02,2.254090644419193268e-02,9.991272538900375366e-02,-1.927155070006847382e-02,1.073249280452728271e-01,-3.586946800351142883e-02,5.809932947158813477e-03,-2.969825267791748047e-02,-2.170646563172340393e-02,-2.406933717429637909e-02,-9.832125902175903320e-02,3.771102800965309143e-02,-3.293979167938232422e-02,2.189997769892215729e-02,8.469412103295326233e-03,3.139431029558181763e-02,1.232985220849514008e-02,-1.102935895323753357e-02,-5.476269870996475220e-02,4.084465280175209045e-02,9.192360192537307739e-02,-3.306106105446815491e-02,7.057921611703932285e-04,4.049485921859741211e-02,-3.340319171547889709e-02,-3.458600118756294250e-02,-3.212549909949302673e-02,-6.839732825756072998e-02,-2.261672541499137878e-02,1.730225863866508007e-03,-2.454166300594806671e-03,-8.287085592746734619e-02,6.019952148199081421e-02,6.503717601299285889e-02,4.689342901110649109e-02,-1.411319710314273834e-03,-3.919649124145507812e-02,-4.916250705718994141e-02,-4.643441177904605865e-03,-4.781225696206092834e-02,-2.727803029119968414e-02,2.097225002944469452e-02,9.126643999479711056e-05,-9.946508333086967468e-03,-1.151666343212127686e-01,2.382642030715942383e-02,-7.312199473381042480e-02,-6.210016831755638123e-02,-2.545385155826807022e-03,3.470400348305702209e-02,3.359341248869895935e-02,-2.967244200408458710e-02,-2.601788006722927094e-02,7.995502091944217682e-03,-5.796962603926658630e-02,5.181080661714076996e-03,2.266131527721881866e-02,3.269936516880989075e-02,-1.251427805982530117e-03,7.471027318388223648e-03,5.485194735229015350e-03,-6.580558419227600098e-02,-1.046775877475738525e-01,8.624646812677383423e-03,-4.869066644459962845e-03,-2.079325728118419647e-02
-1.790704845916479826e-04,3.378028282895684242e-03,1.369356457144021988e-02,3.183217020705342293e-03,-6.662217527627944946e-02,6.783634424209594727e-02,-8.699110150337219238e-02,-1.993458159267902374e-02,2.540201880037784576e-02,-6.788557767868041992e-02,-3.543148934841156006e-02,-3.771607577800750732e-02,-3.140367567539215088e-02,2.676167152822017670e-02,-7.816462777554988861e-03,1.496152486652135849e-02,-6.326661258935928345e-02,-6.052013114094734192e-02,-2.679373137652873993e-02,3.435933263972401619e-03,3.117532096803188324e-02,-4.162101447582244873e-02,6.826293654739856720e-03,-5.428934097290039062e-02,1.324551086872816086e-02,-8.040088228881359100e-03,-1.761028729379177094e-02,4.861463233828544617e-02,-2.914974652230739594e-02,3.815563768148422241e-02,1.114624273031949997e-02,-5.229521915316581726e-02,2.551700174808502197e-02,2.032572031021118164e-02,-6.953482329845428467e-02,6.410180032253265381e-02,1.178221553564071655e-01,-1.485128793865442276e-02,-2.670512720942497253e-02,1.645435579121112823e-02,1.172404456883668900e-02,2.548396587371826172e-02,-6.514680385589599609e-02,4.560866951942443848e-02,-3.704313561320304871e-02,2.106927894055843353e-02,-6.486214697360992432e-02,-3.259939700365066528e-02,6.812262535095214844e-02,-6.141034886240959167e-02,-1.570821925997734070e-02,1.093129627406597137e-02,7.795365154743194580e-02,-3.743608668446540833e-02,-1.232517790049314499e-02,1.472041662782430649e-02,-5.856570322066545486e-03,3.845818340778350830e-02,-6.845751311630010605e-03,-3.997416794300079346e-02,-1.013323850929737091e-02,1.007465925067663193e-02,6.275169551372528076e-02,-2.035627327859401703e-02,5.891260504722595215e-02,1.447385456413030624e-02,-3.325243294239044189e-02,1.041558384895324707e-02,-2.450291998684406281e-02,-2.739326097071170807e-02,-8.289348334074020386e-03,-2.103591337800025940e-02,-1.859049126505851746e-02,-1.702185347676277161e-02,1.422346942126750946e-02,2.668806165456771851e-02,2.067303052172064781e-03,1.410315372049808502e-02,-6.622311472892761230e-02,2.116174995899200439e-02,-2.565375529229640961e-02,-4.568806290626525879e-02,-2.937772683799266815e-02,-3.972253575921058655e-02,4.344234243035316467e-02,2.037995494902133942e-02,2.973858080804347992e-02,2.923275530338287354e-02,-4.508787021040916443e-02,-2.189965220168232918e-03,4.996801912784576416e-02,1.954933628439903259e-02,-7.914719171822071075e-03,-9.540714323520660400e-02,6.602514069527387619e-03,3.460241854190826416e-02,1.568694971501827240e-02,5.763820558786392212e-02,2.638706006109714508e-02,-5.569086223840713501e-02,2.056361921131610870e-02,2.797784283757209778e-02,2.954105474054813385e-02,4.931783303618431091e-02,-3.937062248587608337e-02,-9.215918183326721191e-02,4.452924802899360657e-02,7.134243100881576538e-02,-5.623525381088256836e-02,1.489806175231933594e-02,2.058725990355014801e-02,-8.953081071376800537e-02,-8.271446451544761658e-03,-2.409814298152923584e-02,8.442808687686920166e-02,-1.861996366642415524e-03,6.645628064870834351e-02,-7.427341490983963013e-02,2.638348005712032318e-02,-5.915707349777221680e-02,-1.185461971908807755e-02,-2.671710588037967682e-02,-2.666184306144714355e-02,8.642838150262832642e-02,-4.860392212867736816e-02,1.805220358073711395e-02,-1.722131110727787018e-02,-5.676120892167091370e-02
-2.795181050896644592e-02,3.386451676487922668e-02,3.243348002433776855e-02,-5.288178101181983948e-02,-4.362878575921058655e-02,-6.231639906764030457e-02,-6.525131175294518471e-04,4.518381878733634949e-02,-4.465205222368240356e-02,1.139538246206939220e-03,6.018761172890663147e-02,-2.499311417341232300e-02,-6.924111396074295044e-02,-4.510696977376937866e-02,-1.143774949014186859e-02,-4.536170884966850281e-02,1.054958254098892212e-01,-7.614445686340332031e-02,-4.809710010886192322e-02,1.225054264068603516e-02,6.903159618377685547e-02,4.130914062261581421e-02,3.642847761511802673e-02,3.017520718276500702e-02,-1.401520892977714539e-02,6.531319580972194672e-03,9.147224947810173035e-03,2.610786259174346924e-02,3.088028170168399811e-02,-4.133044928312301636e-02,-5.269797518849372864e-02,3.849960863590240479e-02,-5.696086445823311806e-04,-8.530211052857339382e-04,-1.095158010721206665e-01,6.262506544589996338e-02,4.376829415559768677e-02,-4.857436288148164749e-03,-9.316297248005867004e-03,-2.413843385875225067e-02,4.023717250674962997e-03,5.663358047604560852e-02,8.356524631381034851e-03,-5.288162827491760254e-02,7.170241326093673706e-02,5.926882475614547729e-02,-2.865241281688213348e-02,-4.098511487245559692e-02,6.388334184885025024e-02,-2.908533439040184021e-02,-6.605141609907150269e-02,4.514602199196815491e-02,-1.167829707264900208e-02,-3.070302866399288177e-02,1.563836447894573212e-02,9.073542803525924683e-02,6.924537941813468933e-03,-1.924647390842437744e-02,-5.885290354490280151e-02,-1.347943302243947983e-02,7.457308005541563034e-03,-9.271624498069286346e-03,-5.770654231309890747e-02,-1.733827590942382812e-02,2.170809544622898102e-02,-4.226086288690567017e-02,-1.205890029668807983e-01,-3.165833279490470886e-02,-4.419546574354171753e-02,1.071220077574253082e-02,-3.377210721373558044e-02,-1.134798303246498108e-02,1.828292384743690491e-02,-4.379441216588020325e-02,-1.729239523410797119e-02,2.378102950751781464e-02,2.040455862879753113e-02,7.534401118755340576e-02,1.054790429770946503e-02,7.842864096164703369e-02,4.530555009841918945e-02,1.347287744283676147e-02,2.116145938634872437e-02,3.012359701097011566e-02,3.300013765692710876e-02,-3.508438542485237122e-02,2.389281056821346283e-02,-5.407217517495155334e-02,-5.139431357383728027e-02,-5.046973749995231628e-02,-8.455096185207366943e-02,-4.369355365633964539e-02,6.494486331939697266e-02,4.495846107602119446e-02,-3.623583540320396423e-02,3.039170987904071808e-02,-4.404216539114713669e-03,-1.789580099284648895e-02,3.089250065386295319e-02,5.226108431816101074e-02,2.769123762845993042e-02,-5.966447666287422180e-02,-3.043213859200477600e-02,2.580083440989255905e-03,-8.189171552658081055e-02,2.875482197850942612e-03,1.181632978841662407e-03,3.766883537173271179e-02,-7.525442633777856827e-03,-9.940643608570098877e-02,8.109394460916519165e-02,7.063086330890655518e-02,8.647483773529529572e-03,4.447643831372261047e-02,-2.410958521068096161e-02,-5.742474272847175598e-02,-3.366783028468489647e-03,-2.632221579551696777e-02,-3.078887425363063812e-02,6.191373243927955627e-02,-5.413382872939109802e-02,-3.056034632027149200e-02,-2.791373245418071747e-02,-1.266681961715221405e-02,-3.874031081795692444e-02,-2.841499634087085724e-03,-4.464586079120635986e-02,-7.640930265188217163e-02
-1.317899581044912338e-02,8.407759666442871094e-02,3.929160162806510925e-02,-4.208303242921829224e-02,-1.546788867563009262e-02,-3.969047218561172485e-02,-4.521533474326133728e-02,6.212080270051956177e-02,-1.168339103460311890e-01,-7.079169619828462601e-03,-9.137091785669326782e-02,7.897150702774524689e-03,-6.273110955953598022e-02,1.846629194915294647e-02,-2.458881353959441185e-03,5.275466013699769974e-03,-1.205942407250404358e-02,-4.174892604351043701e-02,2.497486770153045654e-02,-2.335806004703044891e-02,4.603939875960350037e-02,6.601159274578094482e-02,-2.543021924793720245e-02,6.923580542206764221e-03,-1.370090991258621216e-02,-4.647798836231231689e-02,-5.623961240053176880e-02,4.297221824526786804e-02,5.435481294989585876e-02,4.602270573377609253e-02,-3.522545844316482544e-02,-5.216220393776893616e-02,-1.306448131799697876e-03,-5.035661533474922180e-02,-6.504172831773757935e-02,4.080165922641754150e-02,-6.287927925586700439e-02,-1.085594389587640762e-02,-3.578835353255271912e-02,-2.426740340888500214e-02,1.200399361550807953e-02,-1.915614679455757141e-02,4.669256508350372314e-03,5.030926689505577087e-02,2.727671898901462555e-02,-6.149282678961753845e-03,-1.068375189788639545e-03,-4.778031259775161743e-03,-6.125537306070327759e-02,-3.512773290276527405e-02,-3.629621490836143494e-02,1.407412625849246979e-02,9.815658628940582275e-02,-6.884241104125976562e-02,-5.916821211576461792e-02,2.222887426614761353e-02,-4.507132992148399353e-02,-2.121586166322231293e-02,7.837539166212081909e-02,-5.959261208772659302e-02,-4.008277505636215210e-02,1.198731921613216400e-02,1.040856242179870605e-01,-5.597511306405067444e-03,1.343538463115692139e-01,1.181542221456766129e-02,9.602589905261993408e-02,-4.014487564563751221e-02,2.167550846934318542e-02,-5.845198035240173340e-02,-6.720800884068012238e-03,2.017769496887922287e-03,-8.645927160978317261e-02,-4.844385758042335510e-02,4.338486865162849426e-02,4.303734004497528076e-02,2.899948321282863617e-02,9.664882905781269073e-03,9.197247773408889771e-02,-2.471868880093097687e-02,1.963187381625175476e-02,3.173698903992772102e-03,5.546235665678977966e-02,4.760775249451398849e-03,9.239710867404937744e-02,-5.094655230641365051e-02,4.861195757985115051e-02,-1.603572256863117218e-02,-1.381056196987628937e-02,-5.071501806378364563e-02,-3.716142848134040833e-02,-1.340733002871274948e-02,-4.618837963789701462e-03,-5.470179766416549683e-02,6.404370069503784180e-02,1.531829312443733215e-02,5.502963811159133911e-02,-1.447945088148117065e-02,1.851703040301799774e-02,-3.166545182466506958e-02,2.101333811879158020e-02,-2.636528946459293365e-02,-2.325141429901123047e-02,-5.375648662447929382e-02,-8.509842678904533386e-03,-3.744064271450042725e-02,7.707439363002777100e-03,-2.746750041842460632e-02,-2.323411591351032257e-02,-5.364328995347023010e-02,9.540619328618049622e-03,-1.019918322563171387e-01,3.319012373685836792e-02,3.431387245655059814e-03,9.381377138197422028e-03,-6.838902831077575684e-02,-4.284502938389778137e-02,-6.054843962192535400e-02,2.152584865689277649e-02,4.331935569643974304e-02,-7.858091592788696289e-02,5.676027014851570129e-02,-4.668729379773139954e-02,-1.724976487457752228e-02,-8.182364702224731445e-02,3.680852428078651428e-02,-4.643846303224563599e-02,-3.705532103776931763e-02
-4.635706543922424316e-02,-1.324494514847174287e-04,-9.119878523051738739e-03,2.272429130971431732e-02,-3.593788668513298035e-02,5.880538374185562134e-02,-2.713784947991371155e-02,2.526470459997653961e-02,1.285516377538442612e-02,-5.368184298276901245e-02,-3.500299900770187378e-02,-2.240109257400035858e-02,-9.067757055163383484e-03,8.397378027439117432e-02,-8.994515053927898407e-03,-9.418098255991935730e-03,-5.335187539458274841e-02,5.569121614098548889e-02,-5.337258800864219666e-02,2.253616042435169220e-02,-1.024103388190269470e-01,4.834418743848800659e-02,-5.524026229977607727e-03,-1.854293048381805420e-02,5.635407287627458572e-03,-4.364411160349845886e-02,5.778506025671958923e-02,-6.370228528976440430e-02,4.873529076576232910e-02,2.103991247713565826e-02,-2.782879956066608429e-02,-5.539003759622573853e-02,-3.806042484939098358e-03,-3.793273121118545532e-02,-2.243014052510261536e-02,-3.428352531045675278e-03,7.305146753787994385e-02,-5.932303518056869507e-02,-8.080899715423583984e-02,4.087107628583908081e-02,-2.534921281039714813e-02,-4.851559177041053772e-02,-2.055342681705951691e-02,3.507610782980918884e-02,-4.328796267509460449e-02,-1.524071954190731049e-02,-7.132665812969207764e-02,-2.031661011278629303e-02,-1.601037941873073578e-02,2.385010197758674622e-02,4.304452985525131226e-02,5.726436153054237366e-02,8.803372085094451904e-02,1.589762163348495960e-03,-1.432030927389860153e-03,-4.363083280622959137e-03,-4.034223407506942749e-02,-4.491473361849784851e-02,5.153457447886466980e-02,-3.921128064393997192e-02,-2.450026199221611023e-02,2.219435945153236389e-02,1.189961582422256470e-01,3.640230745077133179e-02,4.175881668925285339e-02,-4.748513549566268921e-02,-9.542208909988403320e-02,-1.499428227543830872e-02,-5.337182432413101196e-02,-2.202915027737617493e-02,-9.745981544256210327e-03,1.318677421659231186e-02,9.910423308610916138e-03,-1.703175716102123260e-02,5.720432475209236145e-02,2.273929276270791888e-04,1.587836816906929016e-02,-1.104656606912612915e-02,-2.124456129968166351e-02,5.629266146570444107e-03,-1.447199936956167221e-02,2.939365804195404053e-02,5.252739042043685913e-02,1.043786201626062393e-02,3.036164864897727966e-02,-3.711200878024101257e-02,4.807900264859199524e-02,7.662095129489898682e-03,-2.745697041973471642e-03,5.688143149018287659e-02,-2.450064569711685181e-02,-1.270955428481101990e-02,-7.733811624348163605e-03,-5.483151599764823914e-02,-7.629297673702239990e-03,-5.538899078965187073e-02,-5.600711703300476074e-02,1.659305095672607422e-01,1.155528798699378967e-02,-7.139040529727935791e-02,7.847495377063751221e-02,-4.063447564840316772e-02,-4.923488944768905640e-03,-2.931792475283145905e-02,-4.627295956015586853e-02,-5.960933864116668701e-02,-6.691901385784149170e-02,8.701177686452865601e-02,-3.580534085631370544e-02,-7.151793688535690308e-02,1.287068612873554230e-02,-7.075302302837371826e-02,-2.249949239194393158e-02,3.424043999984860420e-03,2.485469449311494827e-03,-1.800672709941864014e-02,-3.156679740641266108e-04,-3.778864070773124695e-02,2.608050778508186340e-02,-6.438576150685548782e-03,-6.946605863049626350e-04,2.166691794991493225e-02,8.917344361543655396e-02,5.838310346007347107e-02,5.924226716160774231e-02,2.575317397713661194e-02,1.104193832725286484e-02,-6.664572656154632568e-02
1.502959523350000381e-02,2.373822219669818878e-02,-1.992938108742237091e-02,7.051566243171691895e-02,1.055399235337972641e-02,-1.757890544831752777e-02,-2.302988991141319275e-02,-5.838842317461967468e-02,-4.650117829442024231e-02,2.252644114196300507e-02,5.606088787317276001e-02,-5.497815832495689392e-02,-2.048258669674396515e-02,1.204146593809127808e-01,2.233040146529674530e-02,1.441231556236743927e-02,-1.957024075090885162e-02,5.129411444067955017e-02,6.614715792238712311e-03,-2.987405471503734589e-02,4.942551255226135254e-02,-1.499683223664760590e-02,-1.595180295407772064e-02,5.722358450293540955e-02,3.995108604431152344e-02,-3.572759777307510376e-02,2.268412336707115173e-02,-1.517739333212375641e-02,-4.349711164832115173e-02,-1.026743743568658829e-02,4.008759558200836182e-02,-6.666569039225578308e-03,1.902358233928680420e-02,-3.975172061473131180e-03,-4.773518443107604980e-02,1.257648970931768417e-02,-2.049084380269050598e-02,-2.840627543628215790e-02,3.029244393110275269e-02,9.236941486597061157e-02,-1.759591139853000641e-02,-5.654005333781242371e-03,5.450651422142982483e-02,-3.450861200690269470e-02,2.747401781380176544e-02,3.606104105710983276e-02,-4.693800210952758789e-02,-3.757289797067642212e-02,6.910584867000579834e-02,2.743552904576063156e-04,3.232910297811031342e-03,5.111067369580268860e-02,1.675243861973285675e-02,-4.848713800311088562e-02,-8.102598041296005249e-02,-2.373342588543891907e-02,2.480995655059814453e-02,-3.301547374576330185e-03,-2.115945704281330109e-02,-1.683872006833553314e-02,9.956077672541141510e-03,5.305301025509834290e-02,-6.564469635486602783e-02,4.028257535537704825e-05,-2.061110548675060272e-02,-6.520752329379320145e-03,-5.111345648765563965e-02,6.577324587851762772e-03,6.143585313111543655e-03,-8.908651769161224365e-03,8.202675729990005493e-03,1.770902052521705627e-02,4.516722168773412704e-03,-2.665913105010986328e-02,-2.109741792082786560e-02,3.912056982517242432e-02,6.699230521917343140e-03,3.799917176365852356e-03,1.420779153704643250e-02,-4.805870819836854935e-03,-2.730769850313663483e-02,-4.578572406899183989e-04,4.755975306034088135e-02,4.905750229954719543e-02,-3.654995188117027283e-02,-2.573653683066368103e-02,-2.443330921232700348e-02,4.266363568603992462e-03,-2.905463986098766327e-02,-3.938743844628334045e-02,-3.277391195297241211e-02,4.277079552412033081e-02,-1.908201351761817932e-02,-4.124695900827646255e-03,-3.655212745070457458e-02,-4.450861364603042603e-02,-4.375355783849954605e-03,3.587518632411956787e-02,-1.350955851376056671e-02,2.283541299402713776e-02,6.462074816226959229e-02,1.244724728167057037e-02,4.440888017416000366e-02,2.158931829035282135e-02,-5.504943430423736572e-03,-5.480111762881278992e-02,-5.579521879553794861e-03,3.681374713778495789e-03,-2.671615406870841980e-02,-4.777482151985168457e-02,-3.477263078093528748e-02,2.065427601337432861e-03,-4.378628358244895935e-02,3.851573914289474487e-02,-8.869539946317672729e-03,-2.618926949799060822e-02,9.234021417796611786e-03,7.383212447166442871e-03,-5.530461296439170837e-02,5.290563683956861496e-03,-3.024852601811289787e-03,-3.164163604378700256e-02,-3.353557735681533813e-02,-1.165505219250917435e-02,-2.070891670882701874e-02,4.255754873156547546e-02,-1.902047730982303619e-02,1.154683716595172882e-02
3.352684900164604187e-02,1.544628199189901352e-02,-5.968868732452392578e-03,1.620360417291522026e-03,-2.461099997162818909e-02,-5.990154296159744263e-02,-9.411103092133998871e-03,1.957329176366329193e-02,1.637769490480422974e-02,-1.705315150320529938e-02,5.354972928762435913e-02,2.775564417243003845e-02,-3.763069165870547295e-03,8.480996824800968170e-03,-3.290567174553871155e-02,2.671095728874206543e-02,-1.111385412514209747e-02,2.364684827625751495e-02,8.827197365462779999e-03,4.425607156008481979e-03,3.457905352115631104e-02,1.299837604165077209e-02,2.816748246550559998e-02,-5.110318586230278015e-02,-5.704906769096851349e-03,-5.431963596493005753e-03,3.418404608964920044e-02,-4.025894030928611755e-02,1.542230881750583649e-02,3.761152923107147217e-02,-1.099811587482690811e-02,-7.197322323918342590e-03,-3.323421254754066467e-02,-1.343608833849430084e-02,-7.876750081777572632e-02,1.595849730074405670e-02,-4.333135858178138733e-02,-1.637198962271213531e-02,4.675528034567832947e-02,1.169047039002180099e-02,-2.816652320325374603e-02,2.080064453184604645e-02,5.502859130501747131e-02,-5.513070896267890930e-02,-7.615157403051853180e-03,2.141642943024635315e-02,5.059540644288063049e-02,9.874135255813598633e-03,5.124395340681076050e-02,-1.537862978875637054e-02,1.945980638265609741e-02,-2.080272510647773743e-02,2.986337803304195404e-02,-2.992050722241401672e-02,5.547771696001291275e-03,9.067179635167121887e-03,1.158639974892139435e-02,4.759426228702068329e-03,4.809815436601638794e-02,5.748663470149040222e-02,-1.155792362987995148e-02,2.574912644922733307e-02,4.552401136606931686e-03,-6.206679344177246094e-02,1.034870836883783340e-02,-2.052878262475132942e-03,2.503267861902713776e-02,3.229965269565582275e-02,5.238807294517755508e-03,3.848823532462120056e-02,-5.167467147111892700e-02,-2.804200910031795502e-02,-2.036345563828945160e-02,2.996443212032318115e-02,-3.780919313430786133e-02,-1.983574405312538147e-02,1.909470185637474060e-02,1.250067446380853653e-02,4.683794453740119934e-02,-2.855154313147068024e-02,-5.780192092061042786e-02,-1.460850704461336136e-02,-3.862188663333654404e-03,-6.022992357611656189e-02,-4.444523248821496964e-03,7.770243100821971893e-04,-1.404721941798925400e-02,-2.370406314730644226e-02,4.624139145016670227e-02,-4.678715392947196960e-02,-3.720705583691596985e-02,1.247858046554028988e-03,2.519219368696212769e-02,-1.957767084240913391e-02,2.626972459256649017e-02,-4.320930317044258118e-02,2.758165448904037476e-02,2.126251114532351494e-03,2.961594145745038986e-03,-5.390996485948562622e-02,4.892974346876144409e-02,-1.749494485557079315e-02,2.874070079997181892e-03,2.864950709044933319e-02,-2.423346973955631256e-02,-1.263055577874183655e-02,-5.875730887055397034e-03,-6.707397848367691040e-02,2.954122610390186310e-02,-3.609423339366912842e-02,-2.544359676539897919e-02,2.044908702373504639e-02,3.008323535323143005e-02,-4.580809734761714935e-03,-1.110875234007835388e-02,-5.256132688373327255e-03,3.745626285672187805e-02,3.611177578568458557e-02,-3.845655545592308044e-02,2.370218560099601746e-02,6.516014784574508667e-02,4.252845793962478638e-02,-3.836400434374809265e-02,-1.839453168213367462e-02,1.096701435744762421e-02,-3.675758838653564453e-02,-3.286870941519737244e-02,-5.905099958181381226e-02
8.397514373064041138e-02,-1.675917580723762512e-02,-4.434272646903991699e-02,-2.452189661562442780e-02,6.215622276067733765e-02,-6.663525849580764771e-02,-2.337728627026081085e-02,-5.289312452077865601e-02,5.744046717882156372e-02,5.921313539147377014e-03,3.774714469909667969e-02,-2.577426284551620483e-02,6.291965954005718231e-03,3.602795302867889404e-02,1.505726249888539314e-03,3.092021681368350983e-03,1.906280964612960815e-02,-9.447483345866203308e-03,-4.402795806527137756e-02,4.206455871462821960e-02,-6.869596242904663086e-02,-1.689451560378074646e-02,5.839065462350845337e-02,3.562330827116966248e-02,3.244711831212043762e-02,4.108219221234321594e-02,5.907729268074035645e-02,-4.505594819784164429e-02,1.917257905006408691e-02,-4.263100028038024902e-02,-8.169352263212203979e-02,-2.331878803670406342e-02,2.669414319097995758e-02,-4.013640061020851135e-02,-1.772136986255645752e-02,3.577733039855957031e-02,-3.850241377949714661e-02,-2.078652847558259964e-03,-4.849276971071958542e-03,-4.321740195155143738e-02,-4.181515052914619446e-02,3.794132499024271965e-03,-1.463915221393108368e-02,-3.549825772643089294e-02,1.395808625966310501e-02,1.764241419732570648e-02,-3.159093856811523438e-02,2.186044678092002869e-02,-3.032344952225685120e-02,-1.055061817169189453e-02,-8.405675180256366730e-03,-2.481753192842006683e-02,-7.681999821215867996e-03,-9.026096202433109283e-03,1.897679083049297333e-02,-3.654417023062705994e-02,-2.927149087190628052e-02,-4.587077349424362183e-02,-4.273640736937522888e-02,-5.375325679779052734e-03,5.088001862168312073e-02,3.831625357270240784e-02,-2.281611785292625427e-02,-5.223138630390167236e-02,1.540565397590398788e-02,3.107368014752864838e-02,-6.705904752016067505e-02,-2.167639322578907013e-02,4.001794755458831787e-02,-1.710578612983226776e-02,-3.256378462538123131e-03,-9.293617680668830872e-03,-2.980099292472004890e-03,7.366116158664226532e-03,-8.367877453565597534e-03,-1.924993004649877548e-03,-9.800940752029418945e-04,9.293071925640106201e-02,-1.547109917737543583e-03,4.509099572896957397e-02,-2.092503570020198822e-02,-2.195598091930150986e-03,-8.531811647117137909e-03,-4.958421364426612854e-02,-1.977758947759866714e-03,-2.088360488414764404e-02,-2.135281264781951904e-02,6.388728506863117218e-04,6.422365549951791763e-03,-6.500775367021560669e-02,-3.062091302126646042e-03,2.820962294936180115e-02,-5.523101892322301865e-03,2.932027168571949005e-02,7.626005262136459351e-02,2.669930271804332733e-02,-2.533858269453048706e-02,3.587329387664794922e-02,9.986773511627689004e-05,-3.548094630241394043e-02,6.928999722003936768e-02,1.864378713071346283e-02,-3.634862974286079407e-02,-4.511084780097007751e-02,4.078315570950508118e-02,-9.468176402151584625e-03,1.649382524192333221e-02,-2.174709364771842957e-02,-2.172447927296161652e-02,1.906117610633373260e-02,-3.357370197772979736e-02,-1.363164279609918594e-02,1.282020099461078644e-02,2.877379022538661957e-02,-4.877819120883941650e-02,2.710166573524475098e-02,-9.800654835999011993e-03,-6.700009107589721680e-02,-8.762648329138755798e-03,1.415065117180347443e-02,3.571889922022819519e-02,3.701458126306533813e-02,-5.090670660138130188e-02,-2.887847833335399628e-02,1.896564289927482605e-02,-5.634912103414535522e-02,1.357771456241607666e-03,2.392964065074920654e-02
